svm_type c_svc
kernel_type sigmoid
gamma 10
coef0 10
nr_class 24
total_sv 283
rho 1 -1 -1 0 -1 0 0 1 0 0 -1 -1 1 1 -1 -1 1 -1 -1 1 0 -1 -1 -1 -1 -1 -1 -1 -1 0 -1 -1 -1 -1 0 0 -1 -1 0 -1 -1 0 -1 -1 -1 -1 1 -1 1 1 1 1 1 0 -1 1 1 0 0 1 0 -1 1 1 -1 -1 1 0 1 1 1 1 1 1 0 1 1 1 1 1 1 0 1 1 0 0 -1 0 0 1 0 0 -1 -1 1 1 -1 -1 1 -1 -1 1 0 -1 -1 1 1 1 1 1 1 0 1 1 1 1 1 1 0 1 1 0 0 0 1 0 0 -1 -1 1 1 -1 -1 1 -1 -1 1 0 -1 -1 1 0 0 -1 -1 1 1 -1 -1 1 -1 -1 1 0 -1 -1 -1 -1 -1 -1 0 0 -1 -1 0 -1 -1 0 -1 -1 -1 0 -1 -1 1 1 -1 -1 1 -1 -1 1 0 -1 -1 -1 -1 1 1 -1 -1 1 -1 -1 1 0 -1 -1 -1 1 1 0 0 1 0 -1 1 1 -1 -1 1 1 1 1 1 1 0 1 1 0 0 0 -1 -1 0 -1 -1 0 -1 -1 -1 -1 -1 0 -1 -1 0 -1 -1 -1 0 1 0 -1 1 1 -1 -1 1 0 -1 1 1 -1 -1 -1 -1 0 -1 -1 -1 -1 1 1 -1 -1 1 1 0 0 -1 -1 -1 -1 -1 0
label 10 16 20 1 8 3 7 6 15 9 11 19 4 17 13 18 23 12 21 5 14 22 2 0
nr_sv 11 18 10 8 11 8 11 11 18 11 11 10 8 18 18 10 10 18 10 8 18 11 8 8
SV
1 0 0 1 0 1 1 1 1 1 0 0 1 1 0 0 1 0 0 1 1 0 0 28:1 41:1 45:1 70:1 92:1 
1 1 0 1 0 1 1 1 1 1 1 0 1 1 1 1 1 1 0 1 1 0 0 14:1 35:1 41:1 70:1 91:1 92:1 
1 1 0 1 0 1 1 1 1 1 1 0 1 1 1 1 1 1 0 1 1 0 0 14:1 41:1 45:1 63:1 70:1 82:1 92:1 93:1 
1 1 1 1 1 1 1 1 1 1 1 1 1 1 1 1 1 1 1 1 1 1 1 14:1 29:1 30:1 33:1 41:1 43:1 45:1 72:1 73:1 82:1 92:1 
1 1 1 1 1 1 1 1 1 1 1 1 1 1 1 1 1 1 1 1 1 1 1 5:1 41:1 53:1 92:1 
1 1 1 1 1 1 1 1 1 1 1 1 1 1 1 1 1 1 1 1 1 1 1 41:1 92:1 
1 1 1 1 1 1 1 1 1 1 1 1 1 1 1 1 1 1 1 1 1 1 1 14:1 28:1 41:1 45:1 60:1 66:1 70:1 92:1 
1 1 1 1 1 1 1 1 1 1 1 1 1 1 1 1 1 1 1 1 1 1 1 7:1 41:1 43:1 52:1 72:1 90:1 92:1 
1 1 1 1 1 1 1 1 1 1 1 1 1 1 1 1 1 1 1 1 1 1 1 9:1 14:1 29:1 34:1 41:1 44:1 46:2 52:1 56:1 74:2 87:2 92:1 
1 1 1 1 1 1 1 1 1 1 1 1 1 1 1 1 1 1 1 1 1 1 1 29:1 33:1 41:1 45:1 56:1 57:1 73:1 82:1 92:1 
1 1 1 1 1 1 1 1 1 1 1 1 1 1 1 1 1 1 1 1 1 1 1 4:1 41:1 46:1 47:1 70:1 92:1 
-0 0 0 0 0 0 0 1 0 0 0 0 1 1 0 0 1 0 0 1 0 0 0 23:1 41:1 46:1 68:1 87:1 89:1 
-0 0 0 0 0 0 0 1 0 0 0 0 1 1 0 0 1 0 0 1 0 0 0 21:1 24:1 36:1 41:1 46:1 69:1 87:1 90:1 
-0 0 0 0 0 0 0 1 0 0 0 0 1 1 0 0 1 0 0 1 0 0 0 11:1 28:2 41:1 46:1 69:1 71:1 88:1 
-0 0 0 0 0 0 0 1 0 0 0 0 1 1 0 0 1 0 0 1 0 0 0 14:1 20:1 28:1 35:1 41:1 45:1 68:1 
-0 0 0 0 0 0 0 1 0 0 0 0 1 1 0 0 1 0 0 1 0 0 0 14:1 21:1 36:1 41:1 46:1 68:1 87:1 
-0 0 0 0 0 0 0 1 0 0 0 0 1 1 0 0 1 0 0 1 0 0 0 14:1 21:1 24:1 36:1 41:1 46:1 68:1 87:1 
-0 0 0 0 0 0 0 1 0 0 0 0 1 1 0 0 1 0 0 1 0 0 0 14:1 17:1 35:1 41:1 53:1 58:1 67:1 68:1 81:1 85:1 
-1 0 0 1 0 1 1 1 1 1 0 0 1 1 0 0 1 0 0 1 1 0 0 19:1 24:1 36:1 41:1 46:1 69:1 87:1 90:1 
-1 1 0 1 0 1 1 1 1 1 1 0 1 1 1 1 1 1 0 1 1 0 0 14:1 21:1 24:1 36:1 41:1 46:1 68:1 87:1 98:1 
-1 1 0 1 0 1 1 1 1 1 1 0 1 1 1 1 1 1 0 1 1 0 0 14:1 21:1 36:1 41:1 46:1 69:1 87:1 
-1 1 1 1 1 1 1 1 1 1 1 1 1 1 1 1 1 1 1 1 1 1 1 10:1 11:1 18:1 27:1 28:1 29:1 32:1 41:1 48:1 49:1 50:1 51:1 71:1 86:1 
-1 1 1 1 1 1 1 1 1 1 1 1 1 1 1 1 1 1 1 1 1 1 1 14:1 41:1 46:1 51:1 87:1 88:1 
-1 1 1 1 1 1 1 1 1 1 1 1 1 1 1 1 1 1 1 1 1 1 1 11:1 21:1 28:1 41:1 46:1 68:1 70:1 71:1 84:1 
-1 1 1 1 1 1 1 1 1 1 1 1 1 1 1 1 1 1 1 1 1 1 1 20:1 35:1 41:1 46:1 68:1 87:1 
-1 1 1 1 1 1 1 1 1 1 1 1 1 1 1 1 1 1 1 1 1 1 1 1:1 14:1 24:1 41:1 46:1 53:1 68:1 
-1 1 1 1 1 1 1 1 1 1 1 1 1 1 1 1 1 1 1 1 1 1 1 8:1 14:1 41:1 46:1 52:1 61:1 68:1 70:1 
-1 1 1 1 1 1 1 1 1 1 1 1 1 1 1 1 1 1 1 1 1 1 1 21:1 24:1 41:1 46:1 68:1 87:1 
-1 1 1 1 1 1 1 1 1 1 1 1 1 1 1 1 1 1 1 1 1 1 1 2:1 24:1 36:1 41:1 46:1 54:1 68:1 101:1 
-1 -1 0 1 0 1 1 1 1 1 1 0 1 1 1 1 1 1 0 1 1 0 0 24:1 26:1 39:1 46:1 77:1 87:1 88:1 
-1 -1 0 1 0 1 1 1 1 1 1 0 1 1 1 1 1 1 0 1 1 0 0 11:1 14:1 25:1 28:1 35:1 39:1 46:1 54:1 59:1 71:1 77:1 95:1 100:1 101:1 
-1 -1 1 1 1 1 1 1 1 1 1 1 1 1 1 1 1 1 1 1 1 1 1 14:1 17:1 21:1 36:1 39:1 45:1 75:1 78:1 87:1 
-1 -1 1 1 1 1 1 1 1 1 1 1 1 1 1 1 1 1 1 1 1 1 1 14:1 39:1 46:1 53:1 77:1 95:1 
-1 -1 1 1 1 1 1 1 1 1 1 1 1 1 1 1 1 1 1 1 1 1 1 14:1 17:1 21:1 36:1 39:1 45:1 77:1 80:1 87:1 
-1 -1 1 1 1 1 1 1 1 1 1 1 1 1 1 1 1 1 1 1 1 1 1 14:1 27:1 39:1 45:1 76:1 94:1 102:1 
-1 -1 1 1 1 1 1 1 1 1 1 1 1 1 1 1 1 1 1 1 1 1 1 14:1 24:1 39:1 46:1 77:1 87:1 97:1 
-1 -1 1 1 1 1 1 1 1 1 1 1 1 1 1 1 1 1 1 1 1 1 1 14:1 26:1 39:1 46:1 54:1 77:1 96:1 101:1 
-1 -1 1 1 1 1 1 1 1 1 1 1 1 1 1 1 1 1 1 1 1 1 1 11:1 14:1 28:1 39:1 46:1 54:1 71:1 77:1 97:1 101:1 
-1 -1 1 1 1 1 1 1 1 1 1 1 1 1 1 1 1 1 1 1 1 1 1 14:1 21:1 39:1 46:1 77:1 87:1 
-1 -1 -1 1 1 1 1 1 1 1 1 1 1 1 1 1 1 1 1 1 1 1 1 4:1 11:1 13:1 14:1 28:1 35:1 38:1 45:1 47:1 70:1 71:1 
-1 -1 -1 1 1 1 1 1 1 1 1 1 1 1 1 1 1 1 1 1 1 1 1 4:1 33:1 38:1 45:1 47:1 73:1 92:1 
-1 -1 -1 1 1 1 1 1 1 1 1 1 1 1 1 1 1 1 1 1 1 1 1 13:1 30:1 38:1 45:1 53:1 70:1 
-1 -1 -1 1 1 1 1 1 1 1 1 1 1 1 1 1 1 1 1 1 1 1 1 4:1 13:1 14:1 38:1 53:1 70:1 
-1 -1 -1 1 1 1 1 1 1 1 1 1 1 1 1 1 1 1 1 1 1 1 1 13:1 14:1 28:1 38:1 45:1 63:1 70:1 
-1 -1 -1 1 1 1 1 1 1 1 1 1 1 1 1 1 1 1 1 1 1 1 1 13:1 31:1 38:1 52:1 70:1 
-1 -1 -1 1 1 1 1 1 1 1 1 1 1 1 1 1 1 1 1 1 1 1 1 4:1 11:1 13:1 14:1 28:1 38:1 45:1 47:1 70:1 71:1 
-1 -1 -1 1 1 1 1 1 1 1 1 1 1 1 1 1 1 1 1 1 1 1 1 6:1 16:1 38:1 52:1 92:1 
-1 -1 -0 -0 0 1 1 1 1 1 0 0 1 1 0 0 1 0 0 1 1 0 0 4:1 14:1 29:1 33:1 39:1 43:1 45:1 47:1 72:1 73:1 92:1 
-1 -1 -1 -0 0 1 1 1 1 1 1 0 1 1 1 1 1 1 0 1 1 0 0 14:1 39:1 45:1 63:1 70:1 82:1 92:1 93:1 
-1 -1 -1 -0 0 1 1 1 1 1 1 0 1 1 1 1 1 1 0 1 1 0 0 29:1 33:1 39:1 45:1 56:1 57:1 73:1 82:1 92:1 
-1 -1 -1 -1 1 1 1 1 1 1 1 1 1 1 1 1 1 1 1 1 1 1 1 7:1 39:1 43:1 52:1 72:1 90:1 92:1 
-1 -1 -1 -1 1 1 1 1 1 1 1 1 1 1 1 1 1 1 1 1 1 1 1 14:1 28:1 39:1 45:1 60:1 66:1 70:1 92:1 
-1 -1 -1 -1 1 1 1 1 1 1 1 1 1 1 1 1 1 1 1 1 1 1 1 28:1 39:1 45:1 70:1 92:1 
-1 -1 -1 -1 1 1 1 1 1 1 1 1 1 1 1 1 1 1 1 1 1 1 1 14:1 29:1 30:1 33:1 39:1 43:1 45:1 72:1 73:1 82:1 92:1 
-1 -1 -1 -1 1 1 1 1 1 1 1 1 1 1 1 1 1 1 1 1 1 1 1 14:1 22:1 39:1 43:1 45:1 72:1 83:1 92:1 
-1 -1 -1 -1 1 1 1 1 1 1 1 1 1 1 1 1 1 1 1 1 1 1 1 14:1 35:1 39:1 70:1 91:1 92:1 
-1 -1 -1 -1 1 1 1 1 1 1 1 1 1 1 1 1 1 1 1 1 1 1 1 9:1 14:1 29:1 34:1 39:1 44:1 46:2 52:1 56:1 74:2 87:2 92:1 
-1 -1 -1 -1 1 1 1 1 1 1 1 1 1 1 1 1 1 1 1 1 1 1 1 39:1 92:1 
-1 -1 -1 -1 -1 1 1 1 1 1 1 1 1 1 1 1 1 1 1 1 1 1 1 4:1 33:1 40:1 45:1 47:1 73:1 92:1 
-1 -1 -1 -1 -1 1 1 1 1 1 1 1 1 1 1 1 1 1 1 1 1 1 1 4:1 11:1 13:1 14:1 28:1 40:1 45:1 47:1 70:1 71:1 
-1 -1 -1 -1 -1 1 1 1 1 1 1 1 1 1 1 1 1 1 1 1 1 1 1 13:1 30:1 40:1 45:1 53:1 70:1 
-1 -1 -1 -1 -1 1 1 1 1 1 1 1 1 1 1 1 1 1 1 1 1 1 1 4:1 11:1 13:1 14:1 28:1 35:1 40:1 45:1 47:1 70:1 71:1 
-1 -1 -1 -1 -1 1 1 1 1 1 1 1 1 1 1 1 1 1 1 1 1 1 1 6:1 16:1 40:1 52:1 92:1 
-1 -1 -1 -1 -1 1 1 1 1 1 1 1 1 1 1 1 1 1 1 1 1 1 1 13:1 14:2 40:1 65:1 
-1 -1 -1 -1 -1 1 1 1 1 1 1 1 1 1 1 1 1 1 1 1 1 1 1 13:1 31:1 40:1 52:1 70:1 
-1 -1 -1 -1 -1 1 1 1 1 1 1 1 1 1 1 1 1 1 1 1 1 1 1 4:1 13:1 14:1 40:1 53:1 70:1 
-1 -1 -0 -0 -1 -0 1 1 1 1 0 0 1 1 0 0 1 0 0 1 1 0 0 14:1 29:1 30:1 33:1 38:1 43:1 45:1 72:1 73:1 82:1 92:1 
-1 -1 -1 -0 -1 -0 1 1 1 1 1 0 1 1 1 1 1 1 0 1 1 0 0 5:1 38:1 53:1 92:1 
-1 -1 -1 -0 -1 -0 1 1 1 1 1 0 1 1 1 1 1 1 0 1 1 0 0 28:1 38:1 45:1 70:1 92:1 
-1 -1 -1 -1 -1 -1 1 1 1 1 1 1 1 1 1 1 1 1 1 1 1 1 1 14:1 38:1 45:1 63:1 70:1 82:1 92:1 93:1 
-1 -1 -1 -1 -1 -1 1 1 1 1 1 1 1 1 1 1 1 1 1 1 1 1 1 14:1 22:1 38:1 43:1 45:1 72:1 83:1 92:1 
-1 -1 -1 -1 -1 -1 1 1 1 1 1 1 1 1 1 1 1 1 1 1 1 1 1 14:1 28:1 38:1 45:1 60:1 66:1 70:1 92:1 
-1 -1 -1 -1 -1 -1 1 1 1 1 1 1 1 1 1 1 1 1 1 1 1 1 1 14:1 35:1 38:1 70:1 91:1 92:1 
-1 -1 -1 -1 -1 -1 1 1 1 1 1 1 1 1 1 1 1 1 1 1 1 1 1 4:1 38:1 46:1 47:1 70:1 92:1 
-1 -1 -1 -1 -1 -1 1 1 1 1 1 1 1 1 1 1 1 1 1 1 1 1 1 4:1 14:1 29:1 33:1 38:1 43:1 45:1 47:1 72:1 73:1 92:1 
-1 -1 -1 -1 -1 -1 1 1 1 1 1 1 1 1 1 1 1 1 1 1 1 1 1 7:1 38:1 43:1 52:1 72:1 90:1 92:1 
-1 -1 -1 -1 -1 -1 1 1 1 1 1 1 1 1 1 1 1 1 1 1 1 1 1 14:1 38:1 45:1 60:1 66:1 70:1 92:1 101:1 
-1 -1 -0 -0 -1 -0 -1 1 1 1 0 0 1 1 0 0 1 0 0 1 1 0 0 4:1 14:1 29:1 33:1 37:1 43:1 45:1 47:1 72:1 73:1 92:1 
-1 -1 -1 -0 -1 -0 -1 1 1 1 1 0 1 1 1 1 1 1 0 1 1 0 0 9:1 14:1 29:1 34:1 37:1 44:1 46:2 52:1 56:1 74:2 87:2 92:1 
-1 -1 -1 -0 -1 -0 -1 1 1 1 1 0 1 1 1 1 1 1 0 1 1 0 0 14:1 29:1 30:1 33:1 37:1 43:1 45:1 72:1 73:1 82:1 92:1 
-1 -1 -1 -1 -1 -1 -1 1 1 1 1 1 1 1 1 1 1 1 1 1 1 1 1 14:1 22:1 37:1 43:1 45:1 72:1 83:1 92:1 
-1 -1 -1 -1 -1 -1 -1 1 1 1 1 1 1 1 1 1 1 1 1 1 1 1 1 37:1 92:1 
-1 -1 -1 -1 -1 -1 -1 1 1 1 1 1 1 1 1 1 1 1 1 1 1 1 1 4:1 37:1 46:1 47:1 70:1 92:1 
-1 -1 -1 -1 -1 -1 -1 1 1 1 1 1 1 1 1 1 1 1 1 1 1 1 1 5:1 37:1 53:1 92:1 
-1 -1 -1 -1 -1 -1 -1 1 1 1 1 1 1 1 1 1 1 1 1 1 1 1 1 7:1 37:1 43:1 52:1 72:1 90:1 92:1 
-1 -1 -1 -1 -1 -1 -1 1 1 1 1 1 1 1 1 1 1 1 1 1 1 1 1 29:1 33:1 37:1 45:1 56:1 57:1 73:1 82:1 92:1 
-1 -1 -1 -1 -1 -1 -1 1 1 1 1 1 1 1 1 1 1 1 1 1 1 1 1 14:1 37:1 45:1 60:1 66:1 70:1 92:1 101:1 
-1 -1 -1 -1 -1 -1 -1 1 1 1 1 1 1 1 1 1 1 1 1 1 1 1 1 14:1 35:1 37:1 70:1 91:1 92:1 
-0 -1 -0 -0 -0 -0 -0 -0 0 0 0 0 1 1 0 0 1 0 0 1 0 0 0 14:1 21:1 36:1 40:1 46:1 69:1 87:1 
-0 -1 -0 -0 -0 -0 -0 -0 0 0 0 0 1 1 0 0 1 0 0 1 0 0 0 14:1 21:1 24:1 36:1 40:1 46:1 68:1 87:1 98:1 
-0 -1 -0 -0 -0 -0 -0 -0 0 0 0 0 1 1 0 0 1 0 0 1 0 0 0 14:1 21:1 24:1 36:1 40:1 46:1 68:1 87:1 
-0 -1 -0 -0 -0 -0 -0 -0 0 0 0 0 1 1 0 0 1 0 0 1 0 0 0 11:1 28:2 40:1 46:1 69:1 71:1 88:1 
-0 -1 -0 -0 -0 -0 -0 -0 0 0 0 0 1 1 0 0 1 0 0 1 0 0 0 23:1 40:1 46:1 68:1 87:1 89:1 
-0 -1 -0 -0 -0 -0 -0 -0 0 0 0 0 1 1 0 0 1 0 0 1 0 0 0 14:1 36:1 40:1 46:1 68:1 87:1 88:1 
-0 -1 -0 -0 -0 -0 -0 -0 0 0 0 0 1 1 0 0 1 0 0 1 0 0 0 14:1 21:1 36:1 40:1 46:1 68:1 87:1 
-1 -1 -0 -0 -1 -0 -1 -1 1 1 0 0 1 1 0 0 1 0 0 1 1 0 0 8:1 14:1 40:1 46:1 52:1 61:1 68:1 70:1 
-1 -1 -1 -0 -1 -0 -1 -1 1 1 1 0 1 1 1 1 1 1 0 1 1 0 0 1:1 14:1 24:1 40:1 46:1 53:1 68:1 
-1 -1 -1 -0 -1 -0 -1 -1 1 1 1 0 1 1 1 1 1 1 0 1 1 0 0 14:1 20:1 28:1 35:1 40:1 45:1 68:1 
-1 -1 -1 -1 -1 -1 -1 -1 1 1 1 1 1 1 1 1 1 1 1 1 1 1 1 14:1 17:1 35:1 40:1 53:1 58:1 67:1 68:1 81:1 85:1 
-1 -1 -1 -1 -1 -1 -1 -1 1 1 1 1 1 1 1 1 1 1 1 1 1 1 1 19:1 24:1 36:1 40:1 46:1 69:1 87:1 90:1 
-1 -1 -1 -1 -1 -1 -1 -1 1 1 1 1 1 1 1 1 1 1 1 1 1 1 1 14:1 40:1 46:1 51:1 87:1 88:1 
-1 -1 -1 -1 -1 -1 -1 -1 1 1 1 1 1 1 1 1 1 1 1 1 1 1 1 21:1 24:1 36:1 40:1 46:1 69:1 87:1 90:1 
-1 -1 -1 -1 -1 -1 -1 -1 1 1 1 1 1 1 1 1 1 1 1 1 1 1 1 11:1 14:1 21:1 24:1 28:1 40:1 46:1 71:1 79:1 87:1 
-1 -1 -1 -1 -1 -1 -1 -1 1 1 1 1 1 1 1 1 1 1 1 1 1 1 1 21:1 24:1 40:1 46:1 68:1 87:1 
-1 -1 -1 -1 -1 -1 -1 -1 1 1 1 1 1 1 1 1 1 1 1 1 1 1 1 21:1 36:1 40:1 46:1 64:1 87:1 99:1 
-1 -1 -1 -1 -1 -1 -1 -1 1 1 1 1 1 1 1 1 1 1 1 1 1 1 1 20:1 35:1 40:1 46:1 68:1 87:1 
-1 -1 -0 -0 -1 -0 -1 -1 -1 1 0 0 1 1 0 0 1 0 0 1 1 0 0 28:1 40:1 45:1 70:1 92:1 
-1 -1 -1 -0 -1 -0 -1 -1 -1 1 1 0 1 1 1 1 1 1 0 1 1 0 0 7:1 40:1 43:1 52:1 72:1 90:1 92:1 
-1 -1 -1 -0 -1 -0 -1 -1 -1 1 1 0 1 1 1 1 1 1 0 1 1 0 0 14:1 40:1 45:1 63:1 70:1 82:1 92:1 93:1 
-1 -1 -1 -1 -1 -1 -1 -1 -1 1 1 1 1 1 1 1 1 1 1 1 1 1 1 14:1 22:1 40:1 43:1 45:1 72:1 83:1 92:1 
-1 -1 -1 -1 -1 -1 -1 -1 -1 1 1 1 1 1 1 1 1 1 1 1 1 1 1 14:1 40:1 45:1 60:1 66:1 70:1 92:1 101:1 
-1 -1 -1 -1 -1 -1 -1 -1 -1 1 1 1 1 1 1 1 1 1 1 1 1 1 1 14:1 28:1 40:1 45:1 60:1 66:1 70:1 92:1 
-1 -1 -1 -1 -1 -1 -1 -1 -1 1 1 1 1 1 1 1 1 1 1 1 1 1 1 14:1 29:1 30:1 33:1 40:1 43:1 45:1 72:1 73:1 82:1 92:1 
-1 -1 -1 -1 -1 -1 -1 -1 -1 1 1 1 1 1 1 1 1 1 1 1 1 1 1 40:1 92:1 
-1 -1 -1 -1 -1 -1 -1 -1 -1 1 1 1 1 1 1 1 1 1 1 1 1 1 1 9:1 14:1 29:1 34:1 40:1 44:1 46:2 52:1 56:1 74:2 87:2 92:1 
-1 -1 -1 -1 -1 -1 -1 -1 -1 1 1 1 1 1 1 1 1 1 1 1 1 1 1 4:1 14:1 29:1 33:1 40:1 43:1 45:1 47:1 72:1 73:1 92:1 
-1 -1 -1 -1 -1 -1 -1 -1 -1 1 1 1 1 1 1 1 1 1 1 1 1 1 1 5:1 40:1 53:1 92:1 
-1 -1 -0 -0 -1 -0 -1 -1 -1 -1 0 0 1 1 0 0 1 0 0 1 1 0 0 14:1 28:1 42:1 45:1 60:1 66:1 70:1 92:1 
-1 -1 -1 -0 -1 -0 -1 -1 -1 -1 1 0 1 1 1 1 1 1 0 1 1 0 0 7:1 42:1 43:1 52:1 72:1 90:1 92:1 
-1 -1 -1 -0 -1 -0 -1 -1 -1 -1 1 0 1 1 1 1 1 1 0 1 1 0 0 14:1 42:1 45:1 60:1 66:1 70:1 92:1 101:1 
-1 -1 -1 -1 -1 -1 -1 -1 -1 -1 1 1 1 1 1 1 1 1 1 1 1 1 1 4:1 14:1 29:1 33:1 42:1 43:1 45:1 47:1 72:1 73:1 92:1 
-1 -1 -1 -1 -1 -1 -1 -1 -1 -1 1 1 1 1 1 1 1 1 1 1 1 1 1 28:1 42:1 45:1 70:1 92:1 
-1 -1 -1 -1 -1 -1 -1 -1 -1 -1 1 1 1 1 1 1 1 1 1 1 1 1 1 14:1 35:1 42:1 70:1 91:1 92:1 
-1 -1 -1 -1 -1 -1 -1 -1 -1 -1 1 1 1 1 1 1 1 1 1 1 1 1 1 14:1 22:1 42:1 43:1 45:1 72:1 83:1 92:1 
-1 -1 -1 -1 -1 -1 -1 -1 -1 -1 1 1 1 1 1 1 1 1 1 1 1 1 1 29:1 33:1 42:1 45:1 56:1 57:1 73:1 82:1 92:1 
-1 -1 -1 -1 -1 -1 -1 -1 -1 -1 1 1 1 1 1 1 1 1 1 1 1 1 1 14:1 42:1 45:1 63:1 70:1 82:1 92:1 93:1 
-1 -1 -1 -1 -1 -1 -1 -1 -1 -1 1 1 1 1 1 1 1 1 1 1 1 1 1 42:1 92:1 
-1 -1 -1 -1 -1 -1 -1 -1 -1 -1 1 1 1 1 1 1 1 1 1 1 1 1 1 14:1 29:1 30:1 33:1 42:1 43:1 45:1 72:1 73:1 82:1 92:1 
-1 -1 -1 -0 -1 -0 -1 -1 -1 -1 -1 0 1 1 1 1 1 1 0 1 1 0 0 14:1 17:1 21:1 36:1 38:1 45:1 75:1 78:1 87:1 
-1 -1 -1 -0 -1 -0 -1 -1 -1 -1 -1 0 1 1 1 1 1 1 0 1 1 0 0 14:1 17:1 21:1 36:1 38:1 45:1 77:1 80:1 87:1 
-1 -1 -1 -1 -1 -1 -1 -1 -1 -1 -1 1 1 1 1 1 1 1 1 1 1 1 1 14:1 27:1 38:1 45:1 76:1 94:1 102:1 
-1 -1 -1 -1 -1 -1 -1 -1 -1 -1 -1 1 1 1 1 1 1 1 1 1 1 1 1 14:1 21:1 38:1 46:1 77:1 87:1 
-1 -1 -1 -1 -1 -1 -1 -1 -1 -1 -1 1 1 1 1 1 1 1 1 1 1 1 1 24:1 26:1 38:1 46:1 77:1 87:1 88:1 
-1 -1 -1 -1 -1 -1 -1 -1 -1 -1 -1 1 1 1 1 1 1 1 1 1 1 1 1 14:1 24:1 38:1 46:1 77:1 87:1 97:1 
-1 -1 -1 -1 -1 -1 -1 -1 -1 -1 -1 1 1 1 1 1 1 1 1 1 1 1 1 14:1 38:1 46:1 53:1 77:1 95:1 
-1 -1 -1 -1 -1 -1 -1 -1 -1 -1 -1 1 1 1 1 1 1 1 1 1 1 1 1 14:1 24:1 26:1 38:1 46:1 54:1 77:1 96:1 101:1 
-1 -1 -1 -1 -1 -1 -1 -1 -1 -1 -1 1 1 1 1 1 1 1 1 1 1 1 1 11:1 14:1 25:1 28:1 35:1 38:1 46:1 54:1 59:1 71:1 77:1 95:1 100:1 101:1 
-1 -1 -1 -1 -1 -1 -1 -1 -1 -1 -1 1 1 1 1 1 1 1 1 1 1 1 1 14:1 26:1 38:1 46:1 54:1 77:1 96:1 101:1 
-1 -1 -1 -1 -1 -1 -1 -1 -1 -1 -1 -1 1 1 1 1 1 1 1 1 1 1 1 4:1 11:1 13:1 14:1 28:1 41:1 45:1 47:1 70:1 71:1 
-1 -1 -1 -1 -1 -1 -1 -1 -1 -1 -1 -1 1 1 1 1 1 1 1 1 1 1 1 4:1 13:1 14:1 41:1 53:1 70:1 
-1 -1 -1 -1 -1 -1 -1 -1 -1 -1 -1 -1 1 1 1 1 1 1 1 1 1 1 1 4:1 33:1 41:1 45:1 47:1 73:1 92:1 
-1 -1 -1 -1 -1 -1 -1 -1 -1 -1 -1 -1 1 1 1 1 1 1 1 1 1 1 1 4:1 41:1 53:1 
-1 -1 -1 -1 -1 -1 -1 -1 -1 -1 -1 -1 1 1 1 1 1 1 1 1 1 1 1 4:1 11:1 13:1 14:1 28:1 35:1 41:1 45:1 47:1 70:1 71:1 
-1 -1 -1 -1 -1 -1 -1 -1 -1 -1 -1 -1 1 1 1 1 1 1 1 1 1 1 1 13:1 31:1 41:1 52:1 70:1 
-1 -1 -1 -1 -1 -1 -1 -1 -1 -1 -1 -1 1 1 1 1 1 1 1 1 1 1 1 6:1 16:1 41:1 52:1 92:1 
-1 -1 -1 -1 -1 -1 -1 -1 -1 -1 -1 -1 1 1 1 1 1 1 1 1 1 1 1 13:1 14:2 41:1 65:1 
-0 -1 -0 -0 -0 -0 -0 -0 -1 -0 -0 -0 -0 1 0 0 1 0 0 1 0 0 0 11:1 28:2 42:1 46:1 69:1 71:1 88:1 
-0 -1 -0 -0 -0 -0 -0 -0 -1 -0 -0 -0 -0 1 0 0 1 0 0 1 0 0 0 21:1 24:1 36:1 42:1 46:1 69:1 87:1 90:1 
-0 -1 -0 -0 -0 -0 -0 -0 -1 -0 -0 -0 -0 1 0 0 1 0 0 1 0 0 0 10:1 11:1 18:1 27:1 28:1 29:1 32:1 42:1 48:1 49:1 50:1 51:1 71:1 86:1 
-0 -1 -0 -0 -0 -0 -0 -0 -1 -0 -0 -0 -0 1 0 0 1 0 0 1 0 0 0 11:1 21:1 28:1 42:1 46:1 68:1 70:1 71:1 84:1 
-0 -1 -0 -0 -0 -0 -0 -0 -1 -0 -0 -0 -0 1 0 0 1 0 0 1 0 0 0 2:1 24:1 36:1 42:1 46:1 54:1 68:1 101:1 
-0 -1 -0 -0 -0 -0 -0 -0 -1 -0 -0 -0 -0 1 0 0 1 0 0 1 0 0 0 21:1 36:1 42:1 46:1 64:1 87:1 99:1 
-0 -1 -0 -0 -0 -0 -0 -0 -1 -0 -0 -0 -0 1 0 0 1 0 0 1 0 0 0 23:1 42:1 46:1 68:1 87:1 89:1 
-1 -1 -0 -0 -1 -0 -1 -1 -1 -1 -1 -0 -0 1 0 0 1 0 0 1 1 0 0 19:1 24:1 36:1 42:1 46:1 69:1 87:1 90:1 
-1 -1 -1 -0 -1 -0 -1 -1 -1 -1 -1 -1 -0 1 1 1 1 1 0 1 1 0 0 11:1 14:1 21:1 24:1 28:1 42:1 46:1 71:1 79:1 87:1 
-1 -1 -1 -0 -1 -0 -1 -1 -1 -1 -1 -1 -0 1 1 1 1 1 0 1 1 0 0 14:1 42:1 46:1 51:1 87:1 88:1 
-1 -1 -1 -1 -1 -1 -1 -1 -1 -1 -1 -1 -1 1 1 1 1 1 1 1 1 1 1 14:1 21:1 24:1 36:1 42:1 46:1 68:1 87:1 98:1 
-1 -1 -1 -1 -1 -1 -1 -1 -1 -1 -1 -1 -1 1 1 1 1 1 1 1 1 1 1 21:1 24:1 42:1 46:1 68:1 87:1 
-1 -1 -1 -1 -1 -1 -1 -1 -1 -1 -1 -1 -1 1 1 1 1 1 1 1 1 1 1 15:1 21:1 36:1 42:1 46:1 64:1 87:1 99:1 
-1 -1 -1 -1 -1 -1 -1 -1 -1 -1 -1 -1 -1 1 1 1 1 1 1 1 1 1 1 14:1 36:1 42:1 46:1 68:1 87:1 88:1 
-1 -1 -1 -1 -1 -1 -1 -1 -1 -1 -1 -1 -1 1 1 1 1 1 1 1 1 1 1 14:1 17:1 35:1 42:1 53:1 58:1 67:1 68:1 81:1 85:1 
-1 -1 -1 -1 -1 -1 -1 -1 -1 -1 -1 -1 -1 1 1 1 1 1 1 1 1 1 1 14:1 21:1 36:1 42:1 46:1 69:1 87:1 
-1 -1 -1 -1 -1 -1 -1 -1 -1 -1 -1 -1 -1 1 1 1 1 1 1 1 1 1 1 1:1 14:1 24:1 42:1 46:1 53:1 68:1 
-1 -1 -1 -1 -1 -1 -1 -1 -1 -1 -1 -1 -1 1 1 1 1 1 1 1 1 1 1 8:1 14:1 42:1 46:1 52:1 61:1 68:1 70:1 
-0 -1 -0 -0 -0 -0 -0 -0 -1 -0 -0 -0 -0 -1 0 0 1 0 0 1 0 0 0 2:1 24:1 36:1 38:1 46:1 54:1 68:1 101:1 
-0 -1 -0 -0 -0 -0 -0 -0 -1 -0 -0 -0 -0 -1 0 0 1 0 0 1 0 0 0 14:1 21:1 24:1 36:1 38:1 46:1 68:1 87:1 
-0 -1 -0 -0 -0 -0 -0 -0 -1 -0 -0 -0 -0 -1 0 0 1 0 0 1 0 0 0 11:1 28:2 38:1 46:1 69:1 71:1 88:1 
-0 -1 -0 -0 -0 -0 -0 -0 -1 -0 -0 -0 -0 -1 0 0 1 0 0 1 0 0 0 21:1 36:1 38:1 46:1 64:1 87:1 99:1 
-0 -1 -0 -0 -0 -0 -0 -0 -1 -0 -0 -0 -0 -1 0 0 1 0 0 1 0 0 0 14:1 38:1 46:1 51:1 87:1 88:1 
-0 -1 -0 -0 -0 -0 -0 -0 -1 -0 -0 -0 -0 -1 0 0 1 0 0 1 0 0 0 20:1 35:1 38:1 46:1 68:1 87:1 
-0 -1 -0 -0 -0 -0 -0 -0 -1 -0 -0 -0 -0 -1 0 0 1 0 0 1 0 0 0 14:1 21:1 24:1 36:1 38:1 46:1 68:1 87:1 98:1 
-1 -1 -0 -0 -1 -0 -1 -1 -1 -1 -1 -0 -0 -1 0 0 1 0 0 1 1 0 0 11:1 14:1 21:1 24:1 28:1 38:1 46:1 71:1 79:1 87:1 
-1 -1 -1 -0 -1 -0 -1 -1 -1 -1 -1 -1 -0 -1 1 1 1 1 0 1 1 0 0 15:1 21:1 36:1 38:1 46:1 64:1 87:1 99:1 
-1 -1 -1 -0 -1 -0 -1 -1 -1 -1 -1 -1 -0 -1 1 1 1 1 0 1 1 0 0 14:1 21:1 36:1 38:1 46:1 69:1 87:1 
-1 -1 -1 -1 -1 -1 -1 -1 -1 -1 -1 -1 -1 -1 1 1 1 1 1 1 1 1 1 21:1 24:1 38:1 46:1 68:1 87:1 
-1 -1 -1 -1 -1 -1 -1 -1 -1 -1 -1 -1 -1 -1 1 1 1 1 1 1 1 1 1 14:1 17:1 35:1 38:1 53:1 58:1 67:1 68:1 81:1 85:1 
-1 -1 -1 -1 -1 -1 -1 -1 -1 -1 -1 -1 -1 -1 1 1 1 1 1 1 1 1 1 1:1 14:1 24:1 38:1 46:1 53:1 68:1 
-1 -1 -1 -1 -1 -1 -1 -1 -1 -1 -1 -1 -1 -1 1 1 1 1 1 1 1 1 1 11:1 21:1 28:1 38:1 46:1 68:1 70:1 71:1 84:1 
-1 -1 -1 -1 -1 -1 -1 -1 -1 -1 -1 -1 -1 -1 1 1 1 1 1 1 1 1 1 8:1 14:1 38:1 46:1 52:1 61:1 68:1 70:1 
-1 -1 -1 -1 -1 -1 -1 -1 -1 -1 -1 -1 -1 -1 1 1 1 1 1 1 1 1 1 14:1 20:1 28:1 35:1 38:1 45:1 68:1 
-1 -1 -1 -1 -1 -1 -1 -1 -1 -1 -1 -1 -1 -1 1 1 1 1 1 1 1 1 1 23:1 38:1 46:1 68:1 87:1 89:1 
-1 -1 -1 -1 -1 -1 -1 -1 -1 -1 -1 -1 -1 -1 1 1 1 1 1 1 1 1 1 21:1 24:1 36:1 38:1 46:1 69:1 87:1 90:1 
-1 -1 -1 -0 -1 -0 -1 -1 -1 -1 -1 -1 -0 -1 -1 1 1 1 0 1 1 0 0 14:1 24:1 26:1 37:1 46:1 54:1 77:1 96:1 101:1 
-1 -1 -1 -0 -1 -0 -1 -1 -1 -1 -1 -1 -0 -1 -1 1 1 1 0 1 1 0 0 14:1 21:1 37:1 46:1 77:1 87:1 
-1 -1 -1 -1 -1 -1 -1 -1 -1 -1 -1 -1 -1 -1 -1 1 1 1 1 1 1 1 1 14:1 24:1 26:1 37:1 46:1 54:1 77:1 96:1 101:1 
-1 -1 -1 -1 -1 -1 -1 -1 -1 -1 -1 -1 -1 -1 -1 1 1 1 1 1 1 1 1 14:1 27:1 37:1 45:1 76:1 94:1 102:1 
-1 -1 -1 -1 -1 -1 -1 -1 -1 -1 -1 -1 -1 -1 -1 1 1 1 1 1 1 1 1 11:1 14:1 25:1 28:1 35:1 37:1 46:1 54:1 59:1 71:1 77:1 95:1 100:1 101:1 
-1 -1 -1 -1 -1 -1 -1 -1 -1 -1 -1 -1 -1 -1 -1 1 1 1 1 1 1 1 1 24:1 26:1 37:1 46:1 77:1 87:1 88:1 
-1 -1 -1 -1 -1 -1 -1 -1 -1 -1 -1 -1 -1 -1 -1 1 1 1 1 1 1 1 1 11:1 14:1 28:1 37:1 46:1 54:1 71:1 77:1 97:1 101:1 
-1 -1 -1 -1 -1 -1 -1 -1 -1 -1 -1 -1 -1 -1 -1 1 1 1 1 1 1 1 1 14:1 24:1 37:1 46:1 77:1 87:1 97:1 
-1 -1 -1 -1 -1 -1 -1 -1 -1 -1 -1 -1 -1 -1 -1 1 1 1 1 1 1 1 1 14:1 37:1 46:1 53:1 77:1 95:1 
-1 -1 -1 -1 -1 -1 -1 -1 -1 -1 -1 -1 -1 -1 -1 1 1 1 1 1 1 1 1 14:1 17:1 21:1 36:1 37:1 45:1 75:1 78:1 87:1 
-1 -1 -1 -0 -1 -0 -1 -1 -1 -1 -1 -1 -0 -1 -1 -1 1 1 0 1 1 0 0 14:1 24:1 42:1 46:1 77:1 87:1 97:1 
-1 -1 -1 -0 -1 -0 -1 -1 -1 -1 -1 -1 -0 -1 -1 -1 1 1 0 1 1 0 0 14:1 24:1 26:1 42:1 46:1 54:1 77:1 96:1 101:1 
-1 -1 -1 -1 -1 -1 -1 -1 -1 -1 -1 -1 -1 -1 -1 -1 1 1 1 1 1 1 1 14:1 24:1 26:1 42:1 46:1 54:1 77:1 96:1 101:1 
-1 -1 -1 -1 -1 -1 -1 -1 -1 -1 -1 -1 -1 -1 -1 -1 1 1 1 1 1 1 1 14:1 21:1 42:1 46:1 77:1 87:1 
-1 -1 -1 -1 -1 -1 -1 -1 -1 -1 -1 -1 -1 -1 -1 -1 1 1 1 1 1 1 1 14:1 27:1 42:1 45:1 76:1 94:1 102:1 
-1 -1 -1 -1 -1 -1 -1 -1 -1 -1 -1 -1 -1 -1 -1 -1 1 1 1 1 1 1 1 11:1 14:1 28:1 42:1 46:1 54:1 71:1 77:1 97:1 101:1 
-1 -1 -1 -1 -1 -1 -1 -1 -1 -1 -1 -1 -1 -1 -1 -1 1 1 1 1 1 1 1 14:1 17:1 21:1 36:1 42:1 45:1 77:1 80:1 87:1 
-1 -1 -1 -1 -1 -1 -1 -1 -1 -1 -1 -1 -1 -1 -1 -1 1 1 1 1 1 1 1 14:1 42:1 46:1 53:1 77:1 95:1 
-1 -1 -1 -1 -1 -1 -1 -1 -1 -1 -1 -1 -1 -1 -1 -1 1 1 1 1 1 1 1 14:1 17:1 21:1 36:1 42:1 45:1 75:1 78:1 87:1 
-1 -1 -1 -1 -1 -1 -1 -1 -1 -1 -1 -1 -1 -1 -1 -1 1 1 1 1 1 1 1 3:1 12:1 14:1 42:1 46:2 52:1 54:1 55:1 56:1 62:1 77:1 85:1 97:1 101:1 
-0 -1 -0 -0 -0 -0 -0 -0 -1 -0 -0 -0 -0 -1 -1 -0 -0 0 0 1 0 0 0 8:1 14:1 37:1 46:1 52:1 61:1 68:1 70:1 
-0 -1 -0 -0 -0 -0 -0 -0 -1 -0 -0 -0 -0 -1 -1 -0 -0 0 0 1 0 0 0 20:1 35:1 37:1 46:1 68:1 87:1 
-0 -1 -0 -0 -0 -0 -0 -0 -1 -0 -0 -0 -0 -1 -1 -0 -0 0 0 1 0 0 0 11:1 28:2 37:1 46:1 69:1 71:1 88:1 
-0 -1 -0 -0 -0 -0 -0 -0 -1 -0 -0 -0 -0 -1 -1 -0 -0 0 0 1 0 0 0 14:1 20:1 28:1 35:1 37:1 45:1 68:1 
-0 -1 -0 -0 -0 -0 -0 -0 -1 -0 -0 -0 -0 -1 -1 -0 -0 0 0 1 0 0 0 14:1 37:1 46:1 51:1 87:1 88:1 
-0 -1 -0 -0 -0 -0 -0 -0 -1 -0 -0 -0 -0 -1 -1 -0 -0 0 0 1 0 0 0 2:1 24:1 36:1 37:1 46:1 54:1 68:1 101:1 
-0 -1 -0 -0 -0 -0 -0 -0 -1 -0 -0 -0 -0 -1 -1 -0 -0 0 0 1 0 0 0 14:1 21:1 24:1 36:1 37:1 46:1 68:1 87:1 
-1 -1 -0 -0 -1 -0 -1 -1 -1 -1 -1 -0 -0 -1 -1 -0 -0 0 0 1 1 0 0 10:1 11:1 18:1 27:1 28:1 29:1 32:1 37:1 48:1 49:1 50:1 51:1 71:1 86:1 
-1 -1 -1 -0 -1 -0 -1 -1 -1 -1 -1 -1 -0 -1 -1 -1 -1 1 0 1 1 0 0 11:1 14:1 21:1 24:1 28:1 37:1 46:1 71:1 79:1 87:1 
-1 -1 -1 -0 -1 -0 -1 -1 -1 -1 -1 -1 -0 -1 -1 -1 -1 1 0 1 1 0 0 11:1 21:1 28:1 37:1 46:1 68:1 70:1 71:1 84:1 
-1 -1 -1 -1 -1 -1 -1 -1 -1 -1 -1 -1 -1 -1 -1 -1 -1 1 1 1 1 1 1 1:1 14:1 24:1 37:1 46:1 53:1 68:1 
-1 -1 -1 -1 -1 -1 -1 -1 -1 -1 -1 -1 -1 -1 -1 -1 -1 1 1 1 1 1 1 14:1 21:1 36:1 37:1 46:1 69:1 87:1 
-1 -1 -1 -1 -1 -1 -1 -1 -1 -1 -1 -1 -1 -1 -1 -1 -1 1 1 1 1 1 1 21:1 36:1 37:1 46:1 64:1 87:1 99:1 
-1 -1 -1 -1 -1 -1 -1 -1 -1 -1 -1 -1 -1 -1 -1 -1 -1 1 1 1 1 1 1 14:1 17:1 35:1 37:1 53:1 58:1 67:1 68:1 81:1 85:1 
-1 -1 -1 -1 -1 -1 -1 -1 -1 -1 -1 -1 -1 -1 -1 -1 -1 1 1 1 1 1 1 14:1 21:1 36:1 37:1 46:1 68:1 87:1 
-1 -1 -1 -1 -1 -1 -1 -1 -1 -1 -1 -1 -1 -1 -1 -1 -1 1 1 1 1 1 1 14:1 21:1 24:1 36:1 37:1 46:1 68:1 87:1 98:1 
-1 -1 -1 -1 -1 -1 -1 -1 -1 -1 -1 -1 -1 -1 -1 -1 -1 1 1 1 1 1 1 23:1 37:1 46:1 68:1 87:1 89:1 
-1 -1 -1 -1 -1 -1 -1 -1 -1 -1 -1 -1 -1 -1 -1 -1 -1 1 1 1 1 1 1 14:1 36:1 37:1 46:1 68:1 87:1 88:1 
-1 -1 -1 -0 -1 -0 -1 -1 -1 -1 -1 -1 -0 -1 -1 -1 -1 -1 0 1 1 0 0 14:1 26:1 40:1 46:1 54:1 77:1 96:1 101:1 
-1 -1 -1 -0 -1 -0 -1 -1 -1 -1 -1 -1 -0 -1 -1 -1 -1 -1 0 1 1 0 0 14:1 21:1 40:1 46:1 77:1 87:1 
-1 -1 -1 -1 -1 -1 -1 -1 -1 -1 -1 -1 -1 -1 -1 -1 -1 -1 1 1 1 1 1 11:1 14:1 25:1 28:1 35:1 40:1 46:1 54:1 59:1 71:1 77:1 95:1 100:1 101:1 
-1 -1 -1 -1 -1 -1 -1 -1 -1 -1 -1 -1 -1 -1 -1 -1 -1 -1 1 1 1 1 1 14:1 24:1 26:1 40:1 46:1 54:1 77:1 96:1 101:1 
-1 -1 -1 -1 -1 -1 -1 -1 -1 -1 -1 -1 -1 -1 -1 -1 -1 -1 1 1 1 1 1 14:1 27:1 40:1 45:1 76:1 94:1 102:1 
-1 -1 -1 -1 -1 -1 -1 -1 -1 -1 -1 -1 -1 -1 -1 -1 -1 -1 1 1 1 1 1 14:1 17:1 21:1 36:1 40:1 45:1 77:1 80:1 87:1 
-1 -1 -1 -1 -1 -1 -1 -1 -1 -1 -1 -1 -1 -1 -1 -1 -1 -1 1 1 1 1 1 11:1 14:1 28:1 40:1 46:1 54:1 71:1 77:1 97:1 101:1 
-1 -1 -1 -1 -1 -1 -1 -1 -1 -1 -1 -1 -1 -1 -1 -1 -1 -1 1 1 1 1 1 14:1 17:1 21:1 36:1 40:1 45:1 75:1 78:1 87:1 
-1 -1 -1 -1 -1 -1 -1 -1 -1 -1 -1 -1 -1 -1 -1 -1 -1 -1 1 1 1 1 1 24:1 26:1 40:1 46:1 77:1 87:1 88:1 
-1 -1 -1 -1 -1 -1 -1 -1 -1 -1 -1 -1 -1 -1 -1 -1 -1 -1 1 1 1 1 1 14:1 24:1 26:1 40:1 46:1 54:1 77:1 96:1 101:1 
-1 -1 -1 -1 -1 -1 -1 -1 -1 -1 -1 -1 -1 -1 -1 -1 -1 -1 -1 1 1 1 1 13:1 14:2 42:1 65:1 
-1 -1 -1 -1 -1 -1 -1 -1 -1 -1 -1 -1 -1 -1 -1 -1 -1 -1 -1 1 1 1 1 13:1 14:1 28:1 42:1 45:1 63:1 70:1 
-1 -1 -1 -1 -1 -1 -1 -1 -1 -1 -1 -1 -1 -1 -1 -1 -1 -1 -1 1 1 1 1 4:1 11:1 13:1 14:1 28:1 35:1 42:1 45:1 47:1 70:1 71:1 
-1 -1 -1 -1 -1 -1 -1 -1 -1 -1 -1 -1 -1 -1 -1 -1 -1 -1 -1 1 1 1 1 4:1 42:1 53:1 
-1 -1 -1 -1 -1 -1 -1 -1 -1 -1 -1 -1 -1 -1 -1 -1 -1 -1 -1 1 1 1 1 4:1 11:1 13:1 14:1 28:1 42:1 45:1 47:1 70:1 71:1 
-1 -1 -1 -1 -1 -1 -1 -1 -1 -1 -1 -1 -1 -1 -1 -1 -1 -1 -1 1 1 1 1 4:1 33:1 42:1 45:1 47:1 73:1 92:1 
-1 -1 -1 -1 -1 -1 -1 -1 -1 -1 -1 -1 -1 -1 -1 -1 -1 -1 -1 1 1 1 1 13:1 31:1 42:1 52:1 70:1 
-1 -1 -1 -1 -1 -1 -1 -1 -1 -1 -1 -1 -1 -1 -1 -1 -1 -1 -1 1 1 1 1 6:1 16:1 42:1 52:1 92:1 
-0 -1 -0 -0 -0 -0 -0 -0 -1 -0 -0 -0 -0 -1 -1 -0 -0 -1 -0 -0 0 0 0 11:1 28:2 39:1 46:1 69:1 71:1 88:1 
-0 -1 -0 -0 -0 -0 -0 -0 -1 -0 -0 -0 -0 -1 -1 -0 -0 -1 -0 -0 0 0 0 15:1 21:1 36:1 39:1 46:1 64:1 87:1 99:1 
-0 -1 -0 -0 -0 -0 -0 -0 -1 -0 -0 -0 -0 -1 -1 -0 -0 -1 -0 -0 0 0 0 20:1 35:1 39:1 46:1 68:1 87:1 
-0 -1 -0 -0 -0 -0 -0 -0 -1 -0 -0 -0 -0 -1 -1 -0 -0 -1 -0 -0 0 0 0 10:1 11:1 18:1 27:1 28:1 29:1 32:1 39:1 48:1 49:1 50:1 51:1 71:1 86:1 
-0 -1 -0 -0 -0 -0 -0 -0 -1 -0 -0 -0 -0 -1 -1 -0 -0 -1 -0 -0 0 0 0 14:1 36:1 39:1 46:1 68:1 87:1 88:1 
-0 -1 -0 -0 -0 -0 -0 -0 -1 -0 -0 -0 -0 -1 -1 -0 -0 -1 -0 -0 0 0 0 2:1 24:1 36:1 39:1 46:1 54:1 68:1 101:1 
-0 -1 -0 -0 -0 -0 -0 -0 -1 -0 -0 -0 -0 -1 -1 -0 -0 -1 -0 -0 0 0 0 14:1 17:1 35:1 39:1 53:1 58:1 67:1 68:1 81:1 85:1 
-1 -1 -0 -0 -1 -0 -1 -1 -1 -1 -1 -0 -0 -1 -1 -0 -0 -1 -0 -0 1 0 0 14:1 21:1 24:1 36:1 39:1 46:1 68:1 87:1 98:1 
-1 -1 -1 -0 -1 -0 -1 -1 -1 -1 -1 -1 -0 -1 -1 -1 -1 -1 -1 -0 1 0 0 21:1 24:1 36:1 39:1 46:1 69:1 87:1 90:1 
-1 -1 -1 -0 -1 -0 -1 -1 -1 -1 -1 -1 -0 -1 -1 -1 -1 -1 -1 -0 1 0 0 21:1 36:1 39:1 46:1 64:1 87:1 99:1 
-1 -1 -1 -1 -1 -1 -1 -1 -1 -1 -1 -1 -1 -1 -1 -1 -1 -1 -1 -1 1 1 1 14:1 21:1 36:1 39:1 46:1 69:1 87:1 
-1 -1 -1 -1 -1 -1 -1 -1 -1 -1 -1 -1 -1 -1 -1 -1 -1 -1 -1 -1 1 1 1 21:1 24:1 39:1 46:1 68:1 87:1 
-1 -1 -1 -1 -1 -1 -1 -1 -1 -1 -1 -1 -1 -1 -1 -1 -1 -1 -1 -1 1 1 1 8:1 14:1 39:1 46:1 52:1 61:1 68:1 70:1 
-1 -1 -1 -1 -1 -1 -1 -1 -1 -1 -1 -1 -1 -1 -1 -1 -1 -1 -1 -1 1 1 1 14:1 21:1 24:1 36:1 39:1 46:1 68:1 87:1 
-1 -1 -1 -1 -1 -1 -1 -1 -1 -1 -1 -1 -1 -1 -1 -1 -1 -1 -1 -1 1 1 1 11:1 14:1 21:1 24:1 28:1 39:1 46:1 71:1 79:1 87:1 
-1 -1 -1 -1 -1 -1 -1 -1 -1 -1 -1 -1 -1 -1 -1 -1 -1 -1 -1 -1 1 1 1 14:1 20:1 28:1 35:1 39:1 45:1 68:1 
-1 -1 -1 -1 -1 -1 -1 -1 -1 -1 -1 -1 -1 -1 -1 -1 -1 -1 -1 -1 1 1 1 23:1 39:1 46:1 68:1 87:1 89:1 
-1 -1 -1 -1 -1 -1 -1 -1 -1 -1 -1 -1 -1 -1 -1 -1 -1 -1 -1 -1 1 1 1 1:1 14:1 24:1 39:1 46:1 53:1 68:1 
-1 -1 -0 -0 -1 -0 -1 -1 -1 -1 -1 -0 -0 -1 -1 -0 -0 -1 -0 -0 -1 0 0 14:1 26:1 41:1 46:1 54:1 77:1 96:1 101:1 
-1 -1 -1 -0 -1 -0 -1 -1 -1 -1 -1 -1 -0 -1 -1 -1 -1 -1 -1 -0 -1 0 0 14:1 24:1 26:1 41:1 46:1 54:1 77:1 96:1 101:1 
-1 -1 -1 -0 -1 -0 -1 -1 -1 -1 -1 -1 -0 -1 -1 -1 -1 -1 -1 -0 -1 0 0 14:1 17:1 21:1 36:1 41:1 45:1 75:1 78:1 87:1 
-1 -1 -1 -1 -1 -1 -1 -1 -1 -1 -1 -1 -1 -1 -1 -1 -1 -1 -1 -1 -1 1 1 3:1 12:1 14:1 41:1 46:2 52:1 54:1 55:1 56:1 62:1 77:1 85:1 97:1 101:1 
-1 -1 -1 -1 -1 -1 -1 -1 -1 -1 -1 -1 -1 -1 -1 -1 -1 -1 -1 -1 -1 1 1 11:1 14:1 25:1 28:1 35:1 41:1 46:1 54:1 59:1 71:1 77:1 95:1 100:1 101:1 
-1 -1 -1 -1 -1 -1 -1 -1 -1 -1 -1 -1 -1 -1 -1 -1 -1 -1 -1 -1 -1 1 1 14:1 17:1 21:1 36:1 41:1 45:1 77:1 80:1 87:1 
-1 -1 -1 -1 -1 -1 -1 -1 -1 -1 -1 -1 -1 -1 -1 -1 -1 -1 -1 -1 -1 1 1 14:1 41:1 46:1 53:1 77:1 95:1 
-1 -1 -1 -1 -1 -1 -1 -1 -1 -1 -1 -1 -1 -1 -1 -1 -1 -1 -1 -1 -1 1 1 14:1 21:1 41:1 46:1 77:1 87:1 
-1 -1 -1 -1 -1 -1 -1 -1 -1 -1 -1 -1 -1 -1 -1 -1 -1 -1 -1 -1 -1 1 1 24:1 26:1 41:1 46:1 77:1 87:1 88:1 
-1 -1 -1 -1 -1 -1 -1 -1 -1 -1 -1 -1 -1 -1 -1 -1 -1 -1 -1 -1 -1 1 1 14:1 24:1 26:1 41:1 46:1 54:1 77:1 96:1 101:1 
-1 -1 -1 -1 -1 -1 -1 -1 -1 -1 -1 -1 -1 -1 -1 -1 -1 -1 -1 -1 -1 1 1 11:1 14:1 28:1 41:1 46:1 54:1 71:1 77:1 97:1 101:1 
-1 -1 -1 -1 -1 -1 -1 -1 -1 -1 -1 -1 -1 -1 -1 -1 -1 -1 -1 -1 -1 -1 1 4:1 33:1 39:1 45:1 47:1 73:1 92:1 
-1 -1 -1 -1 -1 -1 -1 -1 -1 -1 -1 -1 -1 -1 -1 -1 -1 -1 -1 -1 -1 -1 1 4:1 39:1 53:1 
-1 -1 -1 -1 -1 -1 -1 -1 -1 -1 -1 -1 -1 -1 -1 -1 -1 -1 -1 -1 -1 -1 1 4:1 11:1 13:1 14:1 28:1 39:1 45:1 47:1 70:1 71:1 
-1 -1 -1 -1 -1 -1 -1 -1 -1 -1 -1 -1 -1 -1 -1 -1 -1 -1 -1 -1 -1 -1 1 13:1 14:2 39:1 65:1 
-1 -1 -1 -1 -1 -1 -1 -1 -1 -1 -1 -1 -1 -1 -1 -1 -1 -1 -1 -1 -1 -1 1 13:1 31:1 39:1 52:1 70:1 
-1 -1 -1 -1 -1 -1 -1 -1 -1 -1 -1 -1 -1 -1 -1 -1 -1 -1 -1 -1 -1 -1 1 6:1 16:1 39:1 52:1 92:1 
-1 -1 -1 -1 -1 -1 -1 -1 -1 -1 -1 -1 -1 -1 -1 -1 -1 -1 -1 -1 -1 -1 1 4:1 13:1 14:1 39:1 53:1 70:1 
-1 -1 -1 -1 -1 -1 -1 -1 -1 -1 -1 -1 -1 -1 -1 -1 -1 -1 -1 -1 -1 -1 1 13:1 30:1 39:1 45:1 53:1 70:1 
-1 -1 -1 -1 -1 -1 -1 -1 -1 -1 -1 -1 -1 -1 -1 -1 -1 -1 -1 -1 -1 -1 -1 4:1 33:1 37:1 45:1 47:1 73:1 92:1 
-1 -1 -1 -1 -1 -1 -1 -1 -1 -1 -1 -1 -1 -1 -1 -1 -1 -1 -1 -1 -1 -1 -1 4:1 37:1 53:1 
-1 -1 -1 -1 -1 -1 -1 -1 -1 -1 -1 -1 -1 -1 -1 -1 -1 -1 -1 -1 -1 -1 -1 4:1 11:1 13:1 14:1 28:1 35:1 37:1 45:1 47:1 70:1 71:1 
-1 -1 -1 -1 -1 -1 -1 -1 -1 -1 -1 -1 -1 -1 -1 -1 -1 -1 -1 -1 -1 -1 -1 13:1 14:1 28:1 37:1 45:1 63:1 70:1 
-1 -1 -1 -1 -1 -1 -1 -1 -1 -1 -1 -1 -1 -1 -1 -1 -1 -1 -1 -1 -1 -1 -1 4:1 13:1 14:1 37:1 53:1 70:1 
-1 -1 -1 -1 -1 -1 -1 -1 -1 -1 -1 -1 -1 -1 -1 -1 -1 -1 -1 -1 -1 -1 -1 13:1 14:2 37:1 65:1 
-1 -1 -1 -1 -1 -1 -1 -1 -1 -1 -1 -1 -1 -1 -1 -1 -1 -1 -1 -1 -1 -1 -1 13:1 30:1 37:1 45:1 53:1 70:1 
-1 -1 -1 -1 -1 -1 -1 -1 -1 -1 -1 -1 -1 -1 -1 -1 -1 -1 -1 -1 -1 -1 -1 6:1 16:1 37:1 52:1 92:1 
