svm_type c_svc
kernel_type rbf
gamma 0.0098039215686274508
nr_class 24
total_sv 283
rho 0.72943125302771972 -0.4656236469745636 -0.6832812919735507 0.0019936859607696533 -0.68053681758194362 0.0033203661441802979 0.0033378303050994873 0.42759671625505885 -0.0173606276512146 0.002482295036315918 -0.47279901408692693 -0.8254034491436707 0.53337694553536596 0.46640376652805204 -0.4446147084236145 -0.42508640885353083 0.54178016665370066 -0.4235939085483551 -0.69421551083810495 0.53321802417876951 -0.015520304441452026 -0.72117630728953086 -0.71232798533406805 -0.69623922138717687 -0.76237175864486917 -0.44729815240009713 -0.75499737605763773 -0.54450502004416967 -0.46725241596470513 -0.034464389085769653 -0.4742799465428667 -0.5171197166370971 -0.68462127922179072 -0.91540425336511644 0.033364593982696533 -0.039698302745819092 -0.69119182641605681 -0.64044087674705741 0.045748531818389893 -0.65117079925049126 -0.77965201047296862 -0.037338525056838989 -0.75120893479774542 -0.79353187131511038 -0.78118926670707167 -0.58988444522429528 0.57393237948417664 -0.60016622767151628 0.3522298932075501 0.4216681466347505 0.65623027051627691 0.44205558300018305 0.29867461323738104 -0.00097709894180297852 -0.62570680380617005 0.71104878155848816 0.67877429632938091 -0.001980900764465332 -0.023735105991363525 0.70167483863290303 -0.018922150135040283 -0.62400918434675168 0.88330017657275017 0.70939686894416809 -0.76085663064014097 -0.62893669220156012 0.68221687825936683 0.0014116764068603516 0.8279229998588562 0.67296697207181055 0.67022830451423099 0.68868128031203535 0.66224573432454037 0.71377080225584011 0.010432183742523193 0.75656325296813498 0.82905614091201441 0.53694386915457715 0.51048970222473145 0.76393308287276818 0.55737733840942383 0.019365578889846802 0.76122291719621682 0.51915225386619568 0.016568243503570557 0.0008144080638885498 -0.68457863523024842 -0.020176529884338379 0.01765739917755127 0.35028849398331308 -0.00099730491638183594 -0.012038528919219971 -0.41377458527419958 -0.70110584182073621 0.43796381994881134 0.37159453428978167 -0.38074061825607214 -0.37362895666662471 0.44792721036417504 -0.36397913649413977 -0.70103252969655461 0.63525661559432389 -0.0073211193084716797 -0.8629336980362784 -0.71611138584077716 0.67861948435497421 0.6750163266524063 0.81167593975771113 0.82421070271442032 0.65124123712971904 0.59213293149406343 -0.00044572353363037109 0.74684517289443875 0.69164020698788786 0.54681431134901493 0.52727130055427551 0.75601098068187811 0.70559084415435791 0.01795390248298645 0.76107733375502229 0.5271320641040802 -0.0015616416931152344 -0.009753793478012085 0.032179445028305054 0.41633063340863724 0.003205418586730957 -0.016990602016448975 -0.52472615343282225 -0.68456136444518512 0.53288474455755741 0.65237135452723471 -0.3273736834526062 -0.31266289779351436 0.54617844488387723 -0.31061220169067388 -0.69002937704828105 0.5283221463290958 0.038543611764907837 -0.7141421420309767 -0.70914001736808396 0.37062117457389832 -0.046329498291015625 -0.024041444063186646 -0.42984590389793409 -0.69271884182126375 0.45817003642904031 0.39959797277273101 -0.56429239741856607 -0.38980585771799414 0.65109517370307257 -0.38005045511787428 -0.69169568157568073 0.4741575402371726 0.00059917569160461426 -0.72339124728948134 -0.83996816391394036 -0.55798256397247314 -0.39143273463418754 -0.6510652363029612 -0.69997663085885398 0.057122200727462769 0.033163547515869141 -0.65652481625207282 -0.60423685930718196 0.061886012554168701 -0.78234433265851155 -0.69227699453569425 0.04322659969329834 -0.53264283570776239 -0.71781970633153747 -0.70506069717453834 -0.0018874108791351318 -0.45023334026336664 -0.7049277280968147 0.46748429204411113 0.39931356790752925 -0.4171993732452392 -0.41066485643386835 0.47518298270904247 -0.56744146347045898 -0.70340197147160177 0.47604309259505712 -0.018078207969665527 -0.73090561396421461 -0.71806170202098152 -0.30685237050056458 -0.65606922053337613 0.69176946086983337 0.43467746790550332 -0.27381840348243713 -0.43448993563652039 0.51908425260272306 -0.25705692172050476 -0.80419846733563916 0.50343402093166623 0.058189183473587036 -0.68638380399206067 -0.68494084998734805 -0.61833242970014868 0.69841344765733759 0.84063016595307671 0.0084735453128814697 -0.037468820810317993 0.68396274756420428 0.010618388652801514 -0.60963968465135787 0.70446307916215289 0.72994307901659783 -0.62513620072537801 -0.63098631988550025 0.77144944409943583 0.71589750448622225 0.57222872462423624 0.55232110619544983 0.78151770902785034 0.5959499180316925 0.00062525272369384766 0.78634693663610422 0.68278137896274005 -0.0011159181594848633 -0.018461883068084717 -0.047053694725036621 -0.70971046052275022 -0.81840290947093453 -0.031969219446182251 -0.67021070972224861 -0.90774930103839468 -0.04937291145324707 -0.57898253069693906 -0.78550929940636771 -0.77072957048893231 -0.66646994727805764 -0.62229202361362312 0.023585617542266846 -0.62855542540332421 -0.71178258820599294 0.020558148622512817 -0.56014067816147628 -0.73377877188203056 -0.72083198057309361 0.026071399450302124 0.86333085900105999 0.020383894443511963 -0.57100581968611974 0.70664915715961696 0.78579047755917075 -0.56891540867358614 -0.71144703293546596 0.64195930684834357 0.015189260244369507 -0.67814110604082256 0.65874660717530087 0.75163969397544861 -0.57664492726325989 -0.5620787424194752 -0.65680317827508594 -0.78154648169971108 -0.020061910152435303 -0.57395502903950424 -0.79611041555928508 -0.91880675290653813 -0.59198677539825439 0.67095411812423378 0.75508320331573486 -0.58781206607818604 -0.59611186385154724 0.78367420274856359 0.55146926641464233 -0.0011159181594848633 -0.018416553735733032 -0.59159205003189208 -0.9335359259108128 -0.78533559622240767 -0.54967138549729488 -0.54802287288478679 0.0090205073356628418
label 10 16 20 1 8 3 7 6 15 9 11 19 4 17 13 18 23 12 21 5 14 22 2 0
nr_sv 11 18 10 8 11 8 11 11 18 11 11 10 8 18 18 10 10 18 10 8 18 11 8 8
SV
1 1 1 1 1 1 1 1 1 1 0.94618833179894457 1 1 1 1 0.81525678719892292 1 1 1 1 1 1 1 28:1 41:1 45:1 70:1 92:1 
1 1 1 1 1 1 1 1 1 1 1 1 1 1 1 1 1 1 1 1 1 1 1 14:1 35:1 41:1 70:1 91:1 92:1 
1 1 1 1 0.74748607724253779 1 1 1 1 1 1 0.63145836666395161 1 1 1 1 1 1 0.82804012568678931 1 1 0.5908391416721489 0.81495207665714287 14:1 41:1 45:1 63:1 70:1 82:1 92:1 93:1 
1 1 0.43164025361347463 1 0.63727877858695936 1 1 1 1 1 0.98831952343353657 0.39651041794492747 1 1 0.96158926577840842 1 1 1 0.41766216834796499 1 1 0.46192329171296836 0.67495556224950815 14:1 29:1 30:1 33:1 41:1 43:1 45:1 72:1 73:1 82:1 92:1 
1 1 1 1 1 1 1 1 1 1 1 1 1 1 1 1 1 1 0.90396251857971743 1 1 1 1 5:1 41:1 53:1 92:1 
1 1 0.85704580329613389 1 1 1 1 1 1 1 1 1 1 1 1 1 1 1 1 1 1 1 1 41:1 92:1 
1 1 1 1 1 1 1 1 1 1 1 1 1 1 1 1 1 1 1 1 1 0.80079066884820604 1 14:1 28:1 41:1 45:1 60:1 66:1 70:1 92:1 
1 0.94556676925654648 0.36323982104316321 1 0.34975935702497324 1 1 1 1 1 0.97554100934910137 0.57600379835854976 1 1 1 1 1 0.94185430804996706 0.45272905191812118 1 1 0.66096953029156447 0.25369198538442056 7:1 41:1 43:1 52:1 72:1 90:1 92:1 
1 1 0.12994322692087579 1 0.21018143817780488 1 1 1 1 1 1 0.19278187415880582 1 1 1 1 1 1 0.2062577617895921 1 1 0.20552093455089024 0.16860259038315564 9:1 14:1 29:1 34:1 41:1 44:1 46:2 52:1 56:1 74:2 87:2 92:1 
1 0.05443323074345352 0.21813089512635245 1 0.055294348967724803 1 1 1 1 1 0.089951135418417455 0.20324554287376534 1 1 0.03841073422159156 0.18474321280107714 1 0.058145691950032947 0.19134837367781493 1 1 0.27995643292422195 0.08779778532577287 29:1 33:1 41:1 45:1 56:1 57:1 73:1 82:1 92:1 
1 1 1 1 1 1 1 1 1 1 1 1 1 1 1 1 1 1 1 1 1 1 1 4:1 41:1 46:1 47:1 70:1 92:1 
-1 0.26582064495185287 0.050800237099465531 1 0 0.89361411336231922 1 1 1 0.94733345863317131 0.24953585577439089 0.041518290939626362 1 1 0.19007209584849288 0 1 0.05457672497159885 0.039584234142606811 1 0.25485088947695828 0.21630710913627443 0.071305879450176912 23:1 41:1 46:1 68:1 87:1 89:1 
-0.04878727278277379 0.66750786115845306 0 0.054918916765760745 0 0 0.14919695310013806 1 0.05137800580155101 0 0.81270684643063607 0 1 1 0.18361739452173761 0.73551903922047146 1 0.63760506683780316 0 1 0.72876062076019799 0 0 21:1 24:1 36:1 41:1 46:1 69:1 87:1 90:1 
-0.53705866630515919 0.93802133808195665 0.659730146020443 0.67725547808169595 0.4004164470883716 0.5239435262730332 0.38611019071458441 1 0.68204766607740908 0.63056492199342939 0.50354563654554851 0.49785612572686305 1 1 1 0.4658407145190851 1 0.9702811791034115 0.7128581793539901 1 1 0.21748085908872633 0.42432195718834953 11:1 28:2 41:1 46:1 69:1 71:1 88:1 
-1 1 1 1 1 1 1 1 1 1 1 1 1 1 1 1 1 1 1 1 1 1 1 14:1 20:1 28:1 35:1 41:1 45:1 68:1 
-0 1 0 0 0 0 0 1 0 0 1 0 1 1 0 1 1 0.92820203809470736 0 1 1 0 0 14:1 21:1 36:1 41:1 46:1 68:1 87:1 
-0 0.058176159777700173 0 0 0 0 0 1 0 0 0.007733551224051215 0 1 1 0.66534472570049119 0.094427584334901768 1 0.20327226252405739 0 1 0.2459196164736176 0 0 14:1 21:1 24:1 36:1 41:1 46:1 68:1 87:1 
-1 0.76249749396670086 1 1 1 1 1 1 1 1 0.76857383371777299 1 1 1 0.60917213166744166 0.74304434609514458 1 0.68853132133923356 1 1 0.81256866768569036 1 1 14:1 17:1 35:1 41:1 53:1 58:1 67:1 68:1 81:1 85:1 
-1 0.081186600569900499 0.57792349699263124 1 0.47195454633966882 0.94938422729356731 1 1 1 0.92530681453862174 0.23635147954709865 0.39388251743732455 1 1 0.47175581441652203 0.19677614945681315 1 0.12686301398418137 0.38612878994850353 1 0.24520791374955109 0.59223403539681641 0.39854899749947115 19:1 24:1 36:1 41:1 46:1 69:1 87:1 90:1 
-0 0.18027267508708908 0 0 0 0 0 1 0 0 0.16301853477477241 0 1 1 0.19751948183739676 0.18181263851613388 1 0.18036339700407836 0 1 0.1549776906518362 0 0 14:1 21:1 24:1 36:1 41:1 46:1 68:1 87:1 98:1 
-1 1 0.29178164721311234 1 0.5785681512381381 1 1 1 1 1 1 0.65081278597636782 1 1 1 1 1 1 0.59844288133150503 1 1 0.52554599497495125 0.68862779913901306 14:1 21:1 36:1 41:1 46:1 69:1 87:1 
-1 0.64412446432721626 0.87619500834300912 1 0.88209316772107571 1 1 1 1 1 0.59466466309809707 0.86408769106790895 1 1 0.613917616516792 0.59126057265621879 1 0.67908467303181863 0.88725893986275994 1 0.55771460120214855 0.86371520077807185 0.84617096495743771 10:1 11:1 18:1 27:1 28:1 29:1 32:1 41:1 48:1 49:1 50:1 51:1 71:1 86:1 
-1 1 1 1 1 1 1 1 1 1 1 1 1 1 1 1 1 1 1 1 1 1 1 14:1 41:1 46:1 51:1 87:1 88:1 
-0.76879711138507933 0 1 0.56543526822614487 1 1 0.36076960239870698 1 0.58299696424663716 0.82141379476881327 0 0.79911369136989729 1 1 0 0 1 0 0.81242626232499493 1 0 0.65051356897319113 0.57102440176555169 11:1 21:1 28:1 41:1 46:1 68:1 70:1 71:1 84:1 
-0.36699123739288536 0 0 0.34191963999922376 0 0 0.49003344450115494 1 0.10277526906832957 0 0 0 1 1 0 0 1 0 0 1 0 0 0 20:1 35:1 41:1 46:1 68:1 87:1 
-0.96122142691845003 0.83262861277208444 0.47508512900342592 1 0.66696768761274572 1 1 1 1 1 1 0.74058961924817501 1 1 1 1 1 0.86051457889510818 0.45993128174463699 1 1 0.84694972126186041 0.98379288878306093 1:1 14:1 24:1 41:1 46:1 53:1 68:1 
-1 0.60010587861653952 1 1 1 1 1 1 1 1 0.62291751401372342 1 1 1 0.77145831065382697 0.99131895520123137 1 0.67070574421400175 1 1 1 1 1 8:1 14:1 41:1 46:1 52:1 61:1 68:1 70:1 
-0 0 0 0 0 0 0 1 0 0 0.040952084873908917 0 1 1 0.29714242883729863 0 1 0 0 1 0 0 0 21:1 24:1 41:1 46:1 68:1 87:1 
-0.31714428521565224 0.96965827069050659 0.068484335327912801 0.36047069692717471 0 0.63305813307108016 0.6138898092854157 1 0.58080209480607325 0.6753810100659644 1 0.012139278233837035 1 1 1 1 1 1 0.10336943129100279 1 1 0.087253510390108202 0.01620711121693906 2:1 24:1 36:1 41:1 46:1 54:1 68:1 101:1 
-1 -1 1 1 1 1 1 1 1 1 1 1 1 1 1 1 1 1 1 1 1 1 1 24:1 26:1 39:1 46:1 77:1 87:1 88:1 
-1 -1 0.80559906987054974 1 0.70254177635307413 1 1 1 1 1 1 0.69299922674380054 1 1 1 1 1 1 0.79214543012654359 1 1 0.2603329163703802 0.49850660901126503 11:1 14:1 25:1 28:1 35:1 39:1 46:1 54:1 59:1 71:1 77:1 95:1 100:1 101:1 
-1 -1 1 1 1 1 1 1 1 1 1 1 1 1 1 1 1 1 1 1 1 1 1 14:1 17:1 21:1 36:1 39:1 45:1 75:1 78:1 87:1 
-1 -1 1 1 1 1 1 1 1 1 1 1 1 1 1 1 1 1 1 1 1 1 1 14:1 39:1 46:1 53:1 77:1 95:1 
-1 -1 1 1 1 1 1 1 1 1 1 1 1 1 1 1 1 1 1 1 1 1 1 14:1 17:1 21:1 36:1 39:1 45:1 77:1 80:1 87:1 
-1 -1 1 1 1 1 1 1 1 1 1 1 1 1 1 1 1 1 1 1 1 1 1 14:1 27:1 39:1 45:1 76:1 94:1 102:1 
-1 -1 0.29278600899909835 1 0.30656180161486668 1 1 1 1 1 1 0.30469934121570347 1 1 1 1 1 1 0.29553299130364502 1 1 0.35492751239153747 0.3276076070765544 14:1 24:1 39:1 46:1 77:1 87:1 97:1 
-1 -1 0.47854263152048804 1 0.53683464705370509 1 1 1 1 1 1 0.53886453202766549 1 1 1 1 1 1 0.47838551850406857 1 1 0.79317657027500499 0.65816529313976058 14:1 26:1 39:1 46:1 54:1 77:1 96:1 101:1 
-1 -1 1 1 1 1 1 1 1 1 1 1 1 1 1 1 1 1 1 1 1 1 1 11:1 14:1 28:1 39:1 46:1 54:1 71:1 77:1 97:1 101:1 
-1 -1 0.42307228960986387 1 0.45406177497835415 1 1 1 1 1 1 0.46343690001283039 1 1 1 1 1 1 0.43393606006574292 1 1 0.59156300096307735 0.51572049077241999 14:1 21:1 39:1 46:1 77:1 87:1 
-1 -1 -1 1 1 1 1 1 1 1 1 1 1 1 1 1 1 1 1 1 1 1 1 4:1 11:1 13:1 14:1 28:1 35:1 38:1 45:1 47:1 70:1 71:1 
-1 -1 -1 1 1 1 1 1 1 1 1 1 1 1 1 1 1 1 1 1 1 1 1 4:1 33:1 38:1 45:1 47:1 73:1 92:1 
-1 -1 -1 1 1 1 1 1 1 1 1 1 1 1 1 1 1 1 1 1 1 1 1 13:1 30:1 38:1 45:1 53:1 70:1 
-1 -1 -1 1 1 1 1 1 1 1 1 1 1 1 1 1 1 1 1 1 1 1 1 4:1 13:1 14:1 38:1 53:1 70:1 
-1 -1 -1 1 1 1 1 1 1 1 1 1 1 1 1 1 1 1 1 1 1 1 1 13:1 14:1 28:1 38:1 45:1 63:1 70:1 
-1 -1 -1 1 1 1 1 1 1 1 1 1 1 1 1 1 1 1 1 1 1 1 1 13:1 31:1 38:1 52:1 70:1 
-1 -1 -1 1 1 1 1 1 1 1 1 1 1 1 1 1 1 1 1 1 1 1 1 4:1 11:1 13:1 14:1 28:1 38:1 45:1 47:1 70:1 71:1 
-1 -1 -1 1 1 1 1 1 1 1 1 1 1 1 1 1 1 1 1 1 1 1 1 6:1 16:1 38:1 52:1 92:1 
-1 -1 -0.96915898424664748 -1 1 1 1 1 1 1 0.96915898424664748 1 1 1 0.96915898424664748 0.97609399531143171 1 0.96915898424664748 1 1 1 1 1 4:1 14:1 29:1 33:1 39:1 43:1 45:1 47:1 72:1 73:1 92:1 
-1 -1 -1 -1 1 1 1 1 1 1 1 1 1 1 1 1 1 1 1 1 1 1 1 14:1 39:1 45:1 63:1 70:1 82:1 92:1 93:1 
-1 -1 -1 -0.51486865931554926 0.38434082749904408 1 1 1 1 1 0.98992500817500617 0.34148099947442567 1 1 0.98992500817500617 0.9735275398307649 1 0.98992500817500617 0.38643645103576652 1 1 0.45656239297416279 0.44501777549521254 29:1 33:1 39:1 45:1 56:1 57:1 73:1 82:1 92:1 
-1 -1 -1 -0.8954614065827825 0.90361594912618581 1 1 1 1 1 1 1 1 1 1 1 1 1 0.90722395208565043 1 1 1 0.76840924355951412 7:1 39:1 43:1 52:1 72:1 90:1 92:1 
-1 -1 -1 -1 1 1 1 1 1 1 1 1 1 1 1 1 1 1 1 1 1 1 1 14:1 28:1 39:1 45:1 60:1 66:1 70:1 92:1 
-1 -1 -1 -1 1 1 1 1 1 1 1 1 1 1 1 1 1 1 1 1 1 1 1 28:1 39:1 45:1 70:1 92:1 
-1 -1 -0.03084101575335247 -0 0 1 1 1 1 1 0.040916007578346347 0 1 1 0.040916007578346347 0.050378464857803409 1 0.040916007578346347 0 1 1 0 0 14:1 29:1 30:1 33:1 39:1 43:1 45:1 72:1 73:1 82:1 92:1 
-1 -1 -1 -0.25422023135415256 0.30449118853505164 1 1 1 1 1 1 0.22194880901032266 1 1 1 1 1 1 0.30753405534774869 1 1 0.18947550405744473 0.4231710060826161 14:1 22:1 39:1 43:1 45:1 72:1 83:1 92:1 
-1 -1 -1 -1 1 1 1 1 1 1 1 1 1 1 1 1 1 1 1 1 1 1 1 14:1 35:1 39:1 70:1 91:1 92:1 
-1 -1 -1 -0.33544970274751568 0.40755203483971847 1 1 1 1 1 1 0.43657019151525167 1 1 1 1 1 1 0.39880554153083436 1 1 0.35396210296839253 0.36340197486265707 9:1 14:1 29:1 34:1 39:1 44:1 46:2 52:1 56:1 74:2 87:2 92:1 
-1 -1 -1 -1 1 1 1 1 1 1 1 1 1 1 1 1 1 1 1 1 1 1 1 39:1 92:1 
-1 -1 -1 -1 -1 1 1 1 1 1 1 1 1 1 1 1 1 1 1 1 1 1 1 4:1 33:1 40:1 45:1 47:1 73:1 92:1 
-1 -1 -1 -1 -1 1 1 1 1 1 1 1 1 1 1 1 1 1 1 1 1 1 1 4:1 11:1 13:1 14:1 28:1 40:1 45:1 47:1 70:1 71:1 
-1 -1 -1 -1 -1 1 1 1 1 1 1 1 1 1 1 1 1 1 1 1 1 1 1 13:1 30:1 40:1 45:1 53:1 70:1 
-1 -1 -1 -1 -1 1 1 1 1 1 1 1 1 1 1 1 1 1 1 1 1 1 1 4:1 11:1 13:1 14:1 28:1 35:1 40:1 45:1 47:1 70:1 71:1 
-1 -1 -1 -1 -1 1 1 1 1 1 1 1 1 1 1 1 1 1 1 1 1 1 1 6:1 16:1 40:1 52:1 92:1 
-1 -1 -1 -1 -1 1 1 1 1 1 1 1 1 1 1 1 1 1 1 1 1 1 1 13:1 14:2 40:1 65:1 
-1 -1 -1 -1 -1 1 1 1 1 1 1 1 1 1 1 1 1 1 1 1 1 1 1 13:1 31:1 40:1 52:1 70:1 
-1 -1 -1 -1 -1 1 1 1 1 1 1 1 1 1 1 1 1 1 1 1 1 1 1 4:1 13:1 14:1 40:1 53:1 70:1 
-1 -1 -0.7266427566196938 -0 -1 -0 1 1 1 1 0.74717144168191274 0 1 1 0.72664275661969391 0.77622428368687946 1 0.7266427566196938 0 1 1 0 0 14:1 29:1 30:1 33:1 38:1 43:1 45:1 72:1 73:1 82:1 92:1 
-1 -1 -1 -1 -1 -1 1 1 1 1 1 1 1 1 1 1 1 1 1 1 1 1 1 5:1 38:1 53:1 92:1 
-1 -1 -1 -1 -1 -1 1 1 1 1 1 1 1 1 1 0.89062809460697445 1 1 1 1 1 1 1 28:1 38:1 45:1 70:1 92:1 
-1 -1 -1 -1 -1 -0.96553547564517872 1 1 1 1 1 0.86027147794210479 1 1 1 1 1 1 1 1 1 0.90759506066866591 1 14:1 38:1 45:1 63:1 70:1 82:1 92:1 93:1 
-1 -1 -1 -0 -1 -0.073028923971296372 1 1 1 1 1 0.088960852648107519 1 1 1 1 1 1 0.14277653901752987 1 1 0.014817206484610625 0.25404047570362104 14:1 22:1 38:1 43:1 45:1 72:1 83:1 92:1 
-1 -1 -1 -1 -1 -1 1 1 1 1 0.95894262987556267 1 1 1 1 1 1 1 1 1 1 0.50013990869261593 1 14:1 28:1 38:1 45:1 60:1 66:1 70:1 92:1 
-1 -1 -1 -1 -1 -1 1 1 1 1 1 1 1 1 1 1 1 1 1 1 1 1 1 14:1 35:1 38:1 70:1 91:1 92:1 
-1 -1 -1 -1 -1 -1 1 1 1 1 1 1 1 1 1 1 1 1 1 1 1 1 1 4:1 38:1 46:1 47:1 70:1 92:1 
-1 -1 -0.27335724338030615 -1 -1 -1 1 1 1 1 0.29388592844252454 1 1 1 0.27335724338030609 0.33314762170614609 1 0.27335724338030615 1 1 1 1 1 4:1 14:1 29:1 33:1 38:1 43:1 45:1 47:1 72:1 73:1 92:1 
-1 -1 -1 -0.5819220469681855 -1 -0.65600988757966217 1 1 1 1 1 0.84220672001765551 1 1 1 1 1 1 0.68745064102170417 1 1 1 0.53755336847479662 7:1 38:1 43:1 52:1 72:1 90:1 92:1 
-1 -1 -1 -0.4180779530318145 -1 -0.3054257128038626 1 1 1 1 1 0.20856094939213218 1 1 1 1 1 1 0.16977281996076593 1 1 0.57744782415410745 0.2084061558215824 14:1 38:1 45:1 60:1 66:1 70:1 92:1 101:1 
-1 -1 -0.28025669718969121 -1 -1 -1 -1 1 1 1 0.28025669718969121 1 1 1 0.28025669718969121 0.29350753413267516 1 0.28025669718969121 1 1 1 0.98713984740308225 1 4:1 14:1 29:1 33:1 37:1 43:1 45:1 47:1 72:1 73:1 92:1 
-1 -1 -1 -0.19591944126363114 -1 -0.26083045906098817 -1 1 1 1 1 0.2878693251161949 1 1 1 1 1 1 0.2564609521373466 1 1 0.23649431492579445 0.1713133190320944 9:1 14:1 29:1 34:1 37:1 44:1 46:2 52:1 56:1 74:2 87:2 92:1 
-1 -1 -0.75936611052787284 -0 -1 -0 -1 1 1 1 0.75936611052787284 0 1 1 0.75648953112196948 0.75707382037495186 1 0.75936611052787284 0 1 1 0 0 14:1 29:1 30:1 33:1 37:1 43:1 45:1 72:1 73:1 82:1 92:1 
-1 -1 -1 -0.62175872146971778 -1 -0.66078296141158888 -1 1 1 1 1 0.54336128165475206 1 1 1 1 1 1 0.66149538438793065 1 1 0.41190810354800461 0.80731438627988794 14:1 22:1 37:1 43:1 45:1 72:1 83:1 92:1 
-1 -1 -1 -1 -1 -1 -1 1 1 1 1 1 1 1 1 1 1 1 1 1 1 1 1 37:1 92:1 
-1 -1 -1 -1 -1 -1 -1 1 1 1 1 1 1 1 1 1 1 1 1 1 1 1 1 4:1 37:1 46:1 47:1 70:1 92:1 
-1 -1 -1 -1 -1 -1 -1 1 1 1 1 1 1 1 1 1 1 1 1 1 1 1 1 5:1 37:1 53:1 92:1 
-1 -1 -1 -0.4804080674036374 -1 -0.49830756454706077 -1 1 1 1 1 0.63938783064599658 1 1 1 1 1 1 0.50145449883502846 1 1 0.75939693632207417 0.37067354559213089 7:1 37:1 43:1 52:1 72:1 90:1 92:1 
-1 -1 -0.96037719228243601 -0.70191376986301379 -1 -0.58007901498036218 -1 1 1 1 0.96037719228243601 0.52938156258305658 1 1 0.96325377168833937 0.94941864549237309 1 0.96037719228243601 0.58058916463969434 1 1 0.60506079780104449 0.65069874909588665 29:1 33:1 37:1 45:1 56:1 57:1 73:1 82:1 92:1 
-1 -1 -1 -1 -1 -1 -1 1 1 1 1 1 1 1 1 1 1 1 1 1 1 1 1 14:1 37:1 45:1 60:1 66:1 70:1 92:1 101:1 
-1 -1 -1 -1 -1 -1 -1 1 1 1 1 1 1 1 1 1 1 1 1 1 1 1 1 14:1 35:1 37:1 70:1 91:1 92:1 
-0.89127682538821096 -1 -1 -0 -1 -0.087560330778451073 -1 -1 1 1 1 0.037936197373573066 1 1 1 1 1 1 0 1 1 0.082458035474896926 0.19820166716201762 14:1 21:1 36:1 40:1 46:1 69:1 87:1 
-0 -1 -0 -0 -0 -0 -0 -0 0 0 0.16953165544061483 0 1 1 0.18429302410560019 0.19830016660833291 1 0.10893422460087243 0 1 0.23479049811528263 0 0 14:1 21:1 24:1 36:1 40:1 46:1 68:1 87:1 98:1 
-0 -1 -0 -0 -0 -0 -0 -0 0 0 0 0 1 1 0.068264339111511918 0.10355234175408469 1 0.29800008912319714 0 1 0.070225824594517205 0 0 14:1 21:1 24:1 36:1 40:1 46:1 68:1 87:1 
-1 -1 -0.81966423860228366 -1 -1 -1 -1 -1 1 1 0.34574227528985479 1 1 1 0.87301441482058451 0.36707528794315974 1 0.86244532293664489 1 1 1 1 1 11:1 28:2 40:1 46:1 69:1 71:1 88:1 
-1 -1 -0.31857422080863312 -0.33151233679780695 -1 -0.2480350481241734 -1 -1 1 1 0.37796443160909138 0.24344298643866544 1 1 0.31632338636727181 0.1721820761180568 1 0.21621855680814323 0.30967384275848836 1 0.37936873142824962 0.43889072815346408 0.30841124291291749 23:1 40:1 46:1 68:1 87:1 89:1 
-0 -1 -0 -0 -0 -0 -0 -0 0 0 0.23122071439260616 0 1 1 0 0 1 0 0 1 0 0 0 14:1 36:1 40:1 46:1 68:1 87:1 88:1 
-0 -1 -0.68690662644602651 -0 -0 -0 -0 -0 0 0 0.18039267550936636 0 1 1 0 0.43321027337120727 1 0.22308978728817278 0 1 0.53086668150135841 0 0 14:1 21:1 36:1 40:1 46:1 68:1 87:1 
-1 -1 -0.72563321098606914 -1 -1 -1 -1 -1 1 1 0.83221552508235541 1 1 1 0.97956749670033638 1 1 0.86414925567411038 1 1 1 1 1 8:1 14:1 40:1 46:1 52:1 61:1 68:1 70:1 
-1 -1 -1 -0.79805314157722673 -1 -1 -1 -1 1 1 1 0.99109485825451349 1 1 1 1 1 1 0.75832206367176913 1 1 1 1 1:1 14:1 24:1 40:1 46:1 53:1 68:1 
-1 -1 -1 -1 -1 -1 -1 -1 1 1 1 1 1 1 1 1 1 1 1 1 1 1 1 14:1 20:1 28:1 35:1 40:1 45:1 68:1 
-1 -1 -0.89015195726352636 -1 -1 -1 -1 -1 1 1 0.94487198383758941 1 1 1 0.78358122287017284 0.96639350815930281 1 0.82228294904733235 1 1 1 1 1 14:1 17:1 35:1 40:1 53:1 58:1 67:1 68:1 81:1 85:1 
-1 -1 -0.55906974589346115 -0.34471313913077301 -0.93040747445727801 -0.25410561909523877 -0.92577544002388978 -1 1 0.92656195777695971 0.70875406826177156 0.28267913585718835 1 1 0.7354236242601474 0.75928634604585588 1 0.60487981452152684 0.31758969590296526 1 0.78474826436059208 0.46895243765603606 0.31379847509390257 19:1 24:1 36:1 40:1 46:1 69:1 87:1 90:1 
-1 -1 -1 -1 -1 -1 -1 -1 1 1 1 1 1 1 1 1 1 1 1 1 1 1 1 14:1 40:1 46:1 51:1 87:1 88:1 
-0 -1 -0 -0 -0 -0 -0 -0 0 0 0.20930667057675015 0 1 1 0 0 1 0 0 1 0 0 0 21:1 24:1 36:1 40:1 46:1 69:1 87:1 90:1 
-0.33305515856165702 -1 -1 -0.56705683638736049 -0.50136021016257859 -0.48462674040030967 -0.49334762901643747 -0.19796262114110066 0.54161050008680289 0.49831704318360931 1 0.49385054704896919 1 1 1 1 1 1 0.69935759416494925 1 1 0.0096987987156029343 0.20765750863394339 11:1 14:1 21:1 24:1 28:1 40:1 46:1 71:1 79:1 87:1 
-0 -1 -0 -0 -0 -0 -0 -0 0 0 0 0 1 1 0.15842706619381175 0 1 0 0 1 0 0 0 21:1 24:1 40:1 46:1 68:1 87:1 
-1 -1 -1 -0.95866454610683283 -1 -0.92567226160182703 -1 -1 1 1 1 0.9509962750270905 1 1 0.90110542557056317 1 1 1 0.91505680350182783 1 1 1 0.9719311061972189 21:1 36:1 40:1 46:1 64:1 87:1 99:1 
-0.77566801605013203 -1 -0 -0 -0.56823231538014352 -0 -0.58087693095967285 -0.80203737885889936 0.45838949991319711 0.57512099903943104 0 0 1 1 0 0 1 0 0 1 0 0 0 20:1 35:1 40:1 46:1 68:1 87:1 
-1 -1 -1 -1 -1 -1 -1 -1 -1 1 1 1 1 1 1 1 1 1 1 1 1 1 1 28:1 40:1 45:1 70:1 92:1 
-1 -1 -1 -0.69819189769089796 -1 -0.71162822417962257 -1 -1 -1 1 1 0.86052978727768414 1 1 1 1 1 1 0.732020731481689 1 1 1 0.59599384649343279 7:1 40:1 43:1 52:1 72:1 90:1 92:1 
-1 -1 -1 -1 -1 -1 -1 -1 -1 1 1 1 1 1 1 1 1 1 1 1 1 1 1 14:1 40:1 45:1 63:1 70:1 82:1 92:1 93:1 
-1 -1 -1 -0 -1 -0.093302719565984377 -1 -1 -1 1 1 0.062601663672202004 1 1 1 1 1 1 0.17203655296508147 1 1 0 0.28409377587812967 14:1 22:1 40:1 43:1 45:1 72:1 83:1 92:1 
-1 -1 -1 -0.97035506398004678 -1 -0.849961677292975 -1 -1 -1 1 1 0.64069830818042561 1 1 1 1 1 1 0.68644950820931083 1 1 0.8225903759871247 0.74157276495093083 14:1 40:1 45:1 60:1 66:1 70:1 92:1 101:1 
-1 -1 -1 -1 -1 -1 -1 -1 -1 1 1 1 1 1 1 1 1 1 1 1 1 0.76593622789334492 1 14:1 28:1 40:1 45:1 60:1 66:1 70:1 92:1 
-1 -1 -0.26887023478136879 -0 -1 -0 -1 -1 -1 1 0.26887023478136879 0 1 1 0.26887023478136879 0.26887023478136879 1 0.26887023478136879 0 1 1 0 0 14:1 29:1 30:1 33:1 40:1 43:1 45:1 72:1 73:1 82:1 92:1 
-1 -1 -1 -1 -1 -1 -1 -1 -1 1 1 1 1 1 1 1 1 1 1 1 1 1 1 40:1 92:1 
-1 -1 -1 -0.33145303832905532 -1 -0.34510737896141819 -1 -1 -1 1 1 0.43617024086968825 1 1 1 1 1 1 0.40949320734391886 1 1 0.41147339611953043 0.37833961267750682 9:1 14:1 29:1 34:1 40:1 44:1 46:2 52:1 56:1 74:2 87:2 92:1 
-1 -1 -0.73112976521863127 -1 -1 -1 -1 -1 -1 1 0.73112976521863127 1 1 1 0.73112976521863127 0.73112976521863127 1 0.73112976521863127 1 1 1 1 1 4:1 14:1 29:1 33:1 40:1 43:1 45:1 47:1 72:1 73:1 92:1 
-1 -1 -1 -1 -1 -1 -1 -1 -1 1 1 1 1 1 1 1 1 1 1 1 1 1 1 5:1 40:1 53:1 92:1 
-1 -1 -1 -1 -1 -1 -1 -1 -1 -1 1 1 1 1 1 1 1 1 1 1 1 0.66041825198098514 1 14:1 28:1 42:1 45:1 60:1 66:1 70:1 92:1 
-1 -1 -1 -0.87300368756924929 -1 -0.95750711497482333 -1 -1 -1 -1 1 1 1 1 1 1 1 1 0.976266562979759 1 1 1 0.81750607397199304 7:1 42:1 43:1 52:1 72:1 90:1 92:1 
-1 -1 -1 -0.72575511055565289 -1 -0.65265768053261475 -1 -1 -1 -1 1 0.49849434727915248 1 1 1 1 1 1 0.52704632144286478 1 1 0.74120351032398268 0.53749765556774676 14:1 42:1 45:1 60:1 66:1 70:1 92:1 101:1 
-1 -1 -0.96915898424664748 -1 -1 -1 -1 -1 -1 -1 0.96915898424664748 1 1 1 0.96915898424664748 0.96915898424664748 1 0.96915898424664748 1 1 1 1 1 4:1 14:1 29:1 33:1 42:1 43:1 45:1 47:1 72:1 73:1 92:1 
-1 -1 -1 -1 -1 -1 -1 -1 -1 -1 1 1 1 1 1 1 1 1 1 1 1 1 1 28:1 42:1 45:1 70:1 92:1 
-1 -1 -1 -1 -1 -1 -1 -1 -1 -1 1 1 1 1 1 1 1 1 1 1 1 1 1 14:1 35:1 42:1 70:1 91:1 92:1 
-1 -1 -1 -0 -1 -0.042492885025176709 -1 -1 -1 -1 1 0.10527345484668198 1 1 1 1 1 1 0.11495566983568445 1 1 0.088193711520258011 0.21188761985948368 14:1 22:1 42:1 43:1 45:1 72:1 83:1 92:1 
-1 -1 -1 -0.40124120187509793 -1 -0.34734231946738525 -1 -1 -1 -1 1 0.39623219787416569 1 1 1 1 1 1 0.38173144574169171 1 1 0.51018452617477417 0.43310865060077641 29:1 33:1 42:1 45:1 56:1 57:1 73:1 82:1 92:1 
-1 -1 -1 -1 -1 -1 -1 -1 -1 -1 1 1 1 1 1 1 1 1 1 1 1 1 1 14:1 42:1 45:1 63:1 70:1 82:1 92:1 93:1 
-1 -1 -1 -1 -1 -1 -1 -1 -1 -1 1 1 1 1 1 1 1 1 1 1 1 1 1 42:1 92:1 
-1 -1 -0.03084101575335247 -0 -1 -0 -1 -1 -1 -1 0.030841015753352519 0 1 1 0.030841015753352519 0.030841015753352519 1 0.030841015753352519 0 1 1 0 0 14:1 29:1 30:1 33:1 42:1 43:1 45:1 72:1 73:1 82:1 92:1 
-1 -1 -1 -1 -1 -1 -1 -1 -1 -1 -1 1 1 1 1 1 1 1 1 1 1 1 1 14:1 17:1 21:1 36:1 38:1 45:1 75:1 78:1 87:1 
-1 -1 -1 -1 -1 -1 -1 -1 -1 -1 -1 1 1 1 1 1 1 1 1 1 1 1 1 14:1 17:1 21:1 36:1 38:1 45:1 77:1 80:1 87:1 
-1 -1 -1 -1 -1 -1 -1 -1 -1 -1 -1 1 1 1 1 1 1 1 1 1 1 1 1 14:1 27:1 38:1 45:1 76:1 94:1 102:1 
-1 -1 -1 -0.37644765739795133 -1 -0.34333956728304044 -1 -1 -1 -1 -1 0.34561483279105726 1 1 1 1 1 1 0.34355296467083035 1 1 0.4452973086225781 0.3626455352389204 14:1 21:1 38:1 46:1 77:1 87:1 
-1 -1 -1 -1 -1 -0.98732056744305152 -1 -1 -1 -1 -1 0.98330410465919926 1 1 1 1 1 1 0.98553803104232063 1 1 1 0.97594508196594831 24:1 26:1 38:1 46:1 77:1 87:1 88:1 
-1 -1 -1 -0.71073913651975351 -1 -0.73256384883705561 -1 -1 -1 -1 -1 0.73852424738867484 1 1 1 1 1 1 0.73741210579835625 1 1 0.77506522571860359 0.74392784683110735 14:1 24:1 38:1 46:1 77:1 87:1 97:1 
-1 -1 -1 -1 -1 -1 -1 -1 -1 -1 -1 1 1 1 1 1 1 1 1 1 1 1 1 14:1 38:1 46:1 53:1 77:1 95:1 
-1 -1 -1 -0 -1 -0 -1 -1 -1 -1 -1 0 1 1 1 1 1 1 0 1 1 0 0 14:1 24:1 26:1 38:1 46:1 54:1 77:1 96:1 101:1 
-1 -1 -1 -1 -1 -1 -1 -1 -1 -1 -1 1 1 1 1 1 1 1 1 1 1 0.77963746565881831 0.93850661951045411 11:1 14:1 25:1 28:1 35:1 38:1 46:1 54:1 59:1 71:1 77:1 95:1 100:1 101:1 
-1 -1 -1 -0.91281320608229521 -1 -0.93677601643685238 -1 -1 -1 -1 -1 0.9325568151610687 1 1 1 1 1 1 0.93349689848849271 1 1 1 0.97897491645356971 14:1 26:1 38:1 46:1 54:1 77:1 96:1 101:1 
-1 -1 -1 -1 -1 -1 -1 -1 -1 -1 -1 -1 1 1 1 1 1 1 1 1 1 1 1 4:1 11:1 13:1 14:1 28:1 41:1 45:1 47:1 70:1 71:1 
-1 -1 -1 -1 -1 -1 -1 -1 -1 -1 -1 -1 1 1 1 1 1 1 1 1 1 1 1 4:1 13:1 14:1 41:1 53:1 70:1 
-1 -1 -1 -1 -1 -1 -1 -1 -1 -1 -1 -1 1 1 1 1 1 1 1 1 1 1 1 4:1 33:1 41:1 45:1 47:1 73:1 92:1 
-1 -1 -1 -1 -1 -1 -1 -1 -1 -1 -1 -1 1 1 1 1 1 1 1 1 1 1 1 4:1 41:1 53:1 
-1 -1 -1 -1 -1 -1 -1 -1 -1 -1 -1 -1 1 1 1 1 1 1 1 1 1 1 1 4:1 11:1 13:1 14:1 28:1 35:1 41:1 45:1 47:1 70:1 71:1 
-1 -1 -1 -1 -1 -1 -1 -1 -1 -1 -1 -1 1 1 1 1 1 1 1 1 1 1 1 13:1 31:1 41:1 52:1 70:1 
-1 -1 -1 -1 -1 -1 -1 -1 -1 -1 -1 -1 1 1 1 1 1 1 1 1 1 1 1 6:1 16:1 41:1 52:1 92:1 
-1 -1 -1 -1 -1 -1 -1 -1 -1 -1 -1 -1 1 1 1 1 1 1 1 1 1 1 1 13:1 14:2 41:1 65:1 
-0.86059694523673669 -1 -0.65258331463899788 -0.91267389570437851 -0.97438710303338882 -0.66748912959346018 -0.82936280613955238 -0.68979347674145575 -1 -0.97703065889912222 -0.92007717264525368 -0.24494860186942258 -0.7691474466114141 1 0.79443914731750331 0.27078799932244646 1 0.72681512277621396 0.97808244547001388 1 0.9875484932072307 0.51104706217722673 0.68858341800356282 11:1 28:2 42:1 46:1 69:1 71:1 88:1 
-0 -1 -0 -0 -0 -0 -0 -0 -1 -0 -0 -0 -0 1 0 0 1 0 0 1 0 0 0 21:1 24:1 36:1 42:1 46:1 69:1 87:1 90:1 
-1 -1 -0.58551925069162336 -0.9350019048670658 -1 -0.95406007856644992 -1 -1 -1 -1 -1 -0.54455976005902051 -0.9687727040916907 1 0.54667582714125751 0.50327582760571221 1 0.61036330659534233 0.92564210792632595 1 0.50548055746961129 0.93222092323288797 0.92577666641032819 10:1 11:1 18:1 27:1 28:1 29:1 32:1 42:1 48:1 49:1 50:1 51:1 71:1 86:1 
-0.78815960415760533 -1 -0 -1 -0.57080180811014247 -0.98558230044430528 -0.97168650988911476 -0.38966116524582634 -1 -0.52159813137371047 -0.78650079026878228 -0 -0.77029660086436791 1 0 0 1 0 0.7958323084025033 1 0 0.6172897571874687 0.59529334755464391 11:1 21:1 28:1 42:1 46:1 68:1 70:1 71:1 84:1 
-0.45539571210982244 -1 -1 -0.065413271372388726 -0.50853988952114315 -0.060887413564904951 -0.76211721916355246 -0.79537303374190416 -1 -0.66582930720351552 -0.80920700728780914 -1 -0.094720179183944334 1 1 1 1 1 0.093770038262080607 1 1 0.18989106930808777 0.16902625768465587 2:1 24:1 36:1 42:1 46:1 54:1 68:1 101:1 
-1 -1 -1 -0.58146318577553191 -0.96677886825498316 -0.40072519851824701 -0.65262920695739268 -1 -1 -0.91697821986790751 -0.80304397833988339 -1 -0.46748986835904699 1 0.58844008164615613 1 1 0.94583428627858579 0.48527175450159149 1 1 0.65210681135844406 0.4926119991391304 21:1 36:1 42:1 46:1 64:1 87:1 99:1 
-1 -1 -0.20682085913801454 -0.094469928080879506 -1 -0.09742710326497929 -0.98718671884950249 -1 -1 -1 -1 -0.2334160980794619 -0.15542193361000323 1 0.29075150724954069 0.17144570547781304 1 0.083657954505370835 0.1456645680940013 1 0.29514343736493315 0.34648568558275922 0.26267228218516958 23:1 42:1 46:1 68:1 87:1 89:1 
-0.86792161784594346 -1 -0.12900145529430782 -0.33292788409347873 -0.74167120867121439 -0.24689277715140009 -0.56827482809384733 -0.80456355782796818 -1 -0.66937242336123937 -0.53007638130111923 -0.41705501258575922 -0.19683726661080081 1 0.41592771135406026 0.34056228149516038 1 0.2271549606892109 0.13950761450882854 1 0.29950473725560439 0.33926949546372492 0.1786482283556487 19:1 24:1 36:1 42:1 46:1 69:1 87:1 90:1 
-0 -1 -1 -0 -0 -0 -0 -0 -1 -0 -0 -1 -0 1 1 1 1 1 0 1 1 0 0 11:1 14:1 21:1 24:1 28:1 42:1 46:1 71:1 79:1 87:1 
-1 -1 -1 -1 -1 -1 -1 -1 -1 -1 -1 -1 -1 1 1 1 1 1 1 1 1 1 1 14:1 42:1 46:1 51:1 87:1 88:1 
-0 -1 -0 -0 -0 -0 -0 -0 -1 -0 -0 -0.071133025284705234 -0 1 0.22210310107032852 0.36012793927413911 1 0.22104665531783685 0 1 0.32187397781462235 0 0 14:1 21:1 24:1 36:1 42:1 46:1 68:1 87:1 98:1 
-0 -1 -0 -0 -0 -0 -0 -0 -1 -0 -0 -0 -0 1 0 0 1 0 0 1 0 0 0 21:1 24:1 42:1 46:1 68:1 87:1 
-0.24035689678459832 -1 -0.22857093899528289 -0.10242363427285654 -0.23782112240912809 -0.12322911645958488 -0.2287427109070381 -0.32060876644284564 -1 -0.24919125929450497 -0.15109467015715222 -0.20053684260860666 -0.097819745873343827 1 0.18111069431472127 0.14417934489245765 1 0.16570158382645342 0.046272366497714039 1 0.25918601135562108 0.10728130948125844 0.10148983909855201 15:1 21:1 36:1 42:1 46:1 64:1 87:1 99:1 
-0 -1 -0.43063551967983599 -0 -0 -0 -0 -0 -1 -0 -0 -0.42994465975233614 -0 1 0 0.2096209019322712 1 0.13073175986668667 0 1 0.33126278553237709 0 0 14:1 36:1 42:1 46:1 68:1 87:1 88:1 
-1 -1 -1 -1 -1 -1 -1 -1 -1 -1 -1 -1 -1 1 0.96528175375692959 1 1 1 1 1 1 1 1 14:1 17:1 35:1 42:1 53:1 58:1 67:1 68:1 81:1 85:1 
-0.78756922386529371 -1 -1 -0.060722069597910391 -1 -0.4637068824366683 -1 -1 -1 -1 -1 -1 -0.4794942547953881 1 1 1 1 1 0.47181891710727902 1 1 0.30440788620814213 0.58589796156830865 14:1 21:1 36:1 42:1 46:1 69:1 87:1 
-1 -1 -0.97112532909255722 -0.91490422623550993 -1 -1 -1 -1 -1 -1 -1 -1 -1 1 1 1 1 0.98577359999435343 0.91813787922966195 1 1 1 1 1:1 14:1 24:1 42:1 46:1 53:1 68:1 
-1 -1 -0.79574333246938023 -1 -1 -1 -1 -1 -1 -1 -1 -0.85840599976068765 -1 1 0.99527017614950242 1 1 0.90292077014994576 1 1 1 1 1 8:1 14:1 42:1 46:1 52:1 61:1 68:1 70:1 
-0.45639921028363883 -1 -1 -0.13656916427193805 -0.511733708914895 -0.083890960764444023 -0.83001851405080063 -0.74563027859019659 -1 -0.7299198322756818 -0.87810460175998217 -1 -0.1081164031600761 -1 1 1 1 1 0.18295747349310426 1 1 0.16214340118500448 0.12076712840645785 2:1 24:1 36:1 38:1 46:1 54:1 68:1 101:1 
-0 -1 -0 -0 -0 -0 -0 -0 -1 -0 -0 -0 -0 -1 0 0 1 0 0 1 0 0 0 14:1 21:1 24:1 36:1 38:1 46:1 68:1 87:1 
-1 -1 -0.75749023616858568 -1 -1 -0.95269501645264099 -1 -1 -1 -1 -1 -0.28385856981208474 -1 -1 0.85630465951308543 0.29232011293056015 1 0.8113824084233856 1 1 0.98087567645427942 0.80690470202390729 0.9608190641319595 11:1 28:2 38:1 46:1 69:1 71:1 88:1 
-1 -1 -1 -0.83936404752161664 -1 -0.64330624719345719 -1 -1 -1 -1 -0.98454753640852499 -1 -0.68025971974479016 -1 0.72875305800659251 1 1 1 0.5845436035709779 1 1 0.88716964770573969 0.71945124970729635 21:1 36:1 38:1 46:1 64:1 87:1 99:1 
-1 -1 -1 -1 -1 -1 -1 -1 -1 -1 -1 -1 -1 -1 1 1 1 1 1 1 1 1 1 14:1 38:1 46:1 51:1 87:1 88:1 
-0.29290862221378533 -1 -0 -0 -0.27115382218012296 -0 -0.009950120228932758 -0.40196066185792367 -1 -0.01879250240906398 -0.015452463591475051 -0 -0 -1 0 0 1 0 0 1 0 0 0 20:1 35:1 38:1 46:1 68:1 87:1 
-0 -1 -0 -0 -0 -0 -0 -0 -1 -0 -0 -0 -0 -1 0.0090686442404309519 0.081318331035579255 1 0.042655981890516288 0 1 0.11862855987365416 0 0 14:1 21:1 24:1 36:1 38:1 46:1 68:1 87:1 98:1 
-0 -1 -1 -0.079232762463810405 -0.19840412856321554 -0 -0 -0 -1 -0.20408149649758223 -0 -1 -0.073640158602564232 -1 1 1 1 1 0.24204761257850829 1 1 0 0 11:1 14:1 21:1 24:1 28:1 38:1 46:1 71:1 79:1 87:1 
-0.38651897050034806 -1 -0.34051361683145187 -0.072185488911513968 -0.33653973143840349 -0.13990746462392564 -0.20172236833709634 -0.41356751385326812 -1 -0.38322887823913004 -0.25815639215146485 -0.26786568812096789 -0.13305840569925753 -1 0.1752515386478824 0.23399276417526663 1 0.21948728441693927 0.15467336925771483 1 0.35760088079203833 0.14842411012754353 0.14985781224118933 15:1 21:1 36:1 38:1 46:1 64:1 87:1 99:1 
-0.71501130415592118 -1 -1 -0.013879167007396168 -1 -0.32795432586272888 -1 -1 -1 -1 -1 -1 -0.28976616113941001 -1 1 1 1 1 0.27724777294322611 1 1 0.099634833771149789 0.36751281065279484 14:1 21:1 36:1 38:1 46:1 69:1 87:1 
-0 -1 -0 -0 -0 -0 -0 -0 -1 -0 -0 -0 -0 -1 0 0 1 0 0 1 0 0 0 21:1 24:1 38:1 46:1 68:1 87:1 
-1 -1 -0.89021475143941498 -1 -1 -1 -1 -1 -1 -1 -1 -0.87157530576056197 -1 -1 0.72935245882763133 0.9087818660217295 1 0.82555815954849632 1 1 0.97846582305019381 1 1 14:1 17:1 35:1 38:1 53:1 58:1 67:1 68:1 81:1 85:1 
-1 -1 -0.86819372871673328 -0.71693572185927157 -1 -0.85753114974227729 -1 -1 -1 -1 -1 -1 -0.87936356318033182 -1 1 1 1 0.92392598317329222 0.59673103844449726 1 1 1 1 1:1 14:1 24:1 38:1 46:1 53:1 68:1 
-0.78199936234524248 -1 -0 -1 -0.54138602186485107 -0.99471483536052596 -1 -0.2295371204850557 -1 -0.55943496852410868 -0.90586001851407605 -0 -0.79327754434538089 -1 0 0 1 0 0.88348173097378246 1 0 0.58150460204206411 0.57357798231266666 11:1 21:1 28:1 38:1 46:1 68:1 70:1 71:1 84:1 
-1 -1 -0.70923991437843437 -1 -1 -1 -1 -1 -1 -1 -1 -0.75419013537198998 -1 -1 0.86468284953142671 1 1 0.79838737488899025 1 1 1 1 1 8:1 14:1 38:1 46:1 52:1 61:1 68:1 70:1 
-1 -1 -1 -1 -1 -1 -1 -1 -1 -1 -1 -1 -1 -1 1 1 1 1 1 1 1 1 1 14:1 20:1 28:1 35:1 38:1 45:1 68:1 
-1 -1 -0.25332390161131846 -0.092585467482330194 -1 -0 -0.95830899738317032 -1 -1 -1 -0.95322539759978564 -0.31001135766237531 -0.0425180441281892 -1 0.28818998330263368 0.069518762044519858 1 0.085932084237208897 0.078317398738188951 1 0.2212284633890941 0.21671456512183476 0.10801395254763539 23:1 38:1 46:1 68:1 87:1 89:1 
-0.36716253050106412 -1 -0.18102385085406131 -0.049248180482123052 -0.14078258703851199 -0 -0 -0.20930442521355597 -1 -0.10454232205443328 -0.0046535899746912718 -0.51249894327202017 -0 -1 0.34839680793031708 0.41406816379234457 1 0.29267072342117101 0 1 0.34320059644074014 0.097504138022756356 0 21:1 24:1 36:1 38:1 46:1 69:1 87:1 90:1 
-1 -1 -1 -0 -1 -0 -1 -1 -1 -1 -1 -1 -0 -1 -1 1 1 1 0 1 1 0 0 14:1 24:1 26:1 37:1 46:1 54:1 77:1 96:1 101:1 
-1 -1 -1 -1 -1 -1 -1 -1 -1 -1 -1 -1 -1 -1 -1 1 1 1 1 1 1 1 1 14:1 21:1 37:1 46:1 77:1 87:1 
-1 -1 -1 -0.27526452145220753 -1 -0.33389458357198293 -1 -1 -1 -1 -1 -1 -0.33407287527933738 -1 -1 1 1 1 0.26908027297127218 1 1 0.54865351402757301 0.43204162741616736 14:1 24:1 26:1 37:1 46:1 54:1 77:1 96:1 101:1 
-1 -1 -1 -1 -1 -1 -1 -1 -1 -1 -1 -1 -1 -1 -1 1 1 1 1 1 1 1 1 14:1 27:1 37:1 45:1 76:1 94:1 102:1 
-1 -1 -1 -0.98790075926730248 -1 -0.89407409277975802 -1 -1 -1 -1 -1 -1 -0.88673653944986053 -1 -1 1 1 1 0.98178956705339548 1 1 0.54444604561008292 0.68391893899306788 11:1 14:1 25:1 28:1 35:1 37:1 46:1 54:1 59:1 71:1 77:1 95:1 100:1 101:1 
-1 -1 -1 -1 -1 -1 -1 -1 -1 -1 -1 -1 -1 -1 -1 1 1 1 1 1 1 1 1 24:1 26:1 37:1 46:1 77:1 87:1 88:1 
-1 -1 -1 -1 -1 -1 -1 -1 -1 -1 -1 -1 -1 -1 -1 1 1 1 1 1 1 1 1 11:1 14:1 28:1 37:1 46:1 54:1 71:1 77:1 97:1 101:1 
-1 -1 -1 -0.73683471928049005 -1 -0.7720313236482591 -1 -1 -1 -1 -1 -1 -0.77919058527080198 -1 -1 1 1 1 0.74913015997533239 1 1 0.90690044036234407 0.88403943359076476 14:1 24:1 37:1 46:1 77:1 87:1 97:1 
-1 -1 -1 -1 -1 -1 -1 -1 -1 -1 -1 -1 -1 -1 -1 1 1 1 1 1 1 1 1 14:1 37:1 46:1 53:1 77:1 95:1 
-1 -1 -1 -1 -1 -1 -1 -1 -1 -1 -1 -1 -1 -1 -1 1 1 1 1 1 1 1 1 14:1 17:1 21:1 36:1 37:1 45:1 75:1 78:1 87:1 
-1 -1 -1 -0.88231825561044563 -1 -0.88972411359819814 -1 -1 -1 -1 -1 -1 -0.90077879520349802 -1 -1 -1 1 1 0.94280434855824413 1 1 0.91151287224633171 0.9367686274879875 14:1 24:1 42:1 46:1 77:1 87:1 97:1 
-1 -1 -1 -0 -1 -0 -1 -1 -1 -1 -1 -1 -0 -1 -1 -1 1 1 0.010337710410440322 1 1 0 0.054188969374950685 14:1 24:1 26:1 42:1 46:1 54:1 77:1 96:1 101:1 
-1 -1 -1 -1 -1 -1 -1 -1 -1 -1 -1 -1 -1 -1 -1 -1 1 1 1 1 1 1 1 14:1 24:1 26:1 42:1 46:1 54:1 77:1 96:1 101:1 
-1 -1 -1 -1 -1 -1 -1 -1 -1 -1 -1 -1 -1 -1 -1 -1 1 1 1 1 1 1 1 14:1 21:1 42:1 46:1 77:1 87:1 
-1 -1 -1 -1 -1 -1 -1 -1 -1 -1 -1 -1 -1 -1 -1 -1 1 1 1 1 1 1 1 14:1 27:1 42:1 45:1 76:1 94:1 102:1 
-1 -1 -1 -1 -1 -1 -1 -1 -1 -1 -1 -1 -1 -1 -1 -1 1 1 1 1 1 1 1 11:1 14:1 28:1 42:1 46:1 54:1 71:1 77:1 97:1 101:1 
-1 -1 -1 -1 -1 -1 -1 -1 -1 -1 -1 -1 -1 -1 -1 -1 1 1 1 1 1 1 1 14:1 17:1 21:1 36:1 42:1 45:1 77:1 80:1 87:1 
-1 -1 -1 -1 -1 -1 -1 -1 -1 -1 -1 -1 -1 -1 -1 -1 1 1 1 1 1 1 1 14:1 42:1 46:1 53:1 77:1 95:1 
-1 -1 -1 -1 -1 -1 -1 -1 -1 -1 -1 -1 -1 -1 -1 -1 1 1 1 1 1 1 1 14:1 17:1 21:1 36:1 42:1 45:1 75:1 78:1 87:1 
-1 -1 -1 -0.11768174438955441 -1 -0.11027588640180183 -1 -1 -1 -1 -1 -1 -0.099221204796502024 -1 -1 -1 1 1 0.046857941031315603 1 1 0.088487127753668293 0.0090424031370618212 3:1 12:1 14:1 42:1 46:2 52:1 54:1 55:1 56:1 62:1 77:1 85:1 97:1 101:1 
-1 -1 -0.59023824468500719 -1 -1 -1 -1 -1 -1 -1 -1 -0.61724369002278578 -1 -1 -1 -0.79614565129005188 -1 0.7099671843834412 1 1 1 1 1 8:1 14:1 37:1 46:1 52:1 61:1 68:1 70:1 
-0.27227377667693659 -1 -0 -0 -0.2861213164747014 -0 -0 -0.54447900815186168 -1 -0.051475805608279114 -0 -0 -0 -1 -1 -0 -0 0 0 1 0 0 0 20:1 35:1 37:1 46:1 68:1 87:1 
-0.80229763790778441 -1 -0.53497788063773288 -0.72161491198007177 -0.89167921444401532 -0.53819879794393533 -0.73478908665594456 -0.61383705058136351 -1 -0.89981070116940831 -0.84170659513161838 -0.16404936787076749 -0.63214709262662472 -1 -1 -0.6621430978136833 -0.13018343663622506 0.59475199812689206 0.82578783085745111 1 0.87914428656915378 0.404214970499224 0.55458587855156793 11:1 28:2 37:1 46:1 69:1 71:1 88:1 
-1 -1 -1 -1 -1 -1 -1 -1 -1 -1 -1 -1 -1 -1 -1 -1 -1 1 1 1 0.90989753065783063 1 1 14:1 20:1 28:1 35:1 37:1 45:1 68:1 
-1 -1 -1 -0.96695332392984468 -1 -1 -1 -1 -1 -1 -1 -1 -1 -1 -1 -1 -1 1 1 1 1 1 1 14:1 37:1 46:1 51:1 87:1 88:1 
-0.50212404983523962 -1 -1 -0.078398402624415553 -0.53424085317747227 -0.030050636241408836 -0.75856025021753681 -0.80945806338321324 -1 -0.74164370047556349 -0.79699722331208056 -1 -0.044739314912628031 -1 -1 -1 -1 1 0.10844788976599616 1 1 0.10558628160191984 0.028159359748603514 2:1 24:1 36:1 37:1 46:1 54:1 68:1 101:1 
-0 -1 -0 -0 -0 -0 -0 -0 -1 -0 -0 -0 -0 -1 -1 -0.20908300784194442 -0 0 0 1 0 0 0 14:1 21:1 24:1 36:1 37:1 46:1 68:1 87:1 
-1 -1 -0.51843391847646014 -0.82958317237251455 -1 -0.85601876235607377 -1 -1 -1 -1 -1 -0.48034464737605381 -0.86662268226191574 -1 -1 -0.43470274996750974 -0.46609288920493458 0.55374620222023607 0.86023967961836023 1 0.4167434645450388 0.83222458790952414 0.7902808353178703 10:1 11:1 18:1 27:1 28:1 29:1 32:1 37:1 48:1 49:1 50:1 51:1 71:1 86:1 
-0 -1 -1 -0 -0.074417730769099091 -0 -0 -0 -1 -0.08003961842593349 -0 -1 -0 -1 -1 -1 -1 1 0.031312430615643594 1 1 0 0 11:1 14:1 21:1 24:1 28:1 37:1 46:1 71:1 79:1 87:1 
-0.42330453558003944 -1 -0 -1 -0.21354088513471178 -0.80613802619056629 -0.69212144959350164 -0.032225877883561585 -1 -0.2270301743208156 -0.4982694463610487 -0 -0.60115777449071117 -1 -1 -0 -0 0 0.63215073178171832 1 0 0.39808872172227877 0.41388619629968759 11:1 21:1 28:1 37:1 46:1 68:1 70:1 71:1 84:1 
-1 -1 -0.80667744522941054 -0.55378412305836267 -1 -0.74390113288000759 -1 -1 -1 -1 -1 -1 -0.78858217513835571 -1 -1 -1 -1 0.90631707374770665 0.54206143736083057 1 1 0.98987024901878307 1 1:1 14:1 24:1 37:1 46:1 53:1 68:1 
-1 -1 -1 -0.10163718593120515 -1 -0.40391832340471423 -1 -1 -1 -1 -1 -1 -0.39659092503226534 -1 -1 -1 -1 1 0.37162916661889411 1 1 0.22825641104911359 0.44888941214534317 14:1 21:1 36:1 37:1 46:1 69:1 87:1 
-1 -1 -1 -0.74802888010358559 -1 -0.62177432098329399 -1 -1 -1 -1 -1 -1 -0.67016003553749959 -1 -1 -0.94985138903460153 -1 1 0.62837083338110589 1 1 0.93670002987298606 0.7423337127288524 21:1 36:1 37:1 46:1 64:1 87:1 99:1 
-1 -1 -0.77732371057824479 -1 -1 -1 -1 -1 -1 -1 -1 -0.77693358269629775 -1 -1 -1 -0.61158930677917345 -0.77654282916195949 0.71514603376464059 1 1 0.88183809448674311 1 1 14:1 17:1 35:1 37:1 53:1 58:1 67:1 68:1 81:1 85:1 
-0 -1 -0.53231253258603939 -0 -0 -0 -0 -0 -1 -0 -0 -0.29234749801745036 -0 -1 -1 -0 -0.4917313342742185 0.28695506397007059 0 1 0.5409512215157416 0 0 14:1 21:1 36:1 37:1 46:1 68:1 87:1 
-0 -1 -0 -0 -0 -0 -0 -0 -1 -0 -0 -0.11424866256365131 -0 -1 -1 -0.059696918011276065 -0.11182729246644506 0.16116090805373506 0 1 0.1556823254509544 0 0 14:1 21:1 24:1 36:1 37:1 46:1 68:1 87:1 98:1 
-1 -1 -0.16153275415510873 -0 -1 -0 -0.81452921353301699 -1 -1 -1 -0.86302673519525241 -0.2763857845017193 -0 -1 -1 -0.27678787926175974 -0.023622218256217312 0.071955535733277662 0 1 0.21574307677453761 0.10505874832617057 0.021864605208075066 23:1 37:1 46:1 68:1 87:1 89:1 
-0 -1 -0.078503513651996315 -0 -0 -0 -0 -0 -1 -0 -0 -0.27844676695127424 -0 -1 -1 -0 -0 0 0 1 0 0 0 14:1 36:1 37:1 46:1 68:1 87:1 88:1 
-1 -1 -1 -1 -1 -1 -1 -1 -1 -1 -1 -1 -1 -1 -1 -1 -1 -1 1 1 1 1 1 14:1 26:1 40:1 46:1 54:1 77:1 96:1 101:1 
-1 -1 -1 -1 -1 -1 -1 -1 -1 -1 -1 -1 -1 -1 -1 -1 -1 -1 1 1 1 1 1 14:1 21:1 40:1 46:1 77:1 87:1 
-1 -1 -1 -1 -1 -1 -1 -1 -1 -1 -1 -1 -1 -1 -1 -1 -1 -1 1 1 1 0.70083216677618021 0.86279859441766693 11:1 14:1 25:1 28:1 35:1 40:1 46:1 54:1 59:1 71:1 77:1 95:1 100:1 101:1 
-1 -1 -1 -0 -1 -0 -1 -1 -1 -1 -1 -1 -0 -1 -1 -1 -1 -1 0 1 1 0 0 14:1 24:1 26:1 40:1 46:1 54:1 77:1 96:1 101:1 
-1 -1 -1 -1 -1 -1 -1 -1 -1 -1 -1 -1 -1 -1 -1 -1 -1 -1 1 1 1 1 1 14:1 27:1 40:1 45:1 76:1 94:1 102:1 
-1 -1 -1 -1 -1 -1 -1 -1 -1 -1 -1 -1 -1 -1 -1 -1 -1 -1 1 1 1 1 1 14:1 17:1 21:1 36:1 40:1 45:1 77:1 80:1 87:1 
-1 -1 -1 -1 -1 -1 -1 -1 -1 -1 -1 -1 -1 -1 -1 -1 -1 -1 1 1 1 1 1 11:1 14:1 28:1 40:1 46:1 54:1 71:1 77:1 97:1 101:1 
-1 -1 -1 -1 -1 -1 -1 -1 -1 -1 -1 -1 -1 -1 -1 -1 -1 -1 1 1 1 1 1 14:1 17:1 21:1 36:1 40:1 45:1 75:1 78:1 87:1 
-1 -1 -1 -1 -1 -1 -1 -1 -1 -1 -1 -1 -1 -1 -1 -1 -1 -1 1 1 1 1 1 24:1 26:1 40:1 46:1 77:1 87:1 88:1 
-1 -1 -1 -0 -1 -0 -1 -1 -1 -1 -1 -1 -0 -1 -1 -1 -1 -1 0 1 1 0.29916783322381979 0.1372014055823331 14:1 24:1 26:1 40:1 46:1 54:1 77:1 96:1 101:1 
-1 -1 -1 -1 -1 -1 -1 -1 -1 -1 -1 -1 -1 -1 -1 -1 -1 -1 -1 1 1 1 1 13:1 14:2 42:1 65:1 
-1 -1 -1 -1 -1 -1 -1 -1 -1 -1 -1 -1 -1 -1 -1 -1 -1 -1 -1 1 1 1 1 13:1 14:1 28:1 42:1 45:1 63:1 70:1 
-1 -1 -1 -1 -1 -1 -1 -1 -1 -1 -1 -1 -1 -1 -1 -1 -1 -1 -1 1 1 1 1 4:1 11:1 13:1 14:1 28:1 35:1 42:1 45:1 47:1 70:1 71:1 
-1 -1 -1 -1 -1 -1 -1 -1 -1 -1 -1 -1 -1 -1 -1 -1 -1 -1 -1 1 1 1 1 4:1 42:1 53:1 
-1 -1 -1 -1 -1 -1 -1 -1 -1 -1 -1 -1 -1 -1 -1 -1 -1 -1 -1 1 1 1 1 4:1 11:1 13:1 14:1 28:1 42:1 45:1 47:1 70:1 71:1 
-1 -1 -1 -1 -1 -1 -1 -1 -1 -1 -1 -1 -1 -1 -1 -1 -1 -1 -1 1 1 1 1 4:1 33:1 42:1 45:1 47:1 73:1 92:1 
-1 -1 -1 -1 -1 -1 -1 -1 -1 -1 -1 -1 -1 -1 -1 -1 -1 -1 -1 1 1 1 1 13:1 31:1 42:1 52:1 70:1 
-1 -1 -1 -1 -1 -1 -1 -1 -1 -1 -1 -1 -1 -1 -1 -1 -1 -1 -1 1 1 1 1 6:1 16:1 42:1 52:1 92:1 
-1 -1 -0.52794288638848907 -1 -1 -0.97273264061565146 -1 -0.78548140632941432 -1 -1 -1 -0.11303993651667622 -0.97707205418742626 -1 -1 -0.66499862305933988 -0.098224937003305479 -1 -0.57157861758315442 -1 0.80739653930389865 0.70996263670516724 0.86322960408325011 11:1 28:2 39:1 46:1 69:1 71:1 88:1 
-0.49155819255693456 -1 -0.27445860842899417 -0.11120664778341124 -0.39494182999541894 -0.10986741995192077 -0.40048779600983603 -0.48948427052248072 -1 -0.44493309113867996 -0.40201635164390614 -0.20836598686280167 -0.10204765815700524 -1 -1 -0.14837986300914349 -0.20586660124838876 -1 -0.18231232166026531 -0.11991133463395834 0.33333120175686493 0.014513137655031512 0.11393887253792577 15:1 21:1 36:1 39:1 46:1 64:1 87:1 99:1 
-0.67173711149325133 -1 -0 -0 -0.54179861473261848 -0 -0.39344870686774625 -0.67499279678337853 -1 -0.24532219837373417 -0.38987055622819411 -0 -0 -1 -1 -0 -0 -1 -0 -0 0 0 0 20:1 35:1 39:1 46:1 68:1 87:1 
-1 -1 -0.56189047518031032 -1 -1 -0.99397312295901219 -1 -1 -1 -1 -1 -0.55683563059201346 -0.98752773044275644 -1 -1 -0.57535971395995578 -0.54853553625389995 -1 -0.6339045282605964 -1 0.49281357947961546 0.92273211105262531 0.94425316687848215 10:1 11:1 18:1 27:1 28:1 29:1 32:1 39:1 48:1 49:1 50:1 51:1 71:1 86:1 
-0 -1 -0.99294589152788304 -0 -0.23914308413125165 -0 -0.037737946955330219 -0 -1 -0.24940824335543962 -0.034284736669625351 -0.90768340666464742 -0 -1 -1 -0.61232922932909661 -0.7185149002691521 -1 -0.73100925597006872 -0 0.84825447504157281 0 0 14:1 36:1 39:1 46:1 68:1 87:1 88:1 
-0.47781858783742837 -1 -0.85318900765964878 -0.10671542136434686 -0.38604838384371731 -0.04687774637102847 -0.88655567293709614 -0.66488287150924597 -1 -0.62960403666131282 -0.89087034431770995 -1 -0.041963091035311442 -1 -1 -1 -1 -1 -1 -0.096403425119815062 1 0.14236289745316327 0.087348290824825453 2:1 24:1 36:1 39:1 46:1 54:1 68:1 101:1 
-1 -1 -0.75691117953781628 -1 -1 -1 -1 -1 -1 -1 -1 -0.80798458036060061 -1 -1 -1 -0.66602115508910986 -0.85064331707629826 -1 -0.73511646112847029 -1 0.91601175067992235 1 1 14:1 17:1 35:1 39:1 53:1 58:1 67:1 68:1 81:1 85:1 
-0 -1 -0 -0 -0 -0 -0 -0 -1 -0 -0 -0 -0 -1 -1 -0 -0 -1 -0 -0 0 0 0 14:1 21:1 24:1 36:1 39:1 46:1 68:1 87:1 98:1 
-0.3588861081123858 -1 -0.20764818400270157 -0 -0.24437004336574983 -0 -0.082285948725222227 -0.3851586548554804 -1 -0.20699210932687767 -0.082471589684960295 -0.48675689598962041 -0 -1 -1 -0.39231272320618543 -0.48636198396947794 -1 -0.33144809904859207 -0 0.40137783710535757 0 0 21:1 24:1 36:1 39:1 46:1 69:1 87:1 90:1 
-1 -1 -1 -0.87395905564913701 -1 -0.71118363847975652 -1 -1 -1 -1 -1 -1 -0.71969113124268225 -1 -1 -0.74044699607709685 -1 -1 -1 -0.66142150483645223 1 0.99466571338804133 0.72533354921815607 21:1 36:1 39:1 46:1 64:1 87:1 99:1 
-1 -1 -1 -0.3896620496041166 -1 -0.69821416837288097 -1 -1 -1 -1 -1 -1 -0.71017522742752937 -1 -1 -1 -1 -1 -1 -0.64833172153569407 1 0.68571702672072754 0.86111068156382076 14:1 21:1 36:1 39:1 46:1 69:1 87:1 
-0 -1 -0 -0 -0 -0 -0 -0 -1 -0 -0 -0 -0 -1 -1 -0 -0 -1 -0 -0 0 0 0 21:1 24:1 39:1 46:1 68:1 87:1 
-1 -1 -0.66425011914997767 -1 -1 -1 -1 -1 -1 -1 -1 -0.70740565725558791 -1 -1 -1 -0.89046860823066176 -1 -1 -0.78784464170149815 -1 1 1 1 8:1 14:1 39:1 46:1 52:1 61:1 68:1 70:1 
-0 -1 -0 -0 -0 -0 -0 -0 -1 -0 -0 -0 -0 -1 -1 -0 -0 -1 -0 -0 0 0 0 14:1 21:1 24:1 36:1 39:1 46:1 68:1 87:1 
-0 -1 -1 -0.24299779093354495 -0.19369804393124368 -0.15226148113175295 -0.1994839285047692 -0 -1 -0.22374032114395576 -0.20048642145560414 -1 -0.14277635394541849 -1 -1 -1 -1 -1 -1 -0.32188204202357618 1 0 0 11:1 14:1 21:1 24:1 28:1 39:1 46:1 71:1 79:1 87:1 
-1 -1 -1 -1 -1 -1 -1 -1 -1 -1 -1 -1 -1 -1 -1 -1 -1 -1 -1 -1 1 1 1 14:1 20:1 28:1 35:1 39:1 45:1 68:1 
-1 -1 -0.21895004071407992 -0.38114138811888193 -1 -0.31488978211799662 -1 -1 -1 -1 -1 -0.21192790575805229 -0.31874675356187054 -1 -1 -0.30968308803941069 -0.091852724179477527 -1 -0.066523149087885647 -0.34952537325214139 0.20081461663276834 0.53004647702524388 0.40478583489353992 23:1 39:1 46:1 68:1 87:1 89:1 
-1 -1 -0.94181360741009901 -0.89431764654656132 -1 -1 -1 -1 -1 -1 -1 -1 -1 -1 -1 -1 -1 -1 -0.96026292555946902 -0.80252459859836278 1 1 1 1:1 14:1 24:1 39:1 46:1 53:1 68:1 
-1 -1 -1 -1 -1 -1 -1 -1 -1 -1 -1 -0.99045736939556683 -1 -1 -1 -0.67021231839687079 -0.62770908009354287 -1 -1 -1 -1 1 1 14:1 26:1 41:1 46:1 54:1 77:1 96:1 101:1 
-1 -1 -1 -0 -1 -0 -1 -1 -1 -1 -1 -1 -0 -1 -1 -1 -1 -1 -1 -0 -1 0 0 14:1 24:1 26:1 41:1 46:1 54:1 77:1 96:1 101:1 
-1 -1 -1 -1 -1 -1 -1 -1 -1 -1 -1 -1 -1 -1 -1 -1 -1 -1 -1 -1 -1 1 1 14:1 17:1 21:1 36:1 41:1 45:1 75:1 78:1 87:1 
-1 -1 -0.51018792153189907 -0.034489124707981683 -1 -0.086468675951978741 -1 -1 -1 -1 -1 -0.26535468098913162 -0.050524328046169728 -1 -1 -0.34864073984891214 -1 -1 -0.16249148867389679 -0.03139335201888175 -1 0.17676455094895258 0.049559199103862452 3:1 12:1 14:1 41:1 46:2 52:1 54:1 55:1 56:1 62:1 77:1 85:1 97:1 101:1 
-1 -1 -1 -0.96551087529201829 -1 -0.91353132404802129 -1 -1 -1 -1 -1 -1 -0.90898059134881337 -1 -1 -1 -0.37229091990645713 -1 -1 -0.96860664798111828 -1 0.57107756696859635 0.77268069358644031 11:1 14:1 25:1 28:1 35:1 41:1 46:1 54:1 59:1 71:1 77:1 95:1 100:1 101:1 
-1 -1 -1 -1 -1 -1 -1 -1 -1 -1 -1 -1 -1 -1 -1 -0.98114694175421702 -1 -1 -1 -1 -1 1 1 14:1 17:1 21:1 36:1 41:1 45:1 77:1 80:1 87:1 
-1 -1 -1 -1 -1 -1 -1 -1 -1 -1 -1 -1 -1 -1 -1 -1 -1 -1 -0.83750851132610316 -1 -1 1 1 14:1 41:1 46:1 53:1 77:1 95:1 
-1 -1 -1 -1 -1 -1 -1 -1 -1 -1 -1 -1 -1 -1 -1 -1 -1 -1 -1 -1 -1 1 1 14:1 21:1 41:1 46:1 77:1 87:1 
-1 -1 -1 -1 -1 -1 -1 -1 -1 -1 -1 -1 -1 -1 -1 -1 -1 -1 -1 -1 -1 1 1 24:1 26:1 41:1 46:1 77:1 87:1 88:1 
-1 -1 -0.48981207846810093 -0 -1 -0 -1 -1 -1 -1 -1 -1 -0.040495080605016921 -1 -1 -1 -1 -1 -1 -0 -1 0.25215788208245105 0.17776010730969724 14:1 24:1 26:1 41:1 46:1 54:1 77:1 96:1 101:1 
-1 -1 -1 -1 -1 -1 -1 -1 -1 -1 -1 -0.74418794961530155 -1 -1 -1 -1 -1 -1 -1 -1 -1 1 1 11:1 14:1 28:1 41:1 46:1 54:1 71:1 77:1 97:1 101:1 
-1 -1 -1 -1 -1 -1 -1 -1 -1 -1 -1 -1 -1 -1 -1 -1 -1 -1 -1 -1 -1 -1 1 4:1 33:1 39:1 45:1 47:1 73:1 92:1 
-1 -1 -1 -1 -1 -1 -1 -1 -1 -1 -1 -1 -1 -1 -1 -1 -1 -1 -1 -1 -1 -1 1 4:1 39:1 53:1 
-1 -1 -1 -1 -1 -1 -1 -1 -1 -1 -1 -1 -1 -1 -1 -1 -1 -1 -1 -1 -1 -1 1 4:1 11:1 13:1 14:1 28:1 39:1 45:1 47:1 70:1 71:1 
-1 -1 -1 -1 -1 -1 -1 -1 -1 -1 -1 -1 -1 -1 -1 -1 -1 -1 -1 -1 -1 -1 1 13:1 14:2 39:1 65:1 
-1 -1 -1 -1 -1 -1 -1 -1 -1 -1 -1 -1 -1 -1 -1 -1 -1 -1 -1 -1 -1 -1 1 13:1 31:1 39:1 52:1 70:1 
-1 -1 -1 -1 -1 -1 -1 -1 -1 -1 -1 -1 -1 -1 -1 -1 -1 -1 -1 -1 -1 -1 1 6:1 16:1 39:1 52:1 92:1 
-1 -1 -1 -1 -1 -1 -1 -1 -1 -1 -1 -1 -1 -1 -1 -1 -1 -1 -1 -1 -1 -1 1 4:1 13:1 14:1 39:1 53:1 70:1 
-1 -1 -1 -1 -1 -1 -1 -1 -1 -1 -1 -1 -1 -1 -1 -1 -1 -1 -1 -1 -1 -1 1 13:1 30:1 39:1 45:1 53:1 70:1 
-1 -1 -1 -1 -1 -1 -1 -1 -1 -1 -1 -1 -1 -1 -1 -1 -1 -1 -1 -1 -1 -1 -1 4:1 33:1 37:1 45:1 47:1 73:1 92:1 
-1 -1 -1 -1 -1 -1 -1 -1 -1 -1 -1 -1 -1 -1 -1 -1 -1 -1 -1 -1 -1 -1 -1 4:1 37:1 53:1 
-1 -1 -1 -1 -1 -1 -1 -1 -1 -1 -1 -1 -1 -1 -1 -1 -1 -1 -1 -1 -1 -1 -1 4:1 11:1 13:1 14:1 28:1 35:1 37:1 45:1 47:1 70:1 71:1 
-1 -1 -1 -1 -1 -1 -1 -1 -1 -1 -1 -1 -1 -1 -1 -1 -1 -1 -1 -1 -1 -1 -1 13:1 14:1 28:1 37:1 45:1 63:1 70:1 
-1 -1 -1 -1 -1 -1 -1 -1 -1 -1 -1 -1 -1 -1 -1 -1 -1 -1 -1 -1 -1 -1 -1 4:1 13:1 14:1 37:1 53:1 70:1 
-1 -1 -1 -1 -1 -1 -1 -1 -1 -1 -1 -1 -1 -1 -1 -1 -1 -1 -1 -1 -1 -1 -1 13:1 14:2 37:1 65:1 
-1 -1 -1 -1 -1 -1 -1 -1 -1 -1 -1 -1 -1 -1 -1 -1 -1 -1 -1 -1 -1 -1 -1 13:1 30:1 37:1 45:1 53:1 70:1 
-1 -1 -1 -1 -1 -1 -1 -1 -1 -1 -1 -1 -1 -1 -1 -1 -1 -1 -1 -1 -1 -1 -1 6:1 16:1 37:1 52:1 92:1 
