svm_type c_svc
kernel_type polynomial
degree 6
gamma 0.0098039215686274508
coef0 4
nr_class 24
total_sv 258
rho -0.12708934385360399 -0.15148929711558148 -0.079605168167681234 -0.0001583697822565682 -0.097758606048822153 -0.010125904751441615 0 -0.075718461332767342 3.5189550623811105e-05 -0.0001583697822565682 -0.15637221406585397 -0.024717545944081171 -0.081903548822964342 -0.079724971258130439 -0.15142279635778652 -0.17635210529674017 -0.067174069655417973 -0.17845028141135119 0.0079313023996244458 -0.084763775730937033 -0.36107805743799098 -0.0030019145933641782 0.0021479791252020631 -0.065167167758111794 0.013909184031405059 0.07524869045108698 0.072562234099065329 0.021078910613230511 0.079362466728319953 -0.00066697842466358125 0.08934618414978393 0.13389666219932175 -0.06760518935288494 0.39320567638177106 -4.4726025753542668e-05 -0.00062269259835982067 -0.065097590708904696 -0.1125357048367087 0.00093022416742551269 -0.07627074169984252 0.2126120942204355 0.00041845633081809405 -0.35777046425950376 0.22303024734124788 0.21261209422043553 0.088250530150445691 0.24963643434787694 0.13449100333673966 0.054465127875797596 0.14470372418063188 0.055542692755885088 0.1420732007685582 0.1836279147981327 -0.00037655818558853042 0.26048686681281596 0.03451063197612031 0.056483669070253775 5.7593279433526227e-05 -0.0072049457691010024 0.056223731797212295 -0.0022001795818792171 0.28046025696416249 0.10755538755778811 -0.0063455522037222352 0.52950480787992271 0.28135826406665193 0.074843417948016605 0.0024004171288058451 -0.40792431396135848 0.11114019740776414 -0.033260717496571238 0.06779340720425471 0.074585585307002683 -0.15897134821547906 0.013162490015980946 -0.064453750906445284 -0.053773108876705722 -0.088234361255705149 -0.12387723656901209 -0.007808939867273045 -0.10097345905793312 0.020937855734001296 -0.015452486251440379 -0.17602801416133859 0.012938122652120345 0.011781293663445512 -0.10318859482394761 -0.017853073684029025 0 -0.078995952691080881 0 0 -0.15070245644184602 -0.040099361920529909 -0.096054641218833212 -0.083264301084647468 -0.14705475010682409 -0.16905919303383582 -0.06977909211385111 -0.16989090128939655 -0.011826298281462774 -0.15603249778088862 -0.22910005000168657 -0.14372043326537262 -0.011580009179585701 -0.098036542463257104 0.090141117916504601 -0.1625269049990179 0.30488792412487886 0.10077643105773502 -0.14014910003967493 0.01064259458818877 -0.11437691429266449 -0.094947668355596607 -0.13361073233340254 -0.1535343365574918 -0.065216122504783591 -0.25023585706472096 0.015062946127682308 -0.075752815548574631 -0.22250464160936417 0.010751063840394018 0.0096325249522787315 0.010623162618170144 -0.027244996017012576 0.011420858977451759 0.018203810496658829 -0.098770587263850657 0.15984410546727648 -0.032391812335007562 -0.053374290980050296 -0.055794647558590718 -0.088605275024999638 -0.0092910419843283253 -0.065288261527684452 0.21381157784221108 -0.020931212497147134 -0.16528734745904458 0.1734035098894495 0.20183042955091382 -0.081972426601555265 -0.00025289754176764656 -5.5037775427215556e-05 -0.14786785573701816 0.0062942242476452274 -0.084106239048653372 -0.085500172437238287 -0.24803654342541287 -0.16649590030743991 -0.12856927761635245 -0.1701519173775633 0.012292194932078481 -0.095569898566554998 -0.21852229244781529 0.0075758444631340779 0.028079094513522081 0.16072859273631912 0.14401107102514732 -0.068102614484094368 0.21211640817712207 0.00084179464587920514 0.00014471098808477176 -0.055555759982035005 -0.095791231033054508 0.0015776877600164859 -0.16586379553405181 0.21978153475410492 0.0012264111910347038 -0.13272450879853187 0.23527823031590886 0.21978153475410492 -9.6802458318050177e-05 -0.14580793683540022 -0.018272584742827436 -0.10089132681495946 -0.0951453415946448 -0.1420932816412814 -0.1646649749511325 -0.080850337334025385 -0.28120413144682355 0.0059188933096020451 -0.0962025357849427 -0.22142939234493231 -0.014793058174271095 0.0073523558394495096 -0.18728326883452359 -0.040353374321098513 -0.29182719274506719 -0.14500697698042009 -0.18472266894865708 -0.33134215989245558 -0.12859820355509097 -0.20866458226338863 -0.034514469763972551 -0.13632457867737979 -0.28081929637290975 -0.040184012146072513 -0.011752914026448682 0.27305590063490365 0.043652807302110373 0.19708266478799941 -0.0001910716755652745 -0.0042533195897811148 0.06467427028373203 -0.002004246025449925 0.28726871718612945 0.059524540486791122 -0.0058958126728640998 0.28155573129487621 0.28808704463986023 -0.24536413474002239 -0.21767450560277107 -0.26091829343120215 -0.28329067045437084 -0.18968615949097001 -0.23883459260048681 9.4017069831105922e-05 -0.20003658622250256 -0.62409291080446427 0 -0.00079513267973506515 -0.00076092653834090634 -0.034403495536496805 -0.20669811880525671 0.00082272462976412468 -0.043139460061129252 0.49226117613833864 0.00046447320922154338 -0.099826621307566366 0.25151144182221441 0.24867982720254833 -0.05621619416042252 -0.097737278001359937 0.0015538548251098059 -0.060791641929901219 0.22733830698944812 0.0012641342997886818 -0.13307126346031811 0.24047109337726297 0.22733830698944812 -0.0043538967174864161 0.15095049439058936 -0.001846159410422688 0.28182431359049698 0.042334627067265991 -0.0061744183699668576 0.27623732523302991 0.5508718232599078 0.097174990390750518 0.0028008230740206369 0.588576187334792 0.085954868072250806 -0.00117603052494629 0.29973487972667329 0.30611175931124707 -0.069086620427127293 0.19885113489697687 -0.00035973522791963713 -0.12522258395523467 0.21233168495476823 0.39972197225579098 0.26454471710758287 0.05192732572154405 -0.0043085701418788197 0.24377964683983722 0.26454471710758287 -0.20797791425418469 -0.37684001353414737 -0.00019099376097306679 -0.00087913228599681426 -0.10323674966718671 0.42521842699262646 0.20838036614747077 0.37147812998120938 0.37753021525779817 -0.00064088356946615107
label 10 16 20 1 8 3 7 6 15 9 11 19 4 17 13 18 23 12 21 5 14 22 2 0
nr_sv 11 14 9 8 11 8 11 11 14 11 11 9 8 16 15 9 9 15 8 8 16 10 8 8
SV
0.00026895294102016807 0 0.0022160514497027804 0 0.00079395754127193144 0.0027061713531339408 0 0.0002203486204557507 6.3405854825874454e-05 0 0 0 0 0.00024000270113673383 0 0 0.00017905694855422874 0 0.00071935226480986233 0.0007806445790792387 0 0.00016464745802547822 0.0010438780822766315 28:1 41:1 45:1 70:1 92:1 
0.0020706478862562508 0.00037245656360670971 0 0 0 0.0017917791946686959 0 0.00099854705727328965 0 0 0.0004578664958763238 0 0.00066802446180421133 0.00099683328369514347 0.00036639238415699137 0.0006061675000273069 0.00095465099293781067 0.00036066820781580723 0 0.00080795327568904097 0.00063033479265730424 0 0 14:1 35:1 41:1 70:1 91:1 92:1 
0.00021692308155541712 0.0005264471023031116 0.00043396484603917259 0 2.0582273783811852e-05 8.0822837787087595e-05 0 8.6107478263542208e-05 0 0 0.00054889188338582838 0 1.2703191453656848e-05 7.2947149634355597e-05 0.00052515415386023229 0.00060114698263287296 2.9708732270668972e-05 0.00050237801996904947 0.00022521770121817171 0 0.00052821198808370308 0 0.0002258119189183388 14:1 41:1 45:1 63:1 70:1 82:1 92:1 93:1 
0.00027164323795958608 0.00034993504771483296 0.00090874040999398787 0 0.0011574739226128646 0.00040193594020020693 0 6.8195848659108462e-05 0 0 0.00035574995639992284 0.0018147272810085159 1.6589804501095268e-05 8.2044359437923343e-05 0.00034950423451212515 0.00041051983372332337 0.00017855665498655687 0.00031780660038517654 0.00051187966668708338 8.8555878744388502e-05 0.00038451284743796436 0.0007711698952831028 0.00079142171418275129 14:1 29:1 30:1 33:1 41:1 43:1 45:1 72:1 73:1 82:1 92:1 
0.00046303021851600424 0.00083311278615929706 0.00087536116473723564 0 0.00099964553884867051 0.0063851362092535871 0 0.0003150191599879685 0 0 0.0008310447822368703 0.0045601828673259544 0.00054155327316173082 0.00029868664366428197 0.00084127365017920672 0.00086671738483566933 0.00034489070827297519 0 0.0012952139046528083 0.00039737012035447679 0.0017861929564170519 0.0016417523961669766 0.0015703925564064958 5:1 41:1 53:1 92:1 
0.0061940094479461336 0.0031522267861270169 0.0029671608108256141 0.016204252118997495 0.0041040333513168046 0.00020781000222254358 0.015901233868745659 0.003327080650517537 0.016068134953163081 0.016204252118997495 0.0031019567008672027 0.016207414068146766 0.003631354351171256 0.0033466388112485396 0.003145782070351219 0.0026324846099786432 0.0036307088760819148 0.0038424583577285998 0.0044573983370108259 0.0033092700218090307 0.0040156274168850177 0.0047397477559627281 0.0041170794763321084 41:1 92:1 
0.0015707104636542765 0.00080743779817943177 0.00028822302831598188 0 0.00042369487039838261 1.5565538547290182e-05 0 0.00078513609383355516 3.2748089157393801e-05 0 0.00071252501221028984 0.00085608351133085949 0.00047430773542241306 0.00078647692678676271 0.00081224971717391641 0.00086010630803090647 0.00079400202943301368 0.00083616938071744715 0.00044011359311075409 0.00059270688429293665 0.00094068537917264784 0.00034081227299852408 0.00038599725087480851 14:1 28:1 41:1 45:1 60:1 66:1 70:1 92:1 
0.00026358513119799576 0 0.00036559248018278452 1.5284776634476305e-09 0.00029633116588698665 0.0023176999777528473 0.00013525246229516985 0.00014524263361007491 0.00013011176447705124 1.5284776634476305e-09 0 0.0019508786915557598 0.0001544591172850691 8.4060803484206162e-05 0 0 0 0 0.00054577391288997048 0.00014066664814848544 0 0.00042983697024219687 0.00032833187949701304 7:1 41:1 43:1 52:1 72:1 90:1 92:1 
0.0018166874302801984 0.00076309157037415126 0 0 0 0 0 0.00099834174828954082 0 0 0.00077141785145189178 0 0.0010426685445379953 0.00097712339096981847 0.00076294264527799658 0.00075489166038209443 0.00095936137127809035 0.00081499300174259757 0 0.00085146652325435754 0.001450366231389561 0 0 9:1 14:1 29:1 34:1 41:1 44:1 46:2 52:1 56:1 74:2 87:2 92:1 
0 0 0.0008725951864746223 8.7628911239554267e-05 0.00088447839629482916 0 9.2951636284306844e-05 0 3.8975956460821489e-07 8.7628911239554267e-05 0 0.0031404097182572734 0 0 0 0 0 0 0.00088255914356006845 0 0 0.00085128320768585179 0.00075525408334071076 29:1 33:1 41:1 45:1 56:1 57:1 73:1 82:1 92:1 
0.0010872143233728324 0.00015077447340086352 0.0021802229193325163 8.0622986238509942e-10 0.0023626775942176058 0.002230765036953403 0.00016212052192183336 0.00063340285310623185 0 8.0622986238509942e-10 0.00013697999721433687 0.0082815462598353311 0.00098353127152338619 0.0006582742845634618 0.00015222398443844433 1.8203456230083096e-05 0.00057585788257522941 5.9481165589003984e-05 0.0023070247974091409 0.0005323871198549498 0.00067202465662769418 0.0024215652868103035 0.0021862056796068752 4:1 41:1 46:1 47:1 70:1 92:1 
-0.0012788427059319469 0 0 0.0006650931999437553 0 9.2223028815165871e-05 0.0007923720341473365 0.0024399760886229414 0.0008774969217201998 0.00033646714110733845 0 0 0.0026165312433293671 0.0025343574364553967 0 0 0.0028185302574399492 0 0 0.0029946543849333446 0 6.0139163812793477e-05 0 23:1 41:1 46:1 68:1 87:1 89:1 
-0.00012156411666570789 0 0 1.2319242062221846e-05 0 0.0002280493494678635 4.1528485220828658e-05 0.00040444006440100297 0.00018004846587155052 0.00023873308703377597 0 0 0.00067836749631628183 0.0018501578857002012 0 0 2.6648031193058434e-05 0 0 0.0018124403243461077 0 0 0 21:1 24:1 36:1 41:1 46:1 69:1 87:1 90:1 
-0 0 0.00041901982741994644 0 0.00011757651548087373 0 0 0.0015858661734447915 0.00015243260043870481 2.9578975074364848e-05 0 0.00057858704721384967 0.0010369834230635959 0.0015227496890175181 0 0 0.00078555630754182303 0 0.00037001661145586248 0.00095619484418600761 0 0.00018861086714883006 0.00037001661145586248 11:1 28:2 41:1 46:1 69:1 71:1 88:1 
-0.0025834118279957747 0.001136897809182412 0.0021879229777261948 0.0015944563634801804 0.0020324203802407179 0.0017612519366242382 0.0011605469283377436 0.0028704898187160558 0.0014523364831551596 0.0019285844747735619 0.001133181083431428 0.0033595163090837511 3.0403677274046192e-05 0.0026948497040467181 0.0011374712890316377 0.0011856870879113663 0.0021855597110016765 0.0011659294023869692 0.0020055437849590338 0.0024311510376236406 0.001792171691840428 0.0014314686630285663 0.0020055437849590338 14:1 20:1 28:1 35:1 41:1 45:1 68:1 
-0.00094098460132278536 0.00039383074941722274 0.00044211402002971597 0.00049200756813568718 0.000660006550060856 0.00063422679109664901 0.00058702538773192949 0.0018795613023733465 0.00040339118148428589 0.00060956028834731541 0.00039705346559294025 0.0019520713107467585 0.0024724946640288471 0.001804590550118989 0.00039311967783925477 0.00047768857217932962 0.0016741483035857263 0.00033381972932629853 0.00085735307826302154 0.0017892112541752297 0.0011377652684437861 0.00094043139286007665 0.00085735307826302154 14:1 17:1 35:1 41:1 53:1 58:1 67:1 68:1 81:1 85:1 
-0.0015132496102014572 0 0.00058969457428650017 0.00076626014418893071 0.00029708247097197019 0.00076444046804356844 0.00072937241525346795 0.0020692517447374217 0.00069177788456022799 0.00064576839716236453 0 0.00053554757102095452 0.0012660652500436809 1.6474239551984916e-05 0 0 1.1911617964244671e-05 0 0.00032268647477972344 1.750698837850389e-05 0 0.0003025094862781793 0.00032268647477972344 19:1 24:1 36:1 41:1 46:1 69:1 87:1 90:1 
-0.00085697982434800382 0.0030524774085745896 0.00016748778150975415 0.00056545252762921271 0.00077959771514914144 0 0.00054869062234801829 2.2159417925812971e-05 0.0004050245681474814 0.00012049092776650465 0.0030490100347219302 0.0017338685944710093 6.3831048854360721e-05 1.371989935429351e-05 0.0030493641827466444 0.0035953056944789223 0.0012665325767437995 0.0030796082735960752 0.00081515767053940336 0.00075454110697999687 0.0084437827750792442 0.00088234027693565595 0.00081515767053940336 14:1 21:1 36:1 41:1 46:1 69:1 87:1 
-0.0010779328917615461 0.00026479126089396236 0.00061947267871895325 0.00060063514606255948 0.00068191626151172012 0.00049780864835469001 0.00056941964173345125 2.326736112630975e-05 0.00063356606164125179 0.00063704453863762747 0.00024896985301850683 0.0015231004781996699 0.0019276463529419162 2.3134695023924859e-05 0.0002649448760308056 0.00023203931830714593 0.0018261899808290729 0.00028453970219217457 0.0007421679370929312 0.001943938425437814 0.00024409850286158228 0.00076564420163344172 0.0007421679370929312 10:1 11:1 18:1 27:1 28:1 29:1 32:1 41:1 48:1 49:1 50:1 51:1 71:1 86:1 
-0.0028686510985356166 0.0028168225482542485 0.00078477768185841149 0.00151310575814711 0.0011830669741373387 0.0010999791508829037 0.0015709370620790495 0.0022805190865287212 0.0014313426647023155 0.0011346350829893449 0.0028247269242647802 0.0024194226537568235 0.002431593953352205 0.0026818220273463638 0.0028183097097325819 0.0021713483951542288 0.0023668148119285418 0.0028251783800612605 0.0011953490814859047 3.3758247747916181e-05 0.0073505120122930954 0.0012712796821686455 0.0011953490814859047 14:1 41:1 46:1 51:1 87:1 88:1 
-0.00058321851602006125 0 0.00051215419099261898 0.00020754025219810074 8.4148966299094446e-05 0.00057161793348007672 0.00016266855485256259 2.6485709383048228e-06 0.00011593054978638585 0.00030099413970701788 0 0 9.5194009344967234e-05 2.919294251135391e-05 0 0 6.2489661956285536e-06 0 0 3.5158382271699294e-06 9.7141555331035616e-05 0 0 11:1 21:1 28:1 41:1 46:1 68:1 70:1 71:1 84:1 
-0 0.00016395254368642258 0 0 0.00030269820807797635 7.5600024695744142e-05 2.1031695399824225e-06 0 0 0 0.00015299214971921458 0.0018292952245167972 0 0 0.00016447088486825644 0.0005986909949755487 0 0 0.00085396763773167017 6.5514643483304032e-05 0 0.0010649700222722606 0.00085396763773167017 1:1 14:1 24:1 41:1 46:1 53:1 68:1 
-0.0021205371131803289 8.2686117350758967e-05 0.0014962750786195963 0.0010180987788715736 0.001392490041298303 0.0011748815577925609 0.0010705121833835673 0.0012632125262240325 0.00089299838400574484 0.00087637784718870636 7.3592490164851182e-05 0.0020423678777738864 0.0014533182878868304 0.0010315547260315869 8.4026861225032002e-05 0.00027313425479519532 0.00093136785694070004 4.7167752266164323e-05 0.0010863336024617897 0.0013865057035905121 2.5512592728299733e-05 0.0010397778836901733 0.0010863336024617897 8:1 14:1 41:1 46:1 52:1 61:1 68:1 70:1 
-0 0.0021828535817044019 0 0 0 0 0 0.0012063601617665375 0 0 0.0022145517518517514 0 0.00029636480286328239 7.9287303704982754e-05 0.0021812739846254542 0.0012253988650249474 1.2151427361893718e-05 0.0023359302436193915 0 0.00037915594973240968 0.0064285747433162049 0 0 21:1 24:1 41:1 46:1 68:1 87:1 
-0.00027803185579563464 0 0 0.0001511690280114159 0 5.8620807031302277e-05 0.00031570503818148965 2.2937319676508803e-05 0.00023433168591982824 0.00024622025916061073 0 0 0.0017207561754248326 0.0017967240949370899 0 0 0.0021834088310887841 0 0 0.0015243471353053406 0 1.306681615137613e-05 0 2:1 24:1 36:1 41:1 46:1 54:1 68:1 101:1 
-0.0013572894283636254 -0.0019259510373262317 0.00079041517385685159 0.002232663140348284 0.0004175120558825522 0.00076290928585307036 0.0012511191940337489 0.0018800893850669414 0.0012749118484640576 0.0010377474514665238 0.0041394541412103055 0.00061540829961045321 0.0020308490815167872 0.0018985590981152433 0.0041308079813583308 8.6343983294384267e-05 0.0017877696265639826 0.0045031084100911178 0.00064611515986765249 0.003027488132848569 0.0042090071355885125 0.0011920480166027587 0.00064843365785177362 24:1 26:1 39:1 46:1 77:1 87:1 88:1 
-0 -0.0002819370688932365 0 0 0 0 0 0.00037510045441294955 0 0 0.00023531706867595701 0 0.00019140158777485503 0.00038689497039844203 0 3.9166265708205517e-06 0.00038394179958347447 0.00021433018835276561 0 0.0010940709053407652 0 0 0 11:1 14:1 25:1 28:1 35:1 39:1 46:1 54:1 59:1 71:1 77:1 95:1 100:1 101:1 
-0.0011564434487345635 -0.0018044407826004422 0.0012215261573854076 0.0021006930255953347 0.0014076237216276476 0.0011369740795017847 0.0011823205984843521 0.0019054422072677739 0.0012513853236153277 0.0012309968042670909 0.0024116599838827518 0.0013138382366015347 0.0017448775485245929 0.001915024995977113 0.0023799807245644166 0.0024015155504174121 0.001953562698905053 0.0021666238775291599 0.0013969044150383245 0.0054523314626672512 0.004143525559243931 0.0026103346826423989 0.0013995566381114239 14:1 17:1 21:1 36:1 39:1 45:1 75:1 78:1 87:1 
-0.0017156853651006296 -0.00046697868242170237 0.0019647593436911727 0.0025338265764526615 0.0022948338078139846 0.0020731130463130724 0.0016737170529373324 0.00027135575024683214 0.0016711591538725739 0.0014480460334708749 0.0037905239942655129 0.0029026798672900744 0.00044568934139060863 0.0002706683918421431 0.0037378826387064472 0.0043399891441505819 0.00056536526045871901 4.860758691330986e-05 0.0028522258383541837 0.00091026417126274968 0.005241112026580343 0.0058501525119167581 0.0028737235610615023 14:1 39:1 46:1 53:1 77:1 95:1 
-0.0018491394102473665 -0.001222296380858433 0.0020447440331974203 0.0034225159062861265 0.0022717839968238204 0.0019083990657070423 0.0018644497049367418 0.0011122351625481644 0.0019342683539639938 0.0021173183699279715 0.0046528966467706337 0.0021432837115090983 0.00087783264316872395 0.0011139050114303145 0.0046458460321089036 0.0047953203389545142 0.0011949789305844701 0.0052797020121082968 0.002275022998786617 0.0026978999002527475 5.4168831360856473e-05 0.0042493579869772617 0.0022798258467057369 14:1 27:1 39:1 45:1 76:1 94:1 102:1 
-0 -0.00040117399450163323 0 0 0.00014496999956337955 0 0 0.00026303260543599779 0 0 0 0 0.00029135894274582045 0.00025805132104345406 0 0.0010835685204379415 0.00012307598317614599 0 0 0.00025954049132367218 0 0 0 14:1 24:1 39:1 46:1 77:1 87:1 97:1 
-5.9698347217280139e-05 -0 0 0.00024397999995052838 0.00046907594409583141 0.0002677146198730902 0.00032228581773146773 0 0.00021450347693886465 0.00037063162255728693 0.00078059208592605965 0.00026432283031202334 0 0 3.6747667036846292e-06 0.0002198705957524095 0 0.00089945009042868883 0.00023913120739863921 0 0.00095241245861838885 0.00061005875605587689 0.00023964577342107098 14:1 26:1 39:1 46:1 54:1 77:1 96:1 101:1 
-0.00053584556993826137 -0.00011280282777825003 0.0005733083830742542 0.0009408451276020762 0.00031546164783987225 0.00038683396999524504 0.00045460409475053234 0.00042518746015690606 0.00049156487612420693 0.0004904075954851267 1.8942557996530528e-05 0.00054217269366811356 0.00045828389317362927 0.0004748668970290326 0.0011395174202072696 0.0012838840791378234 0.00082690541766429959 0.0013629299914042767 0.00056409501354723302 0.0019059137147495961 0.0013319805227166221 0.00065640469293225191 0.0005375853312429128 11:1 14:1 28:1 39:1 46:1 54:1 71:1 77:1 97:1 101:1 
-0.00028138055826368812 -0.0038787312446840888 0 0.00075528911678157608 0 0 0.00026649587221572266 0.0040670654537316563 0.0001996606958550934 0 0 0 0.0041003063334851637 0.0039812434683464022 0 0.00175379019001806 0.003438879245916304 0.0015283225703118248 0 0.0096905565071393647 0 0 0 14:1 21:1 39:1 46:1 77:1 87:1 
-0 -0.001168057531878983 -0 0 0 0 0 0.00094291238153768465 0 0 0 0 0.00057242546294403824 0.0019350679745795576 0 0 0.0011523771422906508 0.00019299541985692099 0 0.0011809196484514829 0 0 0 4:1 11:1 13:1 14:1 28:1 35:1 38:1 45:1 47:1 70:1 71:1 
-0.0037749923446705586 -0.00038766445861752771 -0.00095834235458285033 0.0046136124396218437 0.0028462079917584244 0.016640938372347848 0.0052554879036214915 0.00046173479768801183 0.0045049488818665155 0.0046098229694909575 0.0015929845587903321 0.0032397387690097832 0.00028476711071631449 0.0007086459699237207 0.00095947409795133463 0.00090048798222794259 0.00040702528769824293 0.0009804695138945893 0.0033584842390566036 0.00040826764920280195 0.00067875705583334489 0.0028625208390681074 0.0024755494002499049 4:1 33:1 38:1 45:1 47:1 73:1 92:1 
-0.0013313771517798356 -0 -0.00045501708803851858 0.00066227152010302996 0.0021928601352127538 0.0018506028783614385 0.00012050629847228844 0 0.00067403217953553246 0.00066042280817124122 0.00087188181131776484 2.9956492241578149e-05 0 0 0.00045505507151849127 0.00032127491983979236 1.0247026000319878e-05 0.00028676731736289681 4.1213220794335926e-05 8.2786386128922269e-05 0.0003255610010399711 0.0021063360995605394 0.0025081011326691213 13:1 30:1 38:1 45:1 53:1 70:1 
-0.00046713352018261319 -0.00080037849041548212 -0.0016690305150722845 0.00017129819513498411 0.0024110663053734109 0.0043665459436246822 0.0020283123508392674 0.00082623117252118264 0.00037194866332667677 0.00017820015191505754 0.0028878794386653106 0.0034033263381254278 0.0016449525028158379 0.0013779797484946008 0.001666684533870346 0.0018231628772311568 0.00074575606658130956 0.0008713171831411325 0.00024057575478245304 0.00058354918890664135 0.0019250058779420683 0.0024873041084484799 0.002752054774933069 4:1 13:1 14:1 38:1 53:1 70:1 
-0.0017864790011081558 -0.0020209769991411499 -0.0016976354487952922 0.0028414848951751402 3.7477624663005113e-05 0.0076553396880528566 0.00068962283326517331 0.0020983816059963055 0.0027399436160577668 0.0028389969003612403 0.002587429799306715 1.6022075936111576e-05 0.0011195083838831414 0.0037467599229712629 0.0016997373888452594 0.0017450160105805445 0.0020294738143710445 0.0019498743069048111 0.0027211798425342917 0.001984310232888429 0.0012123422107683925 1.5945447240369519e-05 0.0017294045700910125 13:1 14:1 28:1 38:1 45:1 63:1 70:1 
-0.00035201360538321782 -0.00050507344947870337 -0 0 0.0032000826572910969 0 0.0002535568324773054 0.00045973592032033341 0 0 0 0.0040092354295294154 0.00089092298124022204 0.00078045481779429602 0 0 0.00052279196448630732 0 0.0043871731142647282 0.00058378316640626902 0 0.0032224365712070226 2.8793348037095017e-05 13:1 31:1 38:1 52:1 70:1 
-0 -0 -0 0 0 0 0 0 0 0 0 0 0 0 0 0 0 0.00013116991924016865 0 0 0 0 0 4:1 11:1 13:1 14:1 28:1 38:1 45:1 47:1 70:1 71:1 
-0.0033959166724803142 -0.0023367678816298455 -0.0018147276847161609 0.0031663953334909664 0.0054708706616508531 0.0076513437291268168 0.0030940526273114353 0.0023134096934892645 0.0031684651459883443 0.0031680196408642235 0.0029738754724815959 0.0054466729438556877 0.0022747149745068647 0.0040699808783707138 0.0018147068616697654 0.0017081923314169413 0.0023733263562455789 0.0018404452624386197 0.0053912381311648824 0.0023832161509485033 0.001711145764969908 0.0054623807693735052 0.0066519738045051711 6:1 16:1 38:1 52:1 92:1 
-0 -5.2841359298416328e-05 -0.00025014715188472842 -0.0025163432462805449 0.0027939458623481468 0.00019733434501469115 0 0 0 0 0.00014481077295954096 0.0027665967021645406 0 0 0.00013818888506904941 0.00017928808162907475 3.7141632423609327e-05 0.00012210260389889963 0.002650170654763234 3.063353373369458e-05 4.0555028932744533e-05 0.0098540719317743407 0.0026459461600743753 4:1 14:1 29:1 33:1 39:1 43:1 45:1 47:1 72:1 73:1 92:1 
-0 -0.00010569100937093108 -0.00095226105706008618 -0.00085394292091811868 0.0003529550239511417 0.00023408970924394592 0 5.3420715829803893e-05 0 0 0.00055691540486429015 0.00022321692500219424 5.8017028989470252e-05 5.0133347361994009e-05 0.00053029719709381934 0.00059708224479328306 4.6575855544265953e-05 0.0005041432071947456 0.00065626662919088382 0 0.00033537695319742282 0.00085446139609884767 0.0006572837402720529 14:1 39:1 45:1 63:1 70:1 82:1 92:1 93:1 
-8.7628911239554267e-05 -0 -0 -0.00027800026246464993 0.00037397672356715952 0 0 0 0 0 0 0.00014078131505557883 0 0 0 0 0 0 7.4973702158113827e-05 0 0 0.00069993551216614549 7.8264385082286664e-05 29:1 33:1 39:1 45:1 56:1 57:1 73:1 82:1 92:1 
-0 -0 -0 -0 0 0.0043005517544882918 0 0 0 0 0 0 0.00010743915875036416 0 0 0 0 0 0 0.00012420732613134853 0 0 0 7:1 39:1 43:1 52:1 72:1 90:1 92:1 
-0 -0.00076230266640415839 -0.001250243205408835 -0 0.00019163882182734538 0 0 0.00069080374674683671 0 0 0.00061258410362641474 0.00019172637828264753 0.00049194485343625062 0.00070209115504578693 0.00071731626350625291 0.00072491477487079687 0.00072544552696003867 0.00072579871328143451 0.00014996143845084683 0.0010223789649008263 0.00051555705928834814 0.00057751383260120997 0.00014265310271278117 14:1 28:1 39:1 45:1 60:1 66:1 70:1 92:1 
-0 -0.00032379477271931033 -0 -0.0032688438408231134 0.00086466091846615085 0.0061961792364721756 0 0.00051633661306392563 0 0 0 0.00022978107811293412 1.2775638615779865e-05 0.00051835504264327375 0 0 0.00042243851609504113 0 0.0016365192536552968 0.0019251887502772869 0 0.0015419123188423296 0.0016626274842549465 28:1 39:1 45:1 70:1 92:1 
-0 -6.2178926713684072e-06 -0 -0 0 0.00013814330238958328 0 0 0 0 0 0 0 0 0 0 1.7907820507613807e-05 0 0 3.1607312911490519e-05 0 0 0 14:1 29:1 30:1 33:1 39:1 43:1 45:1 72:1 73:1 82:1 92:1 
-0 -0.00034519217052869384 -0.0012852046539722506 -0 0 0.00047353460121766052 0 0.00035868036405632312 0 0 0.00074257653837270048 0 5.1299092841587728e-05 0.00035280007023088069 0.00072039675408541465 0.00081780585657136788 0.00032292184087281045 0.00070238007016580227 0 0.00033844222228988322 0.0005387810042201983 0 0 14:1 22:1 39:1 43:1 45:1 72:1 83:1 92:1 
-0 -0.0011930885025576629 -0.00062349874537122991 -0 9.8731781488492612e-05 0.0039149650750048065 0 0.0011322873108959028 0 0 0.00044263105440267147 4.0537099842469519e-05 0.00082384400008177856 0.0011260326817272264 0.00033829085360636966 0.00054622709398900651 0.0010857023309922696 0.00033274798528604149 0 0.0017333039183430067 0.0004051102825015061 5.7181759156969066e-05 0 14:1 35:1 39:1 70:1 91:1 92:1 
-0 -0.00098881386307303433 -0.0013685670364880053 -0 1.1350852689210349e-05 1.100631000113707e-05 0 0.001024723906301737 0 0 0.00078498647127321977 3.2850022734479567e-05 0.0011019854802540457 0.0010061663569545915 0.00077609758606208461 0.00076088099731369259 0.00098640564686750735 0.00081244646963216072 2.1460718752834947e-05 0.0016360640753610529 0.00091209312670252607 5.1710088824300011e-05 2.10931450502431e-05 9:1 14:1 29:1 34:1 39:1 44:1 46:2 52:1 56:1 74:2 87:2 92:1 
-0.016204254453705019 -0.0038081957721071728 -0.0064998910428314518 -0.0045379321130395367 0.0066863122695089436 0.00054215816408233869 0.016299610399442704 0.0037783503913747843 0.016299610399442704 0.016299610399442704 0.0036785550940816474 0.0079291716434301586 0.0047616045246325154 0.003764579322702662 0.0037752865315513907 0.0031875434066441339 0.00398122794512548 0.0036072074071716838 0.0065256969518382975 0.0069153971442961915 0.0035743028564601499 0.026532199755746444 0.0065073196047342107 39:1 92:1 
-0.0039886032211453107 -0.00053823096261838919 -0.0011790496780210615 -0.0028484284295318706 -0.0049574260766365175 0.0048704304463297226 0.0053393252382267029 0.00097938263743075336 0.016516690915026905 0.0049548475350730259 0.0011773516283614461 0.0032421195618766562 0.00042135036520711343 0.00053421564132686292 0.0011468796269084799 0.0011428690041117651 0.00054960497014600669 0.0018657044035158934 0.0034174581807017573 0.00045010070245714686 0.00083239639686035448 0.0027625965428863218 0.0027264792226674196 4:1 33:1 40:1 45:1 47:1 73:1 92:1 
-0 -0 -2.5404975655910838e-05 -0 -0 4.8789511932193526e-05 0 0 0 0 0 0 0 0 0.00012149977386763749 4.7252574449538543e-05 0 0.00064393406993005456 0 0 0 0 0 4:1 11:1 13:1 14:1 28:1 40:1 45:1 47:1 70:1 71:1 
-0.0016732734792196801 -0.00090132973207726434 -0.0015595750295190152 -0.0022124547495552447 -0.0010359804480979992 0.00090094633798310669 0.00059530987674068757 0.0016529162456939872 0.0038048673583563845 0.0010793597686600876 0.0015418498702410236 4.4809624273929057e-05 0.00056891218164324025 0.00091479899825600204 0.0015750106123023412 0.0014992489559622064 0.00092102262636724547 0.0018119260829823403 7.4349007127669903e-05 0.00092228969950966999 0.0011461270831042234 0.0025005367007670154 0.0036098452606860292 13:1 30:1 40:1 45:1 53:1 70:1 
-0 -0.0011464820494974353 -0 -0 -0 0.00031659940326043669 0 0.0020636380814209061 0 0 0 0 0.00044740674806253842 0.001109560170297217 7.5537471134860812e-11 3.9518877058985656e-11 0.0011371326522822865 0.00027669464268956874 0 0.001309158659845485 0 0 0 4:1 11:1 13:1 14:1 28:1 35:1 40:1 45:1 47:1 70:1 71:1 
-0.0033506552402710289 -0.0019722857899774197 -0.0013994802493056777 -0.0054606597263446889 -0.0031356926094590482 0.002413844293379369 0.0029788454142538143 0.0035407686298452473 0.010552031529011671 0.0031275749047819041 0.0013806618779258887 0.0048708139912318899 0.0019625598929204602 0.0019261914570972254 0.0014117779389878186 0.0013415977258977494 0.0019958792252488156 0.002541162398672814 0.0046895817716426924 0.0020379295726942739 0.0013528915508340372 0.0048788454754741502 0.0058263871592789231 6:1 16:1 40:1 52:1 92:1 
-0.0010935843386420828 -0.0024961012165734403 -0.0029767802788694094 -5.1238445869684414e-05 -0.0019903386971960057 0.00051659566622104145 0.0014033534929553868 0.0044824986582609845 0.0065583150605005068 0.0019898198393044587 0.0029974366255417335 0.0029413450409649863 0.0020396535825923804 0.0024783802435208698 0.0029154060013744927 0.0030348100670650031 0.0024583863462944726 0.0047560760459569515 0.0034857887642605325 0.0022001374917361223 0.0024156986738557082 0.0030993470420363676 0.0034337269445793256 13:1 14:2 40:1 65:1 
-0.00055063814992601377 -0.00047657433248404275 -0 -0.0032029609579767235 -0.00025413442245702199 0 0.0002917766606554952 0.00081249955872498192 0.0002450852002665228 0.00024142465497805593 0 0.003782247709491972 0.00074579933525379706 0.00042049778933058259 0 0 0.00048649615451627683 0 0.0043658644226688414 0.00051331171221702409 0 0.0028607863298304027 3.0664610232849525e-05 13:1 31:1 40:1 52:1 70:1 
-0.0003861202254277722 -0 -0.00018097096227601334 -0.0023828230666713334 -0 0.0020170743604515048 0.00098893413196205968 0 0.00071863620007414067 0 0.00021104414954866869 0.0012977119016186897 0.00091971113073568359 0 0.00013460677922956068 0.0002170075212194507 0 0 0.00014239105849816168 0 0.00065901777792048651 9.3178131438573954e-05 0.00054907768361764483 4:1 13:1 14:1 40:1 53:1 70:1 
-0.00040292153661461287 -0.00022014545977655229 -0.00030739073611246682 -0 -0.00019787782976543375 -0 0.00027353063741975383 0.00017661328206079082 3.8329062596174614e-05 0.00010333323801760456 0.00051460628983766865 0 0.00016400579524980869 0.00030227226050879923 0.00030674907448238704 0.00031037727024398802 0.00027074853220497005 0.00031225142599468337 0 0.00022897826959507997 0.00025742245549279094 0 0 14:1 29:1 30:1 33:1 38:1 43:1 45:1 72:1 73:1 82:1 92:1 
-0.0064666839153006634 -0.0013863682482774947 -0.0021960838437537888 -0.007507726312947772 -0.00028638282354645207 -0.0029169353604152261 0.0068837621002710379 0.0015118255685184433 0.0075714583808676045 0.00029226551403584031 0.0036350567459594307 0.0032810838906001832 0.0019348774121380518 0.0024558788763907749 0.0022208854880807682 0.0020964232262486288 0.0016116653488291873 0.0014749963778874933 0.0027546285674577902 0.0015820391125168668 0.0021566224236163295 0.003420911812411072 0.002845871866784238 5:1 38:1 53:1 92:1 
-0.0027504232228836604 -0.00084190881772747703 -0 -0.010831992903194072 -0.0062386822112650547 -0.0018695694283955748 7.4283840630614089e-05 0.00066871383516291065 0.0037556175843392516 0.0058612975815342857 0 0.0015194936701397989 4.2406444089030645e-05 0.0012694335365829271 0 0 0.00081913285273984085 0.00046876605785431099 0.0032595944694615775 0.0011139359588787333 0 0.0019189501127031016 0.0032325936040738866 28:1 38:1 45:1 70:1 92:1 
-7.7837932281493209e-05 -6.7140127964152293e-05 -0.00047790522978956903 -0.0031492617278172383 -0.00021682491989846156 -0.00033390415049825697 2.2332734165969515e-06 5.7967543661766501e-05 0.0006208373822884876 0.00030501896064639614 0.00082670221579988915 0.0002030113316199787 8.8823379400836648e-05 0.00010777944490845799 0.00047585564446009577 0.00051285708778525164 0 0.00037737471550195579 0.0008659466612018741 0 0.00024889632333452313 0.00025162406485518653 0.00082841787437495354 14:1 38:1 45:1 63:1 70:1 82:1 92:1 93:1 
-1.2894697854528696e-05 -0.00036466693610240917 -0.0010157702676760702 -0 -0.00050368908922460316 -0 0.00062008082455598411 0.00047477622188143439 0.00032031614978956407 0.00049313083162874486 0.0017055954346103246 0 0.00020652557291873485 0.00082376989250875475 0.0010107253808938753 0.0010387214095828308 0.00045689843995796293 0.00097892737635946344 0 0.0003139488872133948 0.00077964090669143185 0 0 14:1 22:1 38:1 43:1 45:1 72:1 83:1 92:1 
-0 -0.00075797121987329966 -0.00032105706883591844 -0 -0 -0 0 0.00079310720778067833 0 0 0.00030454674244154948 0 0.00062126422120302655 0.0013920097097932726 0.00043796131983932576 0.00027893007490257811 0.00075125712291041998 0 0 0.00065121190553914363 0.00012085862355788336 0 0 14:1 28:1 38:1 45:1 60:1 66:1 70:1 92:1 
-0.0018160031636544043 -0.0016243666463020168 -0.00074712648711175781 -5.8622554655240833e-05 -0.0039470065749632362 -0.00034867525810053536 0.0022324526643802936 0.0015649659020108813 5.0940726909542687e-05 0.0038534174191829961 0.0012905893326160577 0.00032626923273164582 0.0012660740030447199 0.0027718295711957825 0.00073227440497847381 0.00080184238558783302 0.0015545899689494106 0.00076921550306559088 0 0.0014293211549603225 0.00069615120427344082 8.0192288611751869e-05 0 14:1 35:1 38:1 70:1 91:1 92:1 
-0.0022552400355402105 -0.0011043925379597204 -0.00090234706578333674 -0.0066458682977863929 -0.00013319273313704987 -0.0024841065374478027 0.0026113625463158492 0.0011338816408979521 8.6580961041735709e-05 0.00013299278779528895 0.0014563140415906478 0.0027382225074174087 0.0017270128039890223 0.0020305617135223061 0.00090495366551338605 0.00071229562558965543 0.0011224179244745068 0.00079585045758045093 0.0018833783031127274 0.0010280156267847482 0.0010945695361855899 0.0025144793031063677 0.0019067509229881488 4:1 38:1 46:1 47:1 70:1 92:1 
-0 -0 -0 -0.0093145514195065327 -0.00012719997542968287 -0.0027959595641325495 0 0 7.6394885164901203e-05 6.3497536155636468e-05 0 0.0027594468608248359 0 0 0 0 0 0 0.002527668153227196 0 0 0.0026455157225043708 0.0024836727846621743 4:1 14:1 29:1 33:1 38:1 43:1 45:1 47:1 72:1 73:1 92:1 
-0.0023442080167168948 -0.00059173970230164033 -0 -0 -0.0043507891276133685 -0 0.0025123255400150172 0.00051062932568303769 0.0028118357794395294 0.0045069650952415143 0 6.7050838636767578e-05 0.00067861691814773606 0.00075904104781174188 0 0 0.00037442415557251097 7.0395202380675931e-05 8.9490145709215729e-05 0.00056868036087709753 0 7.4754899101512652e-05 7.041281807282544e-05 7:1 38:1 43:1 52:1 72:1 90:1 92:1 
-1.1473569673135457e-05 -0 -0.00056826336818039747 -0.00065674739560639135 -6.3172130712920781e-06 -0.00033512972056742971 0.00091489112960391856 0 0.00078414953488079855 0.00039755989053062268 0.0010963822551538038 0.00020100529865885584 0 0 0.00043796130314420028 0.00069074799446287687 0 0.0009084252788011339 0 0 0.00053382121701337317 0.00025006647195107112 5.2493938846454843e-05 14:1 38:1 45:1 60:1 66:1 70:1 92:1 101:1 
-0 -0 -0 -0.0023609035311466338 -0 -0.0025624415639588271 -0 0 0 0 0 0.002397876971499673 0 0 0 6.4685598880490861e-05 0 9.0664732017399951e-06 0.0023685219223487626 0 0 0.0023636909812631422 0.0093237634463665935 4:1 14:1 29:1 33:1 37:1 43:1 45:1 47:1 72:1 73:1 92:1 
-0 -0.00097691366956925642 -0.00074943711226507781 -0 -0 -0 -0 0.0010188139996066569 0 0 0.00075937396148909563 0 0.0010488461866636298 0.00099311047154276681 0.0013417006478810168 0.00074837401396917445 0.0018532019209819212 0.00080023924966954253 0 0.0008744817204582976 0.00087158105505840452 0 0 9:1 14:1 29:1 34:1 37:1 44:1 46:2 52:1 56:1 74:2 87:2 92:1 
-0 -8.8291258713867236e-05 -0.0001717890781754449 -0 -0 -0 -0.00026628772430382122 2.7279270508996755e-06 0 0 0.00017432161057609997 0 9.4321831779538562e-07 4.824614685144908e-07 0.00030198449210459729 0.0001612579094113947 0.00016164517857693913 0.00013906188973700266 0 8.0561982333999223e-05 7.0962086540582496e-05 0 0 14:1 29:1 30:1 33:1 37:1 43:1 45:1 72:1 73:1 82:1 92:1 
-0 -0.00043041027230412613 -0.00079707569773375593 -0 -0 -0 -0.00061907962820027796 0.00049696449180285508 0 0 0.00080458975321460275 0 0.00022130148124446913 0.00047622340360532311 0.0014127380089581888 0.00086836610029889395 0.0008049256455192296 0.0007500661557444259 0 0.000316922896906462 0.00060447551686696409 0 0 14:1 22:1 37:1 43:1 45:1 72:1 83:1 92:1 
-0.015901233868745659 -0.0035191793512206362 -0.0028868994760952865 -0.0041051194349137413 -0.016299610399442704 -0.0050346744693174437 -0.00022296658340825297 0.0033841106842713458 0.015674687620735768 0.015901233506569145 0.0028225516448283075 0.0057821588977407046 0.0036828525790110435 0.0034015630591434725 0.0049242782668726982 0.0023767063419774044 0.006565596182221055 0.0035617896140706286 0.0056792458460937154 0.0036074418156468082 0.002274343177454871 0.0056520644274872071 0.020612904326010342 37:1 92:1 
-0.00016212052192183336 -0.00068520448746085556 -0.00024930429610929881 -0.0024870692548316789 -0 -0.001883638647917096 -0.0025906754444166907 0.00077587051207571442 0 0 0.00023123908506381247 0.0017862523060677698 0.0010121581501399593 0.00079199129393854649 0.00045584783697268316 0.00010508116823701383 0.0013255220673298032 0.00014084017980824827 0.0017876802816744538 0.00078088488575971061 0.00046700572837319422 0.0017746243690554464 0.0066649496630974674 4:1 37:1 46:1 47:1 70:1 92:1 
-0 -0.0002839703433265416 -0.00081170051225492614 -0.0010343661782882051 -0 -0.00076660876614485112 -0.0067987525048367175 0.00039137105296183918 0.00032591650347793251 3.6802539954330221e-10 0.00081198775860247968 0.0012538978389273882 0.00054732742161617059 0.00035827945006450398 0.0015092601308729844 0.00084513728912031182 0.00072388833358365192 1.7123753005832132e-09 0.001240891674522109 0.00052271804793510026 0.0010629537900843059 0.0013395421844404707 0.0048422737746597472 5:1 37:1 53:1 92:1 
-0.00013525246229516985 -0 -0 -0 -0 -0 -0.0024813935033933992 0 0.00018230813299031519 0.00013525246229516107 0 0 5.9628030362825839e-05 0 0 0 0 0 0 0 0 0 0 7:1 37:1 43:1 52:1 72:1 90:1 92:1 
-9.2951636284306844e-05 -0 -0 -0.0008743293323611491 -0 -0.00076656405144038349 -9.480927795765248e-06 0 2.5337300579364661e-06 9.2951636284306275e-05 0 0.00054693010954711232 0 0 0 0 0 0 0.00057708232500165626 0 0 0.00057897165572857437 0.0023134177236215684 29:1 33:1 37:1 45:1 56:1 57:1 73:1 82:1 92:1 
-0 -0.00039032790148808735 -0.0008949056654307631 -0.00057975111444555556 -0 -0.00058361731601554634 -0.00092311629287401961 0.00030338791108313245 0.00010560168980879839 0 0.00086288067024912877 0.00012371430379942925 0.00017976915361310545 0.00036039964768039946 0.0014955449570186134 0.00099305666500274967 0.00069531319632826357 0.00097974162536187091 0.00026629131259325433 0.00024477280969591777 0.00065225660121373747 0.00019172275447396433 0.0011171967730674252 14:1 37:1 45:1 60:1 66:1 70:1 92:1 101:1 
-0 -0.0011765842387260561 -0.00045388049702534475 -0 -0 -0 -0.002213169947380121 0.0011521767387087042 5.386531706250635e-07 0.00016212051635043165 0.00051843848272976531 0 0.00075376626969465539 0.0011139866456724779 0.00080817845950363371 0.00066882352045747489 0.0020680728946660398 0.00042233116399350049 0 0.00098594612679103071 0.00040194091830941955 0 0 14:1 35:1 37:1 70:1 91:1 92:1 
-0 -0 -0.0022971824801462453 -0 -0 -0.00045688685587375798 -0 -0 0 0 0.0023317522036326688 0.00011424144176488629 0 -0 0.0022956359028026303 0.0028571113426760341 0 0.0066016478864334002 6.7157368049174763e-05 -0 0.0023944473166673014 0.00012208208811127224 6.7157368049174763e-05 14:1 21:1 36:1 40:1 46:1 69:1 87:1 
-0.00047786199993951568 -0.0015999583990204118 -0 -0.00092404717065905882 -0.00042908968233485573 -0.00075235021118269844 -0.00052685629421890979 -0.00030071839176988525 0.0010231516751687997 0.00051845408335550003 0 0.00066797439254915973 0.0022867065350263148 0.0016033147148689219 0 0 0.0018626714090370642 0 0.00073911255422382948 0.0019600996211280174 0 0.0005325507785699081 0.00073911255422382948 11:1 28:2 40:1 46:1 69:1 71:1 88:1 
-0.00061734453812719962 -0.0024375057765000869 -6.6810190085107586e-05 -0 -0.00056053351615359718 -0 -6.4174271046882827e-05 -0.00067718212144118428 0.0013181933897786434 0.00027381650017321434 1.8423973023166339e-05 0 0.0024336296632256555 0.0023160186501563103 6.3900172106915777e-05 6.5096056206293554e-05 0.0024589631646682996 0.00010805185500808697 0 0.0027496226782742776 5.6463723852135076e-05 0 0 23:1 40:1 46:1 68:1 87:1 89:1 
-0 -0 -0 -0 -0 -0 -0 -0 0 0 0 0 0 0 0 6.0223721992465287e-05 0 0 0 0 0 0 0 14:1 21:1 36:1 40:1 46:1 68:1 87:1 
-0.0012210150332912339 -0.0012670837873094418 -0.00018745040117933379 -0.0016200054491137424 -0.0011114280856626883 -0.0025688308614979739 -0.0012657957097481432 -0.0011475384135730458 0.0017428978971695968 0.00098453807461640883 0.00014816537556875447 0.0010292427432681704 0.0016290310308530852 0.001231462939593641 0.00018657335125806258 0.00036567552394130943 0.0012007788865748574 0.0004473952830309586 0.0010590000419773661 0.0013825029257443495 0.00012818681850435476 0.0010256656391923564 0.0010590000419773661 8:1 14:1 40:1 46:1 52:1 61:1 68:1 70:1 
-9.9775015700095777e-05 -1.0164885526962814e-05 -0.00010549298942937961 -0 -6.6866522542014343e-06 -0.00044419556432268221 -0.00027120124890762037 -0.00019575771949426003 0.00023313460782265697 1.8985272582299341e-05 9.6828210072358667e-05 0.00089882307401006802 0.00075213994849947685 0.00050060476136041794 0.00010536451247248965 0.00048608078503070538 0.00095151647541221916 0 0.00084541027733016849 0.0010541104811153358 3.9101888827185342e-06 0.0010720651170611998 0.00084541027733016849 1:1 14:1 24:1 40:1 46:1 53:1 68:1 
-0.0014253030757177775 -0.0028752671032604158 -0.0011644538072266004 -0.0022432809164083995 -0.0017043703968704449 -0.0038652479193364395 -0.0017879194679994331 -0.0012471884118056091 0.0028629016400122768 0.0020461237302026791 0.0011488574153258643 0.0017094007737738746 3.9168356116460012e-05 0.0027235120158631424 0.0011622830583338153 0.0012050351447437184 0.0025751022535341777 0.0032113866485698407 0.0020601223789765148 0.0027388140847022756 0.00078503196709516301 0.0014863530020560361 0.0020601223789765148 14:1 20:1 28:1 35:1 40:1 45:1 68:1 
-0.00054414706161968812 -0.0018812925001422923 -0.00047626684702029113 -0.00049218590824802173 -0.00052972634112275006 -0.0013076093535478945 -0.0006652550842769833 -0.00061022636692558525 0.00077140632391570565 0.00066082247831957073 0.00048010541902598165 0.0010416974672141108 0.0026991466318205459 0.0018632909452573924 0.00047594581123450294 0.00055504252380535267 0.0017790608539929649 0.0012235504713383454 0.00090106695119255577 0.001840232690845626 0.00052243517695400182 0.001006239112543056 0.00090106695119255577 14:1 17:1 35:1 40:1 53:1 58:1 67:1 68:1 81:1 85:1 
-0.00070100143411531122 -0.0020774232182882032 -0 -0.00035651790251752208 -0.00068383925886252646 -0.00045050970526314794 -0.00057598275415652385 -0.0007028531546031722 0.0012136026660385677 0.00060209289853559579 0 0.00027614064598066688 0.0013402726962583385 3.7991101456601424e-05 0 0 2.7672373015350455e-05 0 0.00028667341204307271 3.6776804769655811e-05 0 0.00029437405184724386 0.00028667341204307271 19:1 24:1 36:1 40:1 46:1 69:1 87:1 90:1 
-0.0014115457870586404 -0.0022782533929360557 -0.0026660666811302797 -0.00067880071597657796 -0.0014738716858669779 -0.002305788284673481 -0.00086865495401983368 -0.001541630011183458 0.0024885180870585877 0.00097025126860078863 0.0026980586053005468 0.0013091036659613399 0.0018814719067494793 0.0019139971362221243 0.0026694067845662974 0.0020317072529272432 0.0018216573439967544 0.0074738540765197196 0.0012674792502659475 2.419784972641176e-05 0.0025825991793424728 0.0013720034429994001 0.0012674792502659475 14:1 40:1 46:1 51:1 87:1 88:1 
-0 -0.00039572283561790521 -0 -0 -0 -0 -0 -0 0 0 0 0 0 0.0010731848947411287 0 0 0 0 0 0.001014964685756501 0 0 0 21:1 24:1 36:1 40:1 46:1 69:1 87:1 90:1 
-0 -0 -0.0011235094350835922 -1.1807376328078318e-05 -0 -0.00038858286084234966 -0 -0 0 0 0.0010060873118348777 0 0 0 0.0011216281767642011 0.0011833123126537956 0 0.0032922195447026561 0 0 0.0011908228704526683 0 0 11:1 14:1 21:1 24:1 28:1 40:1 46:1 71:1 79:1 87:1 
-0 -0.0012016602756396461 -0.0012043550566605853 -0 -0 -0 -0 -0 0 0 0.0013851762190929746 0 0.00025997968404186165 1.3191914420505136e-05 0.001213553346996292 0.00024488616827105094 6.7479359578208631e-06 0.0036257699986312264 0 1.5871578935601743e-05 0.0013598434757076741 0 0 21:1 24:1 40:1 46:1 68:1 87:1 
-0.0010794281984271368 -4.6357462240366064e-05 -0.0010079205909058078 -0.00077576013230138113 -0.0010550574291412719 -0.0009917021948364353 -0.00086664074328356502 -0.0011023287267649476 0.0020326737482754685 0.000946782418544447 0.00096762926856078701 0.00087257402437205677 0.0027418910418388833 0.0028117006924717595 0.0010049181879147589 0.00090814955256826016 0.0033982399163496268 0.0028237289872671714 0.00089289315569369108 0.0032612751340677514 0.0010472932446369656 0.00090998274363947112 0.00089289315569369108 21:1 36:1 40:1 46:1 64:1 87:1 99:1 
-6.4803930779106861e-05 -0.0003957824144884367 -0 -0.0032220271543104391 -0 -0.00321239519360412 -0.0037304421167751582 -0 -0.0010289328891529251 0 0 0.00028309537727550643 3.3013978653215958e-05 0.00054777258605498555 0 0 0.00050089161250960082 0 0.0015758718079011396 0.0011334385485230571 0 0.00052147803326614095 0.0016788109758588039 28:1 40:1 45:1 70:1 92:1 
-0.00012854243012048067 -0 -0 -0 -0 -0 -0.0027794735249331388 -0.00018213719085142369 -0 0 0 0 5.424271062717806e-05 0 0 0 0 0 0 4.6764826912449648e-05 0 0 0 7:1 40:1 43:1 52:1 72:1 90:1 92:1 
-0 -0.00025460427299280633 -0.00056674279490523578 -0.0009090408825072582 -0 -0.0013224825483979634 -0.00063684180218205025 -0 -0.0003882232427804181 0 0.0006032097127569515 0.00019664757815062651 0.00017442796104573575 0.00019704155599155305 0.00056530093402405322 0.00065418652980259618 0.00018238784177963948 0.00089546182090175354 0.00061844155756622622 8.1592612795580454e-06 0.00038341312689657575 0.00023027056795207494 0.00060279154504756013 14:1 40:1 45:1 63:1 70:1 82:1 92:1 93:1 
-0 -0.00031491931139811691 -0.00072264484927671313 -0 -0 -0 -0.00030121277123343023 -0 -0.00061831315232171546 0 0.00073798625450961026 0 7.8974898081666929e-05 0.00033061296283968855 0.00071771740884057488 0.00081319120622541175 0.00029489614226817126 0.0012041087289727135 0 0.00017141466771447502 0.00054095576650824953 0 0 14:1 22:1 40:1 43:1 45:1 72:1 83:1 92:1 
-0 -0 -0.0005507569131324799 -2.7682153500280521e-05 -0 -0.0013214167755323638 -0.00078786197458518398 -0.00010650380789666881 -0 0 0.00065025204655175413 0.00019629198757392308 0 0 0.00044608102124947958 0.00069752406847432087 0 0.0012587366244934568 1.9381265364168786e-05 0 0.00055108941187404208 0.0002324133429010333 9.7811517146362845e-05 14:1 40:1 45:1 60:1 66:1 70:1 92:1 101:1 
-3.2405727752126633e-05 -0.00091490272454784868 -0.00035755595231547774 -0 -0 -0 -0 -0 -0.0016190880064541112 0 0.00019372566369134204 0 0.00064458179490549427 0.00086996314569620669 0.00044973924973388038 0.00030692704872069894 0.00086922744597060341 0.00041861717126028127 9.4196854608992356e-05 0.00067983555881606758 0.00018055041171685562 0 0 14:1 28:1 40:1 45:1 60:1 66:1 70:1 92:1 
-0 -0 -0 -0 -0 -0 -0 -1.9294280316417861e-06 -0 0 0 0 0 0 0 0 0 0 0 1.0414279948722328e-05 0 0 0 14:1 29:1 30:1 33:1 40:1 43:1 45:1 72:1 73:1 82:1 92:1 
-0.016069038332536291 -0.0043389692634858692 -0.0031301324750083546 -0.0042076017151247407 -0.016299610399442704 -0.020267007053138233 -0.00027191969338396388 -0.015671105952984238 -0.0075745372772118005 0.016222863804283429 0.0030739345378971317 0.0070067466847816007 0.0047040693765600704 0.0041719179415042485 0.0031058010038907411 0.0026029885256872816 0.0043462412056917933 0.006323408158343537 0.0058260980398436892 0.0040968695976309833 0.00272335447256928 0.0066298466005260803 0.0057202587394980546 40:1 92:1 
-0 -0.0010147452829460833 -0.00076522592572448168 -1.0178309299258272e-06 -0 -8.7168317738151887e-05 -8.0850306011586561e-06 -0 -0.0019642210078334396 0 0.00077349179768305791 3.9547640026642815e-05 0.0011130997604377863 0.0010360328565291064 0.00076981210721285007 0.00075293309900299472 0.0010093271927512095 0.0014052270932278636 2.4949895219984058e-05 0.00090254357915967086 0.00090223238823617009 2.6324655119554244e-05 2.2898638659361836e-05 9:1 14:1 29:1 34:1 40:1 44:1 46:2 52:1 56:1 74:2 87:2 92:1 
-0 -4.6691032351783129e-05 -0.0001387370551736659 -0.0025875559174333798 -0 -0.0099621937476468744 -0.00012185221060449832 -0 -0 6.8854289201086068e-05 0.00014344992317211512 0.0027508142119989044 0 0 0.00013787342681541786 0.0001782219228521767 3.4737249598049799e-05 0.0002083798857738965 0.0026280571921081944 1.3731733212794036e-05 4.274249577742342e-05 0.0026980369190341244 0.0026083981065054963 4:1 14:1 29:1 33:1 40:1 43:1 45:1 47:1 72:1 73:1 92:1 
-0 -0.00019006314922219276 -0.0008056577632977091 -0.00050441283296881001 -0 -0.0022229626271784296 -0.0074787713230190069 -0.0003299099504774091 -0.0004931644594858962 8.4897695470931289e-09 0.00082448989832909977 0.0011501613974649555 0.0005663355755332278 0.00026305040327532445 0.000839489388812657 0.00084228310231301937 0.00029757366164053243 4.1996470233687799e-09 0.00097716655533536755 0.00034529256608630774 0.0010581268560205703 0.0013103678321545356 0.0010367189145381384 5:1 40:1 53:1 92:1 
-0 -0.0008607837485401802 -0.00027308952662559737 -0 -0 -0 -0 -0 -0.00086936459419642705 -0 0.00012900507870468851 0 0.0010008377292853249 0.00085531214680073108 0.00044070160141222562 0.00038510801590698818 0.00082310845627359575 0.00017976626675620647 0.00038755577453100789 0.00068434470467114243 8.296684655225964e-05 0 0.00011567926457175028 14:1 28:1 42:1 45:1 60:1 66:1 70:1 92:1 
-0 -0.00013528155890394307 -0 -0 -0 -0 -0.0044557013647136224 -0.00013525246229516107 -0.00010467707236726195 -0 0 0 0.00039538327226566224 2.5201771666189035e-05 0 0 0 0 0 0.00015539149065164361 0 0 0 7:1 42:1 43:1 52:1 72:1 90:1 92:1 
-0 -0 -0.00062267463887157514 -2.3403031278869918e-05 -0 -0.00040069777900633008 -0.000393773271239387 -0 -0 -0 0.00070007812697668018 0.00023285834354460654 0 0 0.00044070109942157465 0.0012511805135112786 0 0.00079341286129051185 0.0001006595348811197 0 0.0006178628009198664 0.00026210052566365835 3.3675776875654158e-05 14:1 42:1 45:1 60:1 66:1 70:1 92:1 101:1 
-0 -0.00014290097280534857 -0.00026477681845267416 -0.0025145496042407265 -0 -0.0027694544781204349 -0.0001361056613604446 -0 -8.7347995779118344e-05 -6.8854289201086068e-05 0.00027134655756304738 0.0027761517395718744 0.00013048718446414384 9.210594390119432e-05 0.00026425121339413094 0.00048981263621903877 0.00013772133894569691 0.00025491400412167497 0.0098637949649131394 0.00011332500869495199 0.00017561966651295804 0.0027343354920318593 0.002651452362706128 4:1 14:1 29:1 33:1 42:1 43:1 45:1 47:1 72:1 73:1 92:1 
-0 -0.00044790946666667017 -0 -0.0032553432772216826 -0 -0.00088597790803651797 -0.005815508310095494 -0 -0.00048332696275298417 -0 0 0.000310587380204559 0 0.00050823790737392408 0 0 0.00048976090956255234 0 0.0064708440727594945 0.00091883014009465586 0 0.00047866267587482505 0.0016697187818950959 28:1 42:1 45:1 70:1 92:1 
-0 -0.0013364899075283751 -0.00040790449934538194 -0 -0 -4.2141304768649372e-05 -0.0038224563844668361 -0.00016212051635043165 -0.001330185932023991 -0 0.0004664614894337792 2.3807287266320721e-05 0.0016585524602894576 0.0013173023327616093 0.00039018307207353421 0.00090774076658249408 0.001217055040433702 0.00035804975215412884 0 0.0010984073079498315 0.00048896326225240125 4.4852314088234823e-06 0 14:1 35:1 42:1 70:1 91:1 92:1 
-0 -0.00024650061782165579 -0.00070956031678984363 -0 -0 -0 -0.00046154601684144937 -0 -0.00033697535256562594 -0 0.00071647086736138397 0 0 0.00034957515756724026 0.00070295625652796296 0.0013219638861162889 0.00027242148063472171 0.00067934462475590924 0 0.00013821280271821592 0.000501844153374502 0 0 14:1 22:1 42:1 43:1 45:1 72:1 83:1 92:1 
-8.7628911239554267e-05 -0 -0 -0.00027731165224357569 -0 -0.00038267469619524425 -0 -9.2951636284306275e-05 -0 -0 0 0.00015254897743459248 0 0 0 0 0 0 0.00039074413199602614 0 0 0.00018625722514805515 8.7409945609615502e-05 29:1 33:1 42:1 45:1 56:1 57:1 73:1 82:1 92:1 
-0 -4.3290336033585019e-05 -0.00052614473369216159 -0.00084762958683300344 -0 -0.00027859203391253265 -0.00032112624939771843 -0 -3.0016185749057566e-05 -0 0.00054040517076294349 0.00018394664659221094 2.6054778460210839e-05 2.2575841053918662e-05 0.00052648490234436028 0.00095389062720861674 0 0.00048624811035646788 0.0024343276904799423 0 0.00030726284387420677 0.00020436360907815387 0.00065092981017592566 14:1 42:1 45:1 63:1 70:1 82:1 92:1 93:1 
-0.016204254453705019 -0.0037736055790669621 -0.0038686194079296213 -0.0045372253189848635 -0.016299610399442704 -0.006633488502757824 -0.00055826457304241175 -0.015901233874594547 -0.0037040180115196562 -0.016222872294052976 0.0038198989211283181 0.0078760543547273468 0.0082099719359668439 0.0037589004694300898 0.0038971667411274013 0.0055378457700208427 0.0040619972632973704 0.0037105916395320112 0.022552324694829842 0.0038565985263379569 0.0036834248636323612 0.0076986195036323939 0.0065080163684062232 42:1 92:1 
-0 -0.00011769297158181402 -2.237793546802049e-05 -0 -0 -0 -4.4997023611565892e-05 -0 -7.5954617976380421e-05 -0 1.8299475287229009e-05 0 0.00011829481171304319 7.8387775407845253e-05 1.9634184115132112e-05 4.7526391363637887e-05 0.00014075329122046042 2.281753739115099e-05 0 0.00011297287813443544 3.4999552534707788e-05 0 0 14:1 29:1 30:1 33:1 42:1 43:1 45:1 72:1 73:1 82:1 92:1 
-0.0011328297096150819 -0.0018012909449507679 -0.0024116599838827518 -0.0020511346974382361 -0.0011770538263625068 -0.0013947847395902328 -0.0019158283027405152 -0.0011664434861369428 -0.001891292424825781 -0.0012372579792530403 -0.0012424572757421027 0.0012957104102678926 0.0017292908053181675 0.0053058601715121473 0.0023753731584635579 0.0023579193624795485 0.0019266854562372971 0.0023540407213467761 0.0013882343053355582 0.0020955980239785498 0.0042633267524319523 0.0013518373572262803 0.0013950558775083519 14:1 17:1 21:1 36:1 38:1 45:1 75:1 78:1 87:1 
-0.0018606210112854032 -0.0012239738175450438 -0.0046538942622562076 -0.0034212195578867746 -0.0019656990845787099 -0.0022755777198461401 -0.0032003516379181789 -0.0018744614968892524 -0.0011332126912734354 -0.0019400388360952168 -0.0021322063714127541 0.0021407892726528943 0.00088792765215570547 0.0030384663424566794 0.0047823248294751311 0.0048208370753507739 0.0012212436272570906 0.0052318008654364334 0.0022779736775639572 0.001116281854410821 5.5991369822588609e-05 0.0022104305771859603 0.0022840250314212626 14:1 27:1 38:1 45:1 76:1 94:1 102:1 
-0.00037383457159590009 -0.0038988596862136252 -2.1013327668343742e-06 -0 -0.00045630375522308662 -0 -0 -0.00031525769252585854 -0.0040915777568406447 -0.00024723197756792493 -0 0 0.0042058165934535444 0.011867730290866851 0 0.0017081773916491269 0.0035471226224160512 0.0014257835731192115 0 0.0037318098574151528 0 0 0 14:1 21:1 38:1 46:1 77:1 87:1 
-0.0012693218307486393 -0.0019168969123604829 -0.0041394541412103055 -0.0012910718095910036 -0.0011646820297145065 -0.0003006078645756423 -0.001220124984095923 -0.0011511894619643576 -0.0018556341386952973 -0.0011693882729104034 -0.0010254504401276006 0.00048747394163875041 0.0019985960939455259 0.005176602517577642 0.0043439859092549828 6.0656283862467599e-05 0.0016096718120143566 0.0044953095054531059 0.00053504772853487997 0.0011315749976656654 0.0041329355805044205 0.00060282637127943405 0.00056721338149131576 24:1 26:1 38:1 46:1 77:1 87:1 88:1 
-0.00011133284081259048 -0.00046777682047100921 -0 -0 -0.00022275996311851793 -0.0003457440978295119 -0 -0.00015741742585397695 -0.00049689116338564807 -0.00014748415412440063 -0 0.00022708686851270914 0.00052706275926231786 0.0013938770358483347 2.1056613887759064e-05 0.0010190100071326581 0.00054775453299447702 0 0.00017384602839254896 0.00049724887186984893 5.8531649728359365e-06 6.4464218308455756e-05 0.00012500653760582573 14:1 24:1 38:1 46:1 77:1 87:1 97:1 
-0.0017102604225902496 -0.00044955037307406481 -0.0037905239942655129 -0.0035146824634770838 -0.0014247365493999867 -0.0023266622570451301 -0.0035508476132756922 -0.0016705166092916772 -0.00025086991840112043 -0.00169021948145378 -0.001489611588348797 0.0029982903333725646 0.00040417520967302682 0.00038027409799408778 0.0040473724043846079 0.0043821048358078782 0.0006696166191927582 4.9357100521357977e-05 0.002954458572570188 0.00041095316684415344 0.0054574828627691032 0.00309293125138627 0.0029911642556608663 14:1 38:1 46:1 53:1 77:1 95:1 
-0 -0 -0 -0 -0 -0 -0 -0 -0 -0 -0 0 0 0 0 0.0015361940849121611 0 0 0 0 0 0 0 14:1 24:1 26:1 38:1 46:1 54:1 77:1 96:1 101:1 
-0.00015216292844305698 -0.000335729198150409 -0.00024357215788505955 -0.00015001111679443458 -0.00017676849530173916 -0 -0.00010860105620459673 -0.00012306082517280365 -0.00056160590801605315 -7.7951739893163474e-05 -0.00015789126048269171 0 0.00037013338980406422 0.0015868787392769308 0.00038513845802705773 1.1975222829726718e-05 0.00069441096077965832 0.00082608131985242958 0 0.00073817229513670505 0.00020903882274100969 0 0 11:1 14:1 25:1 28:1 35:1 38:1 46:1 54:1 59:1 71:1 77:1 95:1 100:1 101:1 
-0.00030606936455174465 -0 -0.00078818060646108164 -0.0004859314353741857 -0.00037505573588143137 -0.00066496747273210295 -0.00083403946377446649 -0.00052703596891842349 -0 -0.00049096739329313225 -0.00061434875110412336 0.00060064620721493264 0 0 7.1314036117691955e-05 7.5830850572554946e-05 0 0.0016113969645517093 0.00059369438302613411 0 0.0017967000371375017 0.00052055530933426948 0.00056851768944831186 14:1 26:1 38:1 46:1 54:1 77:1 96:1 101:1 
-0 -0 -0.00037749645839773639 -1.9396153002374722e-05 -0 -1.2001172808825263e-05 -0.00015752572638385256 -0 -0 -0 -0 -0.00010275060286616635 0 0 0.00042728174165820052 0.0003681088329596609 0 0.00051911643873563996 0 0 0.00042649416408018995 0 0 4:1 11:1 13:1 14:1 28:1 41:1 45:1 47:1 70:1 71:1 
-0 -0 -0 -0.0032731427621992769 -0 -0.0012082188286276774 -0.0016651735531752901 -0 -0 -0 -0 -0 0 0 0 0 0 0 0 0 0 0 0 4:1 13:1 14:1 41:1 53:1 70:1 
-0.010850696304684633 -0 -0.00039489920734886761 -0.0032064244561489895 -0.0044079269117757993 -0.0032112473785752957 -0.0046111417873483402 -0.004618447781572721 -0 -0.004204640093797272 -0.0044421875143228311 -0.00050466352569405635 0 0 0.00037255440519246138 0.00038473092873580778 0 0.00058038104766168692 0.000887797094280058 0 0.00015279660931775464 0.00087983865630788334 0.00089757002492126729 4:1 33:1 41:1 45:1 47:1 73:1 92:1 
-0.0092898662477670542 -0.005695574963794978 -0.0032117579965104948 -0.00016219726890106555 -0.0019209157827235646 -0.00015812547515044604 -0.0014825931344557707 -0.0025840687898063416 -0.0029473165274325869 -0.0023681956888331754 -0.0019073730008507129 -0.0032570892257666254 0.0032610358043986469 0.0029337408587572673 0.0032163154020803564 0.0031179260348734522 0.0030077154656254416 0.0020396114149103836 0.007452954466198221 0.0029852584794597785 0.0057062079735911674 0.007482567544683778 0.0082870912481538116 4:1 41:1 53:1 
-0 -0.0022171358431407238 -0 -0 -0 -0 -0.00030107994276799084 -0 -0.0010029496403408712 -0 -0 -0 0.0005887476122258318 0.0010138342874504295 4.1742519179708767e-10 4.6803715539182368e-10 0.0010881400261294224 0.00018332431317358015 0 0.0011906720180803979 6.2510255744449919e-10 0 2.1984234312328959e-06 4:1 11:1 13:1 14:1 28:1 35:1 41:1 45:1 47:1 70:1 71:1 
-0.0036193051522196941 -0.00048072678394809742 -0 -0.0040316228477304018 -0.00033179158765580939 -0.0038067889308106362 -0.00018734969777871413 -0.00053614413998365055 -0.00035105941094976491 -0.00025024496508903966 -0.00034979029424822203 -3.4167058338049005e-05 0.00063503571669122237 0.00029445051217322199 0 0 0.00032516999460830223 6.3298986941168645e-05 0.0026247461854722771 0.00039210446742640574 0 0.0026109030431923871 5.7278583171136567e-05 13:1 31:1 41:1 52:1 70:1 
-0.01006741670485538 -0.0028087133759133374 -0.00097455035669426324 -0.0053956628843214284 -0.0030064065708916808 -0.004829141701598547 -0.0021993594771789653 -0.0027093645350577942 -0.0013956577737367945 -0.0029901234674685304 -0.0029841250078343627 -0.00089570810994109209 0.001275447765242133 0.0013813947202038065 0.00098108179062364269 0.00089931266989071428 0.0014415854851919732 0.0011639860865185771 0.0030620468471960539 0.0014432091971328001 0.001466451128625635 0.0030620468471960539 0.0041053668413099965 6:1 16:1 41:1 52:1 92:1 
-0.0029839579879337055 -0.0047716260999863631 -0.0028230016200399347 -5.6505676394468262e-05 -0.0018876203115781481 -0.0029535243418866964 -0.00049136031154055132 -0.0014428051811615713 -0.0022222148764343159 -0.0018101006620841425 -0.001872478912085383 -0.0029556185110537541 0.0020454818153971955 0.0022880508116764615 0.0027785354740415668 0.0029579840479292629 0.0022578574841159728 0.0025545299118491151 0.002276089262064743 0.0019899327600107681 0.0043706636894922778 0.0022688650524161128 0.0029301328910935087 13:1 14:2 41:1 65:1 
-0.00039872364936041063 -0.0010482475186272269 -0 -0.00061228185124794876 -0.00037325715909481371 -0.00034987424698052828 -0.00034122820066113751 -0.00030998209397706207 -0.0022829947214354795 -0.00043832915436449276 -0.00086918715974982068 -0 -0.00053079705597885974 0.0022644605958749959 0 0 0.0012992951681030324 0 0.0011664529171843175 0.0015001082951618381 0 0.00046476259053985158 0.00062539124495649529 11:1 28:2 42:1 46:1 69:1 71:1 88:1 
-0 -0.00066185234687133015 -0 -0 -0 -0 -0 -0 -0 -0 -0 -0 -0 0.00051342975255882855 0 0 0 0 0 0.00074643603679305272 0 0 0 21:1 24:1 36:1 42:1 46:1 69:1 87:1 90:1 
-0.0006132195232431061 -0.0019276463529419162 -0.0001646623910348462 -0.00067331667780148906 -0.0006577015159594747 -0.0007079998606215964 -0.00054598672211641683 -0.00061100112963929454 -2.4359126697101227e-05 -0.00066768133592445085 -0.0012344821609227544 -0.0001189404774488705 -0.00079191843128711861 2.4206964426727307e-05 0.00016660835621828304 0.00027394909641396492 0.0018499516765914002 0.00016929619400783694 0.0014958352068005769 0.0019753898121320805 3.9138178032467671e-05 0.00078446460547348322 0.00077404642429264943 10:1 11:1 18:1 27:1 28:1 29:1 32:1 42:1 48:1 49:1 50:1 51:1 71:1 86:1 
-5.5333625903583391e-05 -9.0747523458915079e-05 -0 -0.00026378401947003125 -0 -0 -0.00035735560760720387 -3.0552737426355265e-05 -0 -0 -0 -0 -0 0 0 0 0 0 0 0 0 0 0 11:1 21:1 28:1 42:1 46:1 68:1 70:1 71:1 84:1 
-0.00018210944982052692 -0.0017196701869632719 -6.1840303629319608e-05 -6.3484698631346248e-06 -0.00019830917515752775 -1.7202714246512418e-05 -0.00011090455570815921 -0.00023779756353802998 -1.9039075189970093e-05 -0.000195753991332976 -0.00067518699019191212 -0 -2.6731491803581094e-05 0.0016506782980606101 6.9289655329722149e-05 0 0.0017259538101226939 8.0529095451195939e-05 2.8467028796190378e-05 0.0013365280526520069 5.1488330846619671e-05 2.9838912480513578e-05 1.5817750657786169e-05 2:1 24:1 36:1 42:1 46:1 54:1 68:1 101:1 
-0.0010633270736954109 -3.5881806905209896e-05 -0.00090348585238787435 -0.00073510145101287282 -0.001035833662359602 -0.00052928202574808829 -0.00075892874623689939 -0.0010735730044530781 -0.0027376456229228703 -0.0010791634535876767 -0.0015141790382853803 -0.00088167572195073927 -0.00083688490837003509 0.0021318820821315549 0.00090810874053323307 0.0020002671945003737 0.0027055926514502407 0.00089941898245274755 0.0016061771563487788 0.0025397094649711356 0.00098560810200459684 0.00084174245045860881 0.00081517616466592546 21:1 36:1 42:1 46:1 64:1 87:1 99:1 
-0.00086264011225317249 -0.0026147020360985512 -0.00020085083309670949 -1.2500153275370251e-05 -0.00086285106279849729 -0 -0.00026704498548743485 -0.00088180994768853257 -0.0024336926174756408 -0.00094027024047555038 -0.0010064264171715119 -0.00015421719463081331 -0.00014167147042956507 0.0023794074596607557 0.00020632007630700278 0.00043305014128268925 0.0024187828988469712 0.00018939696095365859 0.00024070439185566985 0.0027097263641470584 0.00015897595634654742 0.00015733364222575037 0.00013072737612169176 23:1 42:1 46:1 68:1 87:1 89:1 
-0.00063184122558980721 -0.001267606135784996 -0 -0.00037062242437542307 -0.0006148052540571584 -0.00013368405728557815 -0.00057172269516786748 -0.00061845863059673358 -0.0013339043351127226 -0.00058288613933970884 -0.00078210504902084582 -0 -0.00020465031062716447 2.3203133461334149e-05 0 0 1.1682921548758555e-05 0 0.00034443915443431764 2.5532009113145516e-05 0 0.00021031729486646188 0.00014481921553779299 19:1 24:1 36:1 42:1 46:1 69:1 87:1 90:1 
-0 -0 -0.0011458867153734068 -0 -0 -0 -0 -0 -0 -0 -0 -0.0010259290140516163 -0 0 0.0011516796383021909 0.0031825157635188891 0 0.001216583954951167 0 0 0.0012032626345423899 0 0 11:1 14:1 21:1 24:1 28:1 42:1 46:1 71:1 79:1 87:1 
-0.0013356967901764893 -0.0024260920015652396 -0.0027495101241438434 -0.00074485419622327708 -0.0014114946805992307 -0.0011563246296579387 -0.00087957681126849658 -0.0013901776486015382 -0.0018814719067494793 -0.0013055720668867365 -0.0014904538998942215 -0.0027935723048037988 -0.0011160629791506617 0.002121393387367844 0.0027438602081773875 0.0054001148787416863 0.0018432736759729058 0.0027674494537369104 0.002146832478400325 2.1127099756570415e-05 0.0026946484602049818 0.00114205160581284 0.0011312430210780509 14:1 42:1 46:1 51:1 87:1 88:1 
-0 -0.00029409386653704534 -0.0012918193896362693 -0 -0 -0 -0 -0 -0.00025773966328498639 -0 -0 -0.0015322744277966294 -0 8.0141519584463091e-06 0.0012669536698242995 0.0011697849440557703 0 0.0014629704071436919 0 8.1218486557980227e-06 0.0014149112391135608 0 0 21:1 24:1 42:1 46:1 68:1 87:1 
-0 -0 -0 -0 -0 -0 -0 -0 -0 -0 -0 -0 -0 0.00045028904558267716 1.4025570006619137e-10 3.6152787751334015e-10 1.2048471638784197e-10 1.3280376754895573e-10 2.5081742043540911e-10 0.00028224531206847195 1.3742650355370867e-10 1.4182517595225097e-10 6.4891985231477212e-11 15:1 21:1 36:1 42:1 46:1 64:1 87:1 99:1 
-0.0008143936468012591 -0.0024812624209876459 -0.00072248619982216125 -0.0010700572527475062 -0.0008960004070827129 -0.0011610645060238108 -0.001031915554059084 -0.00082457212823064483 -0.0027084930016191668 -0.00081577092989060284 -0.0019114385897229084 -0.00072689798683589068 -0.0014088021157017642 0.00266204177115246 0.00072489358279624703 0.0021137114557139361 0.0023726256985376294 0.00070636296551351862 0.0026789184521438742 0.0024900441560264273 0.00070551311921599705 0.0013428432377637705 0.0014011642764052144 14:1 17:1 35:1 42:1 53:1 58:1 67:1 68:1 81:1 85:1 
-0 -5.439453100225897e-05 -0.0022753757848872637 -0 -0 -0.00055128196656414647 -0 -0 -0 -0 -0 -0.0023202151534900766 -0.00030142336722207761 0 0.0022681937428001785 0.0076639509103442341 0 0.0022826579365636725 0.0006113845359877998 0 0.0023549856269846703 0.00030617662024346246 0.00035887408029800703 14:1 21:1 36:1 42:1 46:1 69:1 87:1 
-0.00029767498212798847 -9.0447592346645096e-06 -0.00028610752310991261 -0.0003785554216220561 -0.00018584285373544714 -0.0007260473095693985 -0.00054149755105492418 -0.00030401065349725128 -0.00075088573081567834 -0.00034881563622133407 -0.00028954408629788884 -0.00026873723206491645 -0.0011893524677864674 0.00027338691992344046 0.0002933965842845388 0.001578053272817245 0.00047097603988882392 1.5485175780869744e-05 0.0023677495439561524 0.00069210099334621861 0.00012081619476442642 0.0012426729552722244 0.0012880267235851391 1:1 14:1 24:1 42:1 46:1 53:1 68:1 
-0.0012702316718890582 -0.0014583088977459418 -0.0003385742546585762 -0.0019198694984673091 -0.0011728140067573279 -0.0017726319197176146 -0.0013234451208133434 -0.0012246569530151344 -0.001633211693127007 -0.00099450310782084588 -0.001766578781187445 -0.00030054299053900027 -0.0012574541155977348 0.001567112542515113 0.00033908655785098963 0.0013744303301658381 0.0014068947443333995 0.00033424376588086005 0.0024560659808254832 0.0017668392149907447 0.00026221965050817007 0.0012498483804549705 0.0011675305630313828 8:1 14:1 42:1 46:1 52:1 61:1 68:1 70:1 
-0.00018379549217860099 -0.0017980189041130134 -0.0001111044343581692 -0 -0.00016469063832610386 -0 -0.00016112122366671527 -0.00029101000975393016 -2.2427824814441103e-05 -0.00021458472868859748 -0.00029740696622083078 -0 -0 -0.0016527362164643351 0.0001166792134098494 0 0.001669642719350106 0.00011322350921081545 0 0.0012955635789877453 7.4091893943012502e-05 1.6831428632950526e-05 0 2:1 24:1 36:1 38:1 46:1 54:1 68:1 101:1 
-0.00044932416580158722 -0.0015352161362545476 -0 -0.0014150401628414237 -0.00043834095876616743 -0.00043522585336395043 -0.00058932849483945952 -0.0002967752039092469 -0.0016033147148689219 -0.00059414604383078832 -0.00045140202512864043 -0 -0.00069226242088727286 -0.0022690926105735443 0 0 0.0016213614447082583 0 0.0007667979374203854 0.0018520814606832242 0 0.00056433066009124082 0.0007667979374203854 11:1 28:2 38:1 46:1 69:1 71:1 88:1 
-0.0010010414453962436 -3.6662156906650273e-05 -0.00099243593982993746 -0.0011941144049240312 -0.00099360989772228877 -0.00058648590553041116 -0.0012514833094231089 -0.0010184990246872949 -0.0028060182213916368 -0.0010674803423599388 -0.0008596677679071201 -0.0026136719965451577 -0.00088681613988180841 -0.0021318820821315549 0.00099321170483921903 0.00090975899148721046 0.002883661972557545 0.0010163185061764491 0.00091586029930372395 0.0027684354420365108 0.0010408497152013512 0.00092249737955184014 0.00091586029930372395 21:1 36:1 38:1 46:1 64:1 87:1 99:1 
-0.0015285173581736195 -0.0026842068214708355 -0.0026747240686444225 -0.0014447600584295743 -0.0015559447702962245 -0.001285571501169288 -0.0018612635562114408 -0.0016544884612307914 -0.0019199919152646228 -0.001417245731818399 -0.0011219695592787073 -0.0075666696346802396 -0.0013263773562871655 -0.0021272195542725828 0.0026775516001183585 0.0020337893015826124 0.002214384506893795 0.0026734008496906774 0.0012818593463353588 3.2493919325885223e-05 0.002591136359120976 0.0013892961250872751 0.0012818593463353588 14:1 38:1 46:1 51:1 87:1 88:1 
-0 -0 -0.0011613745837876219 -0 -0 -0.00016757996339083662 -0 -0 -0 -0 -0 -0.0029007398795384627 -0 -0 0.0011667657855639537 0.0011762892316439079 0 0.0012046796296761658 0 0 0.0012139975674012292 0 0 11:1 14:1 21:1 24:1 28:1 38:1 46:1 71:1 79:1 87:1 
-0 -0 -0 -0 -0 -0 -0 -0 -0 -0 -0 -0 -0 -0.00045028904558267716 1.3653323534690981e-10 8.6153657667155381e-11 2.294112469436449e-11 1.3425364682809193e-10 5.5382367745646088e-11 0.00015335638921345411 1.6512646848834689e-10 1.4385549381486923e-10 5.5382367745646088e-11 15:1 21:1 36:1 38:1 46:1 64:1 87:1 99:1 
-0 -0 -0.0022629629861744597 -0 -0 -0.00039977558223463046 -0 -0 -0 -0 -0 -0.0067072133543091567 -0.00029938094452768488 -0 0.0022558641799465418 0.0028823221075827002 0 0.0022567321599388187 0.00024983538024906461 0 0.0023684975263703828 0.00031238338757363454 0.00024983538024906461 14:1 21:1 36:1 38:1 46:1 69:1 87:1 
-0 -6.8239317675476821e-05 -0.0011238517558581191 -0 -0 -0 -0 -0 -0 -0 -0 -0.0041074318799225965 -0 -0 0.0011162294588347029 0.00026505008690943176 0 0.0011672290176930414 0 0 0.001302715935480376 0 0 21:1 24:1 38:1 46:1 68:1 87:1 
-0.00053687507784033414 -0.001806652833275827 -0.0004785085646486193 -0.00083139255266274686 -0.00052449710257748043 -0.00070202291524594496 -0.0011070423506664596 -0.00060213732241991942 -0.0018632077808646687 -0.00042868158822379946 -0.00064291156387644426 -0.0013075109801750915 -0.0010270844334882912 -0.0026536858896012028 0.00047896379990294466 0.00055706182716871912 0.001768559949257249 0.00044372486166405336 0.00088807336800373498 0.001864210823017543 0.00052234503962434299 0.00099099205223281356 0.00088807336800373498 14:1 17:1 35:1 38:1 53:1 58:1 67:1 68:1 81:1 85:1 
-7.6126742627352295e-05 -2.0899849140053969e-06 -7.9164961599732163e-05 -0 -0 -0.00033085455522934172 -0.00038364328232675618 -0.00012972778679503104 -0.0004962234131071358 -0.00010681452522157204 -0 -4.687434366793232e-05 -0.00097913071314517435 -0.0002708590700060097 7.8236146598915571e-05 0.00049689417572407895 0.0001306722407753679 0 0.00092059733169289038 0.00034929645766316629 0 0.0011468700035287876 0.00092059733169289038 1:1 14:1 24:1 38:1 46:1 53:1 68:1 
-0.00013086988548781565 -2.7956010382811572e-05 -0 -0.00071792961139957774 -5.1983821153669015e-05 -3.5769108325333007e-05 -0.00073300844635285783 -7.1517019872296164e-05 -0 -0 -0.00018584698849026464 -0 -0 -0 0 0 1.6584058000794423e-06 0 0 4.2255573253241688e-06 0 0 0 11:1 21:1 28:1 38:1 46:1 68:1 70:1 71:1 84:1 
-0.001146556847414955 -0.0010315806619172144 -0.00017974544748359335 -0.0026438565454482269 -0.0010682448562718328 -0.0013583148228405726 -0.0019946494738274602 -0.0010953503013483871 -0.0012304255085567673 -0.000905422273534293 -0.00086105478569360326 -0.00038102090061251635 -0.00099359900896330185 -0.0015615722975192204 0.00018101690091040649 0.00036978149403000193 0.0010601025767864945 0.00016110876947080099 0.0010418518971789868 0.0013554163806082536 0.00012191385248676119 0.00098906214216059034 0.0010418518971789868 8:1 14:1 38:1 46:1 52:1 61:1 68:1 70:1 
-0.0013963104776443737 -0.0026995207836915296 -0.0011698676420577535 -0.0040320871547571491 -0.0016745069963091362 -0.0020820440924984511 -0.0030970422955829478 -0.001210221090513135 -0.0027216031110866958 -0.0015154876083495244 -0.002001642861909422 -0.0031185562260815213 -0.001706820173080487 -3.4172120459291858e-05 0.0011693108311352852 0.0012052022519980863 0.0025965108951185385 0.0011892938543888996 0.0020454008697896281 0.0028246074299660895 0.00078394654295623324 0.001477424097484502 0.0020454008697896281 14:1 20:1 28:1 35:1 38:1 45:1 68:1 
-0.00063022491498423668 -0.0025321277076294766 -6.5473769739717198e-05 -0 -0.00058531919473857308 -0 -2.4094008203216813e-05 -0.0006802701662074036 -0.0023205357646890385 -0.00075164630643740325 -0.0002472296604509066 -0 -0 -0.0023816249040879861 6.6215438443826264e-05 6.5115103623433607e-05 0.0021408901552571018 6.5617826514879289e-05 0 0.0025398929508358577 5.422664663031355e-05 0 0 23:1 38:1 46:1 68:1 87:1 89:1 
-0.00046344594707210817 -0.0018563438755690145 -0 -0.00033970882167142267 -0.00046301974050493884 -0 -0.00070989961212239493 -0.00044604004637856958 -0.0011045215117680158 -0.00041488230342679827 -0.00033846716700680217 -0 -0 -0.00053637231397638257 0 0 6.8797030013034442e-06 0 0 0.0010465775504467931 0 0 0 21:1 24:1 36:1 38:1 46:1 69:1 87:1 90:1 
-0.00028257882187347229 -0.0038740122267261899 -0 -0 -0.00042764696644843891 -0 -0 -0.00055451259563698522 -0.0040651690963987479 -0.00021979477738144057 -0 -1.1137035622799007e-05 -0 -0.0040821679437025435 -0.0039710662190605758 0.0011488245871150867 0.0099192055896436919 0.0012550699861109404 0 0.0036312870958254907 0 0 0 14:1 21:1 37:1 46:1 77:1 87:1 
-0 -0 -0 -0 -0 -0.0002138217265621257 -0 -0 -0 -0 -0 -5.1856620892871838e-05 -4.1842333481822123e-05 -0 -0 0.0011021889676995538 0 2.7254101424121672e-05 2.0498877347318201e-05 0 2.139614872148827e-05 7.0893552277675483e-05 6.2694572606016889e-05 14:1 24:1 26:1 37:1 46:1 54:1 77:1 96:1 101:1 
-0.001854171153889319 -0.0012238018432920608 -0.0046458460321089036 -0.0020445193011975728 -0.0019662414617166507 -0.0022907919181854538 -0.0019203274336213124 -0.0032709377469464034 -0.0011117237877130547 -0.0019440705496801985 -0.0021361737041728592 -0.0047820077779371622 -0.0021566614622801398 -0.0008792358013817263 -0.0011149672611417195 0.0046160367892647 0.0031933697988066937 0.0052580178459439185 0.0022882053372701066 0.0011036260291747348 5.6935550103376916e-05 0.0022133009128894546 0.0044865578348151471 14:1 27:1 37:1 45:1 76:1 94:1 102:1 
-0 -0.00028249397698288899 -0 -0 -0 -0 -0 -0 -0.00037610879120982335 -0 -0 -0.00037122940290635855 -0 -0.00018891274543526181 -0.00038556597354391203 0 0.00109813254276908 0.000271831450951759 0 0.00040576950299734663 0 0 0 11:1 14:1 25:1 28:1 35:1 37:1 46:1 54:1 59:1 71:1 77:1 95:1 100:1 101:1 
-0.0013728756308001042 -0.0019251919060683889 -0.0041328608097531173 -0.00079048435697695401 -0.0013329197011736364 -0.00052029116227340433 -0.00084464340683703873 -0.0023211866310957102 -0.001880814839058416 -0.001332719206288436 -0.0011502071419044978 -0.0043435775974526589 -0.00067251914205571474 -0.002027713478219278 -0.0019019932785684581 6.5673139586209432e-05 0.0048746353176246371 0.0049342619378856872 0.00070953104525526721 0.0012030085538860592 0.0044053186282223041 0.00069941167798383557 0.0013370684003221455 24:1 26:1 37:1 46:1 77:1 87:1 88:1 
-0.0005589759281662115 -0.00011242205725438312 -0.0011400374015759383 -0.00057290190009978161 -0.0005935521198487993 -0.00049119432376570308 -0.00049168258141980706 -0.00099743317870371159 -0.00042141300681990959 -0.00057039284195323822 -0.00063682193048392654 -3.4652390696117771e-05 -0.00064960411130477228 -0.00046879456568933985 -0.00048212901975681259 0.00098054666461716263 0.0022514674570689643 0.0018597437300110059 0.00065094369855543894 0.00076614322655032239 0.0017342627630943684 0.00045822043863302667 0.0012191039762465901 11:1 14:1 28:1 37:1 46:1 54:1 71:1 77:1 97:1 101:1 
-0 -0.00040324094211338039 -0 -0 -0 -0 -0 -0 -0.000268378008050155 -0 -0 -0 -0 -0.00028900136960595554 -0.00025704950745808816 0.0010509866058633786 0.00040150614419724522 0 0 7.9988927405007357e-05 0 0 0 14:1 24:1 37:1 46:1 77:1 87:1 97:1 
-0.0017320240776659297 -0.0004671544364171476 -0.0037389845956466738 -0.0019658924680430109 -0.0014807606698396471 -0.0023614339257088789 -0.0021381221613783127 -0.0030653803755863744 -0.00027078159652284511 -0.0017230080410211438 -0.0015331377326979324 -0.0040567314256392643 -0.0029428414857399997 -0.00045721926868617289 -0.00027223948135507664 0.0043988238114018542 0.0013789281842819818 5.6179768368510879e-05 0.0029032318100910225 0.00047169939747832869 0.0055022597235969504 0.0030620964195479496 0.0057412891480379492 14:1 37:1 46:1 53:1 77:1 95:1 
-0.0011548972275550954 -0.0018046640772452279 -0.0023799807245644166 -0.0012218599275378769 -0.0011947531519472087 -0.0014276477517122363 -0.0011325906981360413 -0.002040082272215232 -0.0019048201786770152 -0.0012418291242551973 -0.0012257385611571059 -0.0023753731584635579 -0.0013123006961589707 -0.0017453457799594954 -0.0019150344553525937 0.0026114941511906874 0.0054601932914771526 0.0023350803664267815 0.0013950975813615371 0.0021114075067746626 0.0042074121167850068 0.0013484600765668415 0.0027441282204339807 14:1 17:1 21:1 36:1 37:1 45:1 75:1 78:1 87:1 
-0.00058209640915403709 -0.0011544391714015103 -0.0010456963941617504 -0.00010955187297643724 -0.00062164199170024453 -0.00033421344330323546 -0.00015631329262419852 -0.00049724193729700904 -0.0010142988708882108 -0.00051883013507570167 -0.00040924920255164395 -0.0010158357093853886 -0.00027289747160119698 -0.0030770640285238625 -0.0010281235760586772 -0.0010863577531849361 0.0009334941872505202 3.0044637337238831e-05 0.00051577589413865851 0.00058744601876515592 4.0666068359949869e-05 0.00028845808911023548 0.00026365117925546269 14:1 24:1 42:1 46:1 77:1 87:1 97:1 
-0 -1.0875082233443083e-05 -0 -0 -0 -0 -0 -0 -2.731481679843422e-05 -0 -0 -0 -0 -2.898275176468339e-05 -1.8509314343666844e-05 -0 0 0 0 0 0 0 0 14:1 24:1 26:1 42:1 46:1 54:1 77:1 96:1 101:1 
-0.00026854592917541003 -0.00023747543129526677 -0.00023026506031093781 -0.00022763244745175628 -0.00031474718462412278 -0.00042810978289506478 -0.00044121537224853664 -0.00046648623320958246 -2.6225187894538457e-05 -0.00040121896596561891 -0.00091258704745617004 -0.0016199843503256429 -0.00034477124099218824 -0.00022331000156965833 -4.1557835172641604e-05 -0.0011276056813466688 1.1670179503364823e-05 0.0021393720561343897 0.00066541008585032561 8.2189521931890604e-07 0.0018070500537657158 0.00039362947126238485 0.00034855878055519801 14:1 24:1 26:1 42:1 46:1 54:1 77:1 96:1 101:1 
-0.00071185778345615042 -0.0039165170428694255 -0.0018343391237377841 -0 -0.00080429901500516786 -3.5370451093390907e-05 -0 -0.00067751211528588686 -0.0041530967873570288 -0.00060643558643860059 -0.00038372653252758792 -0.0017446638586329256 -7.9403970312329317e-05 -0.011246743097210354 -0.0041330049596622455 -0.0011665133491581708 0.004073309411535336 0.0044762858742982215 0 0.0038799164109105571 0.0016947340015575013 0 0 14:1 21:1 42:1 46:1 77:1 87:1 
-0.0018625190716062593 -0.0012462283592358987 -0.0048016661396147993 -0.0020312493465117049 -0.0019708639898649337 -0.0022789698758190319 -0.0019450748784252761 -0.0018865249853310504 -0.0011417752098877849 -0.0019514626229071767 -0.0035638814331047535 -0.0048223778711457572 -0.002154997993052517 -0.0021934547945131762 -0.0011451387115184385 -0.0046164483082729657 0.0011771353538114499 0.0054408564555856907 0.0044411134179516525 0.0011327184556308052 5.8625348737126025e-05 0.0022105338713230222 0.0022888885500591542 14:1 27:1 42:1 45:1 76:1 94:1 102:1 
-0.00039797172779891039 -0.00018459831297384718 -0.0012967062196972442 -0.00057362685025041439 -0.00040382848824665584 -0.0003513063519983973 -0.00039223757840024868 -0.00033604053355882729 -0.00071401886173150112 -0.00036562618833242883 -0.00077238511092435173 -1.875271279854993e-05 -0.00051679692138909613 -0.0012413530457266331 -0.000705759850787972 -0.00096712594396695321 0.00081127244717459275 0.0014929577752344435 0.0010652123326245536 0.00099024753930160303 0.0014771296813303101 0.00033652194514844432 0.00052258265303372535 11:1 14:1 28:1 42:1 46:1 54:1 71:1 77:1 97:1 101:1 
-0.0017820912299387117 -0.0010901897871043651 -0.0043599639683711538 -0.0022340659631990443 -0.0015176294866425001 -0.0024189309892573151 -0.0022508907777133392 -0.0017416379203121632 -0.00093152582455550688 -0.0017352723849837321 -0.0026953108523251911 -0.0043939100006572338 -0.0030091047062224324 -0.0024312158310220177 -0.00093949671375677239 -0.0043998196604357843 0.00099305563347594906 6.4433115855867215e-05 0.0058488269137452311 0.00094191676629405772 0.0063153550837588644 0.003159445263516351 0.0030266328827138478 14:1 42:1 46:1 53:1 77:1 95:1 
-0.0011451555847114216 -0.0018653406762461058 -0.0023995621228402701 -0.0013220076409070196 -0.0011807322997277312 -0.001435884993858155 -0.0012564631749920434 -0.0011825594502288138 -0.001954064825703223 -0.0012468036899361931 -0.0021579284280394875 -0.002357180611651397 -0.0013500906788562928 -0.0046332158167637638 -0.0019496736966034258 -0.0026107040203731534 0.0019655853586612307 0.0022844096178207757 0.0028444717861452464 0.00207685204839069 0.0044677952101846389 0.0014104502580733821 0.0014642356369661208 14:1 17:1 21:1 36:1 42:1 45:1 75:1 78:1 87:1 
-0 -5.3629319466822575e-05 -0 -0 -0 -0 -0 -4.3485432131576021e-05 -0 -2.2605929439048604e-05 -0 -0 -0 -0.00011448898198835518 -0 -0 0 0 0 0 0 0 0 3:1 12:1 14:1 42:1 46:2 52:1 54:1 55:1 56:1 62:1 77:1 85:1 97:1 101:1 
-0.0010917790221135436 -0.0009307972444574684 -0.00021280331386719129 -0.0015941471330165498 -0.0010293761289518824 -0.0014075334622186276 -0.0011248642273171184 -0.0019940295416815538 -0.0011970317769803601 -0.00086424773986502402 -0.00088375808446591636 -0.00017915256308426066 -0.0010239343484651569 -0.0014020759049178442 -0.0010595712401452351 -0.00057882709062011901 -0.00036676261109238771 0.0002011765767156121 0.0010540373227271931 0.001280573014540023 0.00015364552039641574 0.001030306589328917 0.0021625429025366027 8:1 14:1 37:1 46:1 52:1 61:1 68:1 70:1 
-0 -0 -0 -0 -0 -0 -0 -0 -9.7211582390373914e-07 -0 -0 -0 -0 -0 -0 -0 -0 0 0 0 0 0 0 20:1 35:1 37:1 46:1 68:1 87:1 
-0.00028045609072087596 -0.00079248530046436834 -0 -0.00063559577946224516 -0.00022398509950228258 -0.00019063797584422778 -0.00026976353979773045 -0.00017135252066457709 -0.0018547862820680616 -0.00035813418633670808 -0.00030241074230843729 -0 -0.00036044239908049352 -0.0012960459449816697 -0.0016133768305495308 -0 -0 0 0.00044628096563702327 0.0010688154123862849 0 0.00025994964934656804 0.00090993551811092337 11:1 28:2 37:1 46:1 69:1 71:1 88:1 
-0.001293584519301 -0.0021836205069203632 -0.0012020755727224974 -0.0021823872094504609 -0.0015420017384050789 -0.0020098151873443517 -0.0016835858192421878 -0.0020932544323671583 -0.0025684823652447845 -0.0013868352986696783 -0.0018737410331226086 -0.0011899551208949765 -0.0016333787680373496 -2.5514019116068696e-05 -0.002593968710238525 -0.0032861388480970141 -0.001194110656193213 0.001250202758808987 0.0019657638106425836 0.0023354751073286165 0.00082308123449509264 0.0013979707922768081 0.004049108104583689 14:1 20:1 28:1 35:1 37:1 45:1 68:1 
-0.0013555123923533305 -0.0023586056010190346 -0.0024995598053575842 -0.00067348051481905908 -0.0013864124279859291 -0.0011079057878725441 -0.00093107349657424996 -0.0027673660917035873 -0.0018231884991208806 -0.0012856951875316912 -0.0009737044601722595 -0.0025027372944905943 -0.0011268597482363648 -0.0018447604519005931 -0.0022111407077210275 -0.0069627683219353788 -0.0019646893950115876 0.0025058152874175678 0.0010982742587952233 2.2434864457762581e-05 0.0024451097757888385 0.0011913943934584237 0.0022277953724508305 14:1 37:1 46:1 51:1 87:1 88:1 
-0.0002564901292193949 -0.0021859599716467118 -0.00039784335893543269 -0 -0.00024159207056446833 -0 -0.00015716639053530774 -0.00064664578673201455 -2.5685388027450864e-05 -0.00027965225475972934 -0.00037713998015113611 -0.00017346680568182098 -0 -0.0017269721535910854 -0.0016701750733527046 -0.0010362390223803129 -0 0.00047961227748712911 0 0.0014782346034474959 0.00040051901996605974 0 0 2:1 24:1 36:1 37:1 46:1 54:1 68:1 101:1 
-0.00058145869175355936 -0.001825685158522993 -0.0001529697118889825 -0.00061162596111462156 -0.00058732420425409613 -0.00066555189989956189 -0.00049654824020412566 -0.0010609160591549325 -1.9817414790830705e-05 -0.00060223841877807976 -0.00063114941085208587 -7.540500061673484e-05 -0.00074350038702448811 -0.0018479242086268982 -1.9182303255295909e-05 -0.00034487734582185395 -0.00012068666139832557 0.00014831153610337974 0.00070985480577695243 0.0018357880346418437 1.1306114004808535e-05 0.00073475790360086107 0.0014384893108071103 10:1 11:1 18:1 27:1 28:1 29:1 32:1 37:1 48:1 49:1 50:1 51:1 71:1 86:1 
-0 -0 -0.0013854341841781246 -0 -0 -3.861591861058677e-05 -0 -0 -0 -0 -0 -0.0012166407715169477 -0 -0 -0 -0.0039941367168465046 -0.0011939801730762364 0.0015355938845082345 0 0 0.0015436702385233675 0 0 11:1 14:1 21:1 24:1 28:1 37:1 46:1 71:1 79:1 87:1 
-0 -0 -0 -0.00024281304456431912 -0 -0 -0.00023929760173432664 -0 -0 -0 -0 -0 -0 -0 -0 -0 -0 0 0 0 0 0 0 11:1 21:1 28:1 37:1 46:1 68:1 70:1 71:1 84:1 
-0.00021307344414217848 -1.2151427361893718e-05 -0.00033344538602279286 -0 -0.0001030973917840876 -0.00036840274213232813 -0.00037924041133819542 -0.00043809870333638907 -0.00094997276092453258 -0.00021740854953152542 -6.2967038963660635e-05 -0.00052409306325241535 -0.0009914352294766917 -0.00047097603988882392 -0.00013338193795093861 -0.00084926241060300487 -0.00054530039906818862 6.2166261158330016e-05 0.00094075654444245591 0.00059768117022014589 0.00028431438282931624 0.0011607372408038144 0.0018915162904396636 1:1 14:1 24:1 37:1 46:1 53:1 68:1 
-0.00025347801083427739 -0.0012681608307978875 -0.0022155982441040361 -1.8811083566144256e-05 -0.00032490990552048142 -0.00059742820210296717 -7.3237821796586392e-06 -0.00064034766937530669 -8.4046375047209992e-06 -0.00017580034747170499 -2.9706391484050733e-05 -0.0023432528307061433 -0.00047985929915462351 -0 -0 -0.0063445193947298268 -0.0028211400003362776 0.0022094481633106113 0.00042909746258348457 5.864722143173678e-05 0.0022930909649324645 0.00048876677743491404 0.00091123058645227798 14:1 21:1 36:1 37:1 46:1 69:1 87:1 
-0.001135602265515128 -4.8744573568809885e-05 -0.0010931891964161219 -0.00082826248572018864 -0.0010731526411962365 -0.00051093182934800006 -0.00097570943845883668 -0.0020198338161745355 -0.0033988396607113258 -0.0011876349777510556 -0.0010630316033857785 -0.001163485427125842 -0.00077130337950646259 -0.0027103272226978916 -0.0028857542357165239 -0.0030366024794353441 -0.00092311751379390954 0.0010916087379404093 0.00079833166813085565 0.0032555198273980309 0.0011840926305789338 0.00080817084306996918 0.0015612754074301467 21:1 36:1 37:1 46:1 64:1 87:1 99:1 
-0.00049649261064991243 -0.001671453907866056 -0.00049034924707177683 -0.00045387444595986626 -0.00047798544449380407 -0.00065169896948190852 -0.00061105727937017546 -0.0010257842339821926 -0.0017760334322656794 -0.00038994981412685437 -0.00060640818273830562 -0.0005085807308473063 -0.00098975489668948115 -0.0023637148152516429 -0.001765913836228048 -0.0013452565325295187 -0.00055024194508220459 0.0004548262195792482 0.00085915772400374968 0.0016933876955252647 0.0005486206196828288 0.00094285127736581399 0.0017384980573138327 14:1 17:1 35:1 37:1 53:1 58:1 67:1 68:1 81:1 85:1 
-0 -0 -0 -0 -0 -0 -0 -0 -0 -0 -0 -0 -0 -0 -0 -0 -0.0001773203070786096 0 0 0 0 0 0 14:1 21:1 36:1 37:1 46:1 68:1 87:1 
-0.00068886701978728782 -0.0028174041571893114 -0.0002912109422879087 -0 -0.00063593006273028922 -0 -8.5504118886896665e-05 -0.0013405365640346558 -0.0024591962790766072 -0.00078768557738754868 -0.00033880085272386244 -0.00033973602267464535 -0 -0.0024167186449080536 -0.0021418597172891333 -0.00079881016287056995 -0.00010817290928150436 0.00031519812513505622 0 0.0024879772390243747 0.00033762123224946605 0 0 23:1 37:1 46:1 68:1 87:1 89:1 
-0.0003142773465669093 -0 -0.00090789533861485461 -0.00020305650357767063 -0.00035186591644114214 -0.0011212451409782463 -0.00066183899717206778 -0.00058953833545180698 -0 -0.00089504935120038624 -0.00066012909278589927 -0.0016142176635074331 -0.00060297640173314205 -0 -0 -4.4100939007186238e-05 -6.3185102156567072e-05 -0 0.00068265760439876046 0 0.002111167482820663 0.00063549896533683897 0.00068265760439876046 14:1 26:1 40:1 46:1 54:1 77:1 96:1 101:1 
-0.0011915986037968444 -0.0043511391640333611 -0.0015547865573598775 -0.00028570202312604831 -0.0011909695302294409 -0.0017144418977472781 -0.00053793586991842616 -0.0011400898107143057 -0.012405397311701176 -0.0018862931954629813 -0.00049562765979507849 -0.0014476728138891914 -0.0011367798777717907 -0.0045200998360705796 -0.0042583767150747463 -0.0012785163423550308 -0.0044772299702174048 -0.0037700918703871878 0.001071437583654648 0.0039712808889232317 0.0021984964018612412 0.001091578843172867 0.001071437583654648 14:1 21:1 40:1 46:1 77:1 87:1 
-0.00017293292473700514 -0.00031006036258836978 -0.00022247387907440319 -0.00020744675132453792 -0.000163840876175475 -0.00029383267839499247 -0.00023131949826952499 -0.00016832953674965614 -0.0010742608250421267 -0.00018329389331710403 -0.00016486076700223437 -0.00082778129144200376 -0.00019470119255156877 -0.00023147861059375849 -0.00040134964348754727 -0.00028097287740476505 -1.0934696315619719e-05 -0.00048406207031252664 0.00014741524028619426 0.00047906632549499087 0.00046366712781791415 0.00015332522965027072 0.00014741524028619426 11:1 14:1 25:1 28:1 35:1 40:1 46:1 54:1 59:1 71:1 77:1 95:1 100:1 101:1 
-0.0020601381222609136 -0.0012853396165040493 -0.0052879825454008626 -0.0023109205192961809 -0.0021293327602254206 -0.0043353945084677759 -0.0021794310071001971 -0.0020722166085009588 -0.0030587453402651055 -0.0036519184528865586 -0.0023028560098172736 -0.0052386663205984344 -0.0024543010416396395 -0.00090838331811107938 -0.001148592531318322 -0.0052656847820855904 -0.005447986562381853 -0.0012488102374262375 0.0025900823763064531 0.0011308629720610372 7.8961001626750728e-05 0.0024923824879592524 0.0025900823763064531 14:1 27:1 40:1 45:1 76:1 94:1 102:1 
-0.00055731824851793866 -0.00022065089511855414 -0.0013609805047827602 -0.00088682002108628666 -0.00054365590288828702 -0.0012370029451912038 -0.00048575257497619924 -0.00047594664444860634 -0.0013888725856968397 -0.00093994342329924141 -0.0005192990023389632 -1.4397182430952033e-05 -0.00082455622177329672 -0.00054617686528207483 -0.00056128188739291464 -0.0018539362321170999 -0.0014992181884285435 -0.00091896754374980682 0.00074910348647431449 0.00077827345791874091 0.0017512422925219638 0.00079003954535649117 0.00074910348647431449 11:1 14:1 28:1 40:1 46:1 54:1 71:1 77:1 97:1 101:1 
-0.0010076632731313598 -0.0017737511545211819 -0.0021631214752911563 -0.0012555203535241028 -0.0010617414481245409 -0.002135916916076661 -0.0011103383758666121 -0.0010446687170611018 -0.0053217146676560424 -0.0018928342325603663 -0.001173822892437825 -0.0023516963181241224 -0.0011307686843310949 -0.0017297393307933824 -0.001899294892642042 -0.0023322089880849126 -0.0022811913899892927 -0.0019447238259714425 0.0012329447655855716 0.0020999279909637357 0.0043310154004972921 0.001165632322741853 0.0012329447655855716 14:1 17:1 21:1 36:1 40:1 45:1 75:1 78:1 87:1 
-0.0014300262149367106 -0.0021312322906828175 -0.004505834426615527 -0.0011035727509043118 -0.0013654200225464625 -0.001057663556891463 -0.00094958607212273084 -0.0013123484110358239 -0.0055586140211401139 -0.0022646111338938883 -0.0011685493721807878 -0.004499338460288882 -0.00076016477998961827 -0.0021885170643890228 -0.0020224334487626756 -0.0049420190260681387 -8.3358044754066688e-05 -0.0018873042803173635 0.00081501750964061651 0.0013012770422385184 0.0049225810430595582 0.00079570702888184688 0.00081501750964061651 24:1 26:1 40:1 46:1 77:1 87:1 88:1 
-0 -0 -0 -0 -0 -0 -0 -0 -0 -0 -0 -0 -0 -0 -0 -0 -0.0020652555780232818 -0 0 0 0 0 0 14:1 24:1 26:1 40:1 46:1 54:1 77:1 96:1 101:1 
-0.00041305778210239466 -0.0019213951424923974 -0.0023553776317758153 -7.0984139772979239e-05 -0.0010374121095922031 -0.0034894096383577562 -0 -0.0012368550225517819 -0.0017286747130481001 -0.0010097685223374629 -0.003563180242216852 -0.0024311464720858317 -0.002271618039290841 -0.00348640304329941 -0.0017879628821596033 -0.0023233960689357453 -0.0048960698096495473 -0.0017918367849677588 -0.0021638761238924613 0.0015319836929360644 0.0021258736707646217 0.0021569511396186203 0.0018129306243611133 13:1 14:2 42:1 65:1 
-0.0013140206146019663 -0.0013897603752688076 -0.0012632725411218318 -0.0027532106297286983 -0.0017824472696062249 -6.8185437693226686e-05 -0.0027946063803296162 -0.00052503359169559459 -0.0014939361048577368 -0.0016689884338176831 -0.0067675148199035414 -0.0011315478703416183 -8.6419047079842358e-06 -0.0015473417817669533 -0.0014774348129769563 -0.0012812297735960154 -0.0024240745133411439 -0.0014147586683366062 -0.0013927664638543613 0.0014520252360456162 0.00089819469061530306 1.5654509947460584e-05 0.0018361692648911131 13:1 14:1 28:1 42:1 45:1 63:1 70:1 
-0 -0.00069838088060850969 -0 -0 -0 -0 -0 -0 -0.00058701455583509254 -0 -0 -0 -0 -0.00064284739949717698 -0.00059496964575023561 -0 -0 -0.00068983270542003828 -1.0809980456340239e-05 0.00079999429487632317 0 0 0 4:1 11:1 13:1 14:1 28:1 35:1 42:1 45:1 47:1 70:1 71:1 
-0.0026645253665372182 -0.0028239326359315617 -0.0031379158863867902 -0.00026125400781153412 -0.0016327134464722355 -0.00021606816957931064 -0.0021517012201607046 -0.0025508007720087974 -0.0029011086032789419 -0.0020139795206078688 -0.0053992023738754754 -0.0031521003629674262 -0.007452954466198221 -0.006301211474056133 -0.002872969857347185 -0.003157273179548223 -0.0059039299763560329 -0.0029568074983999815 -0.0020478277152044169 0.0029326379457887569 0.0032218378288879517 0.0077890364000477406 0.0079428550862437244 4:1 42:1 53:1 
-0 -0 -0 -1.7461401754974203e-05 -0 -0 -2.9904492675544364e-05 -0 -0 -0 -0 -0 -0 -0 -0 -0 -0 -0 -0 0 0 0 0 4:1 11:1 13:1 14:1 28:1 42:1 45:1 47:1 70:1 71:1 
-0.0031182397654209307 -0 -0.00035972273416398751 -0.0033052950189749182 -0.0042538296145459556 -0.0033758824473177139 -0.0042876976841683895 -0.0045274762184831568 -0 -0.004091525497150506 -0.015865865681232823 -0.0003702239102825776 -0.0008869890614720291 -0 -0 -0.00035233225909743449 -0.00067651557444675583 -0 -0.00065932295058021258 0 3.8584187340059347e-05 0.00071571643202158737 0.0005521247045229353 4:1 33:1 42:1 45:1 47:1 73:1 92:1 
-0.00071028184946469531 -0 -0 -0.0044195590461619978 -0 -0.004393315944208458 -0 -0.00031846666750516334 -0 -0 -0 -0 -0.0026213835363462241 -0.00070432503037270479 -0 -0 -0 -0 -0 0 0 0.0024639490188456525 3.0751862006721486e-05 13:1 31:1 42:1 52:1 70:1 
-0.0031644079432214802 -0.0014151068444680634 -0.00085720583954422569 -0.0053121000583921931 -0.0030086469085928874 -0.0046325715677431895 -0.0021167965228361253 -0.0027610810899894563 -0.0014081814127324486 -0.0029799011940342423 -0.010604487747161877 -0.00083823607974581153 -0.0030620468471960539 -0.0024608983685585283 -0.0013769392871221604 -0.00085327706870327294 -0.0014802205566621881 -0.0014483189056151364 -0.0010140553323587668 0.0014694850249970613 0.00077211846689774163 0.0031618146172744791 0.004115665866127877 6:1 16:1 42:1 52:1 92:1 
-0.00048588828331824139 -0.00096279693981049985 -0 -0.00079648903666571641 -0.00082789912377704178 -0.00036657864060145697 -0.00046992023903530015 -0.00027934767026306862 -0.0019522273082689778 -0.00056866189869341074 -0.00043512245139651508 -0 -0.00053597883019999414 -0.0014961180083808263 -0.001847136573071169 -0 -0 -0.0010697467500781379 -0 -0.0006240901714829112 0 0.00086797944019832815 0.0006233600367319893 11:1 28:2 39:1 46:1 69:1 71:1 88:1 
-0 -0 -0 -0 -0 -0 -0 -0 -0 -0 -0 -0 -0 -0.00027886361651327605 -0.00015335638921345411 -0 -0 -0 -0 -0 0 0 0 15:1 21:1 36:1 39:1 46:1 64:1 87:1 99:1 
-0 -4.0781787861550825e-06 -0 -0 -0 -0 -0 -0.00015922138428627069 -7.2064561106382382e-06 -0 -0 -0 -0 -1.9599646293038682e-06 -0 -0 -0 -0 -0 -0 0 0 0 20:1 35:1 39:1 46:1 68:1 87:1 
-0.00065475966558477781 -0.0019447155893197333 -0.00083891631679297932 -0.00067570693526264466 -0.0012214239492596519 -0.00073569675656293089 -0.00058136568413484559 -0.00066800800093503156 -2.3650485585726548e-05 -0.00067564940336912202 -0.00068929753963022935 -0.00028509214820687551 -0.00081614813146138902 -0.0019753898121320805 -2.31753923529995e-05 -0.00035591187668539278 -0.00030154678955521589 -0.0018371694302155928 -0.00035040175147617054 -0.00077888647296173901 0.00022417667897285264 0.0015679034489242982 0.00077992470641738095 10:1 11:1 18:1 27:1 28:1 29:1 32:1 39:1 48:1 49:1 50:1 51:1 71:1 86:1 
-0 -0 -0.0013445488119594588 -0 -0 -0 -0 -0 -0 -0 -0 -0.00047924134095355401 -0 -0 -0 -0.00049791697807008547 -2.2503946774748862e-05 -0 -0.00055247433008517649 -0 0.00065852865886405427 0 0 14:1 36:1 39:1 46:1 68:1 87:1 88:1 
