svm_type c_svc
kernel_type polynomial
degree 1
gamma 8
coef0 3
nr_class 24
total_sv 257
rho -0.097284824753219243 -0.13238346656382491 -0.06271871707360846 0.00054447193621156415 -0.084426124492708129 0 0 -0.054408459806156377 0.0002994446175762234 0.00054447193621156404 -0.1373867731335843 -0.017085701913531037 -0.059697387050179559 -0.058873043059100016 -0.13240047130111365 -0.15641904409961607 -0.046352264190763284 -0.15884000963534214 0.010795015029258925 -0.065084043965585051 -0.33811055363371606 -0.0011057875194997685 0.0064092100626646307 -0.069906851198055425 -0.00074523847465081004 0.0531756306888575 0.063155977810100405 0.015898499973342996 0.058303653056069306 -6.103515625e-05 0.068307051601318378 0.12037178759389237 -0.070528703431111062 0.3825289624090632 0 0 -0.069810415594342479 -0.11315422837044944 0 -0.073726447535673229 0.20334897659852263 0 -0.35778370743503501 0.216646985131833 0.20334897659852263 0.084777485216958742 0.22565567326502109 0.13352736159381712 0.048532913636501085 0.12559052315196156 0.05637765275892586 0.12194762128853466 0.1697859329999552 0 0.25553169404966652 0.033223994684436792 0.056719900234652045 0 0 0.052548680563578073 0 0.27516918427187453 0.10740832724231361 0 0.5332776230504056 0.27625949884292944 0.051442078794751801 0 -0.44475457648052025 0.09575814919960797 -0.021243729086945589 0.045374323624141601 0.051442078794751801 -0.15692494396964471 0 -0.056620096406566463 -0.037895944965350356 -0.08471613384970951 -0.1189664059295865 0.0068650541060644955 -0.092994162783887765 0 0.0013035717703535816 -0.17207607586653284 0 0 -0.090949859543669756 -0.00013950892857157732 0 -0.056941181061693089 0 0 -0.13164989159217094 -0.03628885121258902 -0.073659286170791274 -0.061475222405983458 -0.12753386527086966 -0.14829457066420446 -0.048841645193485828 -0.14944544104584212 -0.00288352436218688 -0.12763396683364572 -0.20738180549622132 -0.13223780664622645 -0.0028641359245351185 -0.10242731582356954 0.076175117231212966 -0.15571097719215016 0.28310889716410054 0.088441184762535097 -0.13868664384710946 0 -0.10908579102779101 -0.087779312094780612 -0.13212399465014318 -0.1491642904116797 -0.056630142893156682 -0.24881049753979817 0.001012780820403537 -0.0644172837593113 -0.22019582920311737 0 0 0 -0.021784711661419279 0 0 -0.091424446299262413 0.14078712322280229 -0.028369694539975333 -0.046455708789029909 -0.04974753261834431 -0.080501971608822415 -0.0044048378741365279 -0.054353193393897388 0.21005268386129003 -0.014852946026028118 -0.16022902293995037 0.15936121143018386 0.19293407530813303 -0.060467694391992524 0.00039300405826330073 0 -0.12843482315934202 0.0098863784851808325 -0.062134710713845957 -0.064946228076229434 -0.22441248377694945 -0.14565690579485696 -0.099952656962498207 -0.14982224890253479 0.015432532334349597 -0.076197826796806895 -0.19691997419070037 0.011149090061111325 0.045350211651019899 0.13188202925502565 0.13102207297785076 -0.069869083145804131 0.20398544623427942 -0.00018289894833176999 0 -0.056343275021919499 -0.087588767049563587 0 -0.15891613491410858 0.21343696214306215 0 -0.12688741270871892 0.23084993469656265 0.21343696214306221 0.000244140625 -0.12588520090703698 -0.015081453550863983 -0.078882090663143015 -0.074719722095045099 -0.12193326724122266 -0.14356794659530239 -0.060461633036470334 -0.25637516426042783 0.013256566214553326 -0.076448233875716587 -0.19918813972362592 -0.010194970246544879 0.014449401850985203 -0.1734069220794586 -0.0363256986995713 -0.2781356389736887 -0.13246310006505652 -0.17076301135857955 -0.31487451610442885 -0.1157144192873058 -0.19381091424599742 -0.0099899297374089775 -0.12294119422334937 -0.26819638415146602 -0.036679928000705707 -0.0028461685979891543 0.26751694013587257 0.041798678354983791 0.1988584972602376 0 0 0.060818167324810775 0 0.28222948683901805 0.058897065230761089 0 0.27675377636010245 0.28305575914963904 -0.24112164122710658 -0.2081366166156034 -0.25587386627748604 -0.27622221317595264 -0.1788843960612721 -0.22715038698980414 0 -0.18988129209252042 -0.62707223506615239 0 0 0 -0.032891617020448363 -0.2056753448913379 0 -0.036253551456252781 0.49182152563208137 0 -0.092311532057166579 0.24850548360681543 0.24566544790114447 -0.056248548246423551 -0.096596297217572055 -0.00013107199999990265 -0.055611553368930214 0.21987074055242781 0 -0.12686309231725418 0.23542022335791682 0.21987074055242781 0 0.14921688271886438 0 0.27672502485977735 0.041074842407838569 0 0.27224553123707446 0.55211558347728185 0.087759508451198065 0.00014364217298290486 0.58842092977406912 0.082376202977778659 0 0.29288769563811318 0.29835318508595071 -0.060640999949498765 0.19006417950957652 0 -0.11915461881570753 0.20519074518087682 0.39413188128352977 0.25628667797069199 0.046035397178638096 0 0.23458968442450406 0.25623206937573195 -0.19932064260236096 -0.37191851353724864 0 0 -0.096020775803001876 0.42124377859841539 0.19973498254640104 0.36715863077788696 0.37247711732242483 0
label 10 16 20 1 8 3 7 6 15 9 11 19 4 17 13 18 23 12 21 5 14 22 2 0
nr_sv 11 15 9 8 11 8 11 11 14 11 11 9 8 15 16 9 8 16 8 8 15 9 8 8
SV
0.0020043912131903923 0 0.018658197252760373 0 0.006446311622569598 0 0 0.0018038990954175368 0 0 0 0 0 0.0018787708742469315 0 0 0.0011435361260355912 0 0.0068197949494982722 0.0066131571497359039 0 0.0017540001094497619 0.009780797372858108 28:1 41:1 45:1 70:1 92:1 
0.016743901897506526 0.0028594525125054371 0 0 0 0 0 0.0080723403211975901 0 0 0.0036173586251910497 0 0.0053780714911159976 0.0081100302939151186 0.002838069565492405 0.0047598151253404174 0.0078013639273320926 0.002831911574543911 0 0.0064977465136091053 0.0048442773614099342 0 0 14:1 35:1 41:1 70:1 91:1 92:1 
0.0018454076446501114 0.0042796410188146684 0.0031912571081729375 0 0 0 0 0.00078961012379498148 0 0 0.004485076677243011 0 0.00016451992313261621 0.00072324446184912465 0.0042795483737043767 0.0048683306444940013 0.00038816264183076454 0.0040737532943486586 0.0016848915586093174 0 0.0043843563953171382 0 0.0015447379463375888 14:1 41:1 45:1 63:1 70:1 82:1 92:1 93:1 
0.0019610632915091505 0.0027524920292869024 0.0082656571039123918 0.013610958884033226 0.010263385375302862 0 0 0.00032602396679591426 0.024496193727964986 0.013610958884033226 0.0028018555788474381 0.015775825988750117 0 0.00046369815218349949 0.0027420830207843215 0.0032790440092386399 0.0013498279338338044 0.0024667309424431932 0.0045483917760736963 0.00054051448541170776 0.0029565392943924763 0.0070745276254530615 0.0071590834750201509 14:1 29:1 30:1 33:1 41:1 43:1 45:1 72:1 73:1 82:1 92:1 
0.003641924946238005 0.0067098945577261423 0.0070183461126557033 0 0.0082521437388907454 0 0 0.0022305956246440437 0 0 0.0066161396633082625 0.035184844351420483 0.0042543669031706336 0.0022244975836745169 0.006685183122186418 0.0069482243644747779 0.002670742302523363 0 0.0095117229110707226 0.003005812205930341 0.014363762857072962 0.012630499867182598 0.011856493692376091 5:1 41:1 53:1 92:1 
0.047199991510774919 0.023347503722409749 0.020593903848388162 0.02524095533354357 0.029588700956665194 0 0 0.024574829931972787 0.041541431834340205 0.02524095533354357 0.022974297507572652 0.12431194433935257 0.026937234217158573 0.024515196197662965 0.023377134699910252 0.019164323347830421 0.026782247539657304 0.029011019197557664 0.031765019095777995 0.024278346813310137 0.030570836044106719 0.034297606303644541 0.02880798367849445 41:1 92:1 
0.012896508276212689 0.0066651886405877025 0.0020829639478111609 0 0.0031965633916182551 0 0 0.006350838712339775 0 0 0.0058355959120724261 0.0067613522992485426 0.0038673784955028253 0.0064481276355527108 0.0066765118308287318 0.007018325512224189 0.0065756744613115906 0.0068649688775931864 0.0034204609352880798 0.0047376367719149815 0.0077804429385989722 0.0025826981733867854 0.0028089905625796785 14:1 28:1 41:1 45:1 60:1 66:1 70:1 92:1 
0.0021983335064959908 0 0.0021820092716563939 0.0078263909203579209 0.0016512363031210933 0 0 0.0012556070712036096 0.05892352965146145 0.0078263909203579209 0 0.0151804239103539 0.0012997021459400509 0.0007812002821298875 0 0 0 0 0.0040798541861465079 0.0012222346911805843 0 0.0028583160437934342 0.0021667238313696682 7:1 41:1 43:1 52:1 72:1 90:1 92:1 
0.016182974462513225 0.006736943296431804 0 0 0 0 0 0.008846049197148027 0 0 0.0068319884202480904 0 0.0092657161773189271 0.0086883075074860368 0.0067451571300890705 0.0066737907223624908 0.0085333405990645813 0.0072054363290894631 0 0.0075669320477141037 0.012946733345092226 0 0 9:1 14:1 29:1 34:1 41:1 44:1 46:2 52:1 56:1 74:2 87:2 92:1 
0 0 0.0070274653931394733 0.078314225188411829 0.0071501509704265786 0 0 0 1.308890924150604e-05 0.078314225188411829 0 0.026158411636154483 0 0 0 0 0 0 0.0075017530409058862 0 0 0.007021024194667185 0.006338666166738699 29:1 33:1 41:1 45:1 56:1 57:1 73:1 82:1 92:1 
0.0081109167234608426 0.00085335453249010167 0.01767593270896118 7.4696736534633675e-06 0.019543052498537918 0.125 0.125 0.0048402499356445632 1.4757703115403283e-05 7.4696736534633675e-06 0.00073584389860706237 0.067830563551334072 0.0075789226148966415 0.0049603818392819762 0.0008603349549792744 0 0.0043349178431810907 0.00011090650323769503 0.018818442700558186 0.0039707035260408479 0.0048641408585948448 0.019780435035734529 0.017953893492015482 4:1 41:1 46:1 47:1 70:1 92:1 
-0.0098777658462371482 0 0 0.004919553542465596 0 6.3671683261786512e-05 0.0060122821558934551 0 0.006737333636726961 0.0018737125046545059 0 0 0 0 0 0 0 0 0 0 0 0 0 23:1 41:1 46:1 68:1 87:1 89:1 
-0.0010310317663724366 0 0 0 0 0.0017197335099223114 0.00012004241709383557 0 0.0011499763500182809 0.0018295617579313376 0 0 0 0 0 0 0 0 0 0 0 0 0 21:1 24:1 36:1 41:1 46:1 69:1 87:1 90:1 
-0 0 0.0038518637258817181 0 0.0010504963258551768 0 0 0 0.0009260394781085029 0 0 0.0043458207413345469 0 0 0 0 0 0 0.002813603214027488 0 0 0.0011796498110793912 0.002813603214027488 11:1 28:2 41:1 46:1 69:1 71:1 88:1 
-0.020260535461969483 0.008848900137876552 0.017861127562913415 0.012435178691161269 0.016299219060866409 0.014200498765260586 0.0088252716898555832 0 0.011270789354751847 0.015587213155212909 0.0088481614246037794 0.026934554260676053 0 0 0.0088400598286420481 0.0091095242401457131 0 0.0089605057124373302 0.015899392061594082 0 0.014309498155819344 0.011288604365644966 0.015899392061594082 14:1 20:1 28:1 35:1 41:1 45:1 68:1 
-0 0 0 0 0 0 0 0 0 0 0 0 0 0 0 0.00058022434649401496 0 0 0 0 0 0 0 14:1 21:1 36:1 41:1 46:1 68:1 87:1 
-0.0072838498924760083 0.0030735844754783592 0.0032000895071547181 0.0036492583675068052 0.00522144651587587 0.0049926805005761727 0.0044764649369147856 0 0.0028665575732134008 0.0047122619349715747 0.0030642208740299225 0.015848315752484497 0 0 0.0030678738925197704 0.003844325085548501 0 0.0025818876032543451 0.0067698934710005067 0 0.0093090526843011886 0.0074438555235661515 0.0067698934710005067 14:1 17:1 35:1 41:1 53:1 58:1 67:1 68:1 81:1 85:1 
-0.012257297626194048 0 0.0041383094315973661 0.0060669312294671122 0.0017546980883489617 0.0062342888244557408 0.0058243111057506283 0 0.0056571330863763019 0.0051930571708070673 0 0.0035787924108135988 0 0 0 0 0 0 0.0020930111410609837 0 0 0.0018731180381441333 0.0020930111410609837 19:1 24:1 36:1 41:1 46:1 69:1 87:1 90:1 
-0.0071745002326574145 0.024871230173537172 0.0012748445955766206 0.0048778178294642677 0.0065514485401205165 0 0.0047802501014923542 0 0.0036853468629173612 0.00095638638168611277 0.024854267738878964 0.014302782438683204 0 0 0.024830124059908813 0.029155626553222139 0 0.025033376399577669 0.0066058722716652238 0 0.068911294091340336 0.007430136831251823 0.0066058722716652238 14:1 21:1 36:1 41:1 46:1 69:1 87:1 
-0.0088252218178572466 0.0017847168313960776 0.0051061998805723768 0.0047597126756091833 0.0056601246702930475 0.0039606999298336977 0.0045149112460455242 0 0.0051157975683863641 0.0051331329204534343 0.0017515773343451664 0.01275591968136955 0 0 0.0017780675798266246 0.0015702552942216666 0 0.0020242256958678531 0.0060637312899469121 0 0.0018002742818691542 0.0062733504227142217 0.0060637312899469121 10:1 11:1 18:1 27:1 28:1 29:1 32:1 41:1 48:1 49:1 50:1 51:1 71:1 86:1 
-0.022911023370385974 0.022414349620045928 0.0054146770831040658 0.011976707157757473 0.00888130352421879 0.0084714714390749825 0.012420774003131067 0 0.011360493488199423 0.0086910608023427188 0.022439695399764845 0.018648979235206951 0 0 0.022439695399764845 0.017088434082510387 0 0.022328594502397648 0.0089872350395991257 0 0.058993772454988075 0.0098730966875352176 0.0089872350395991257 14:1 41:1 46:1 51:1 87:1 88:1 
-0.004086498722387635 0 0.0038670488565029533 0.001316030744133389 0.00019399342338086709 0.0044943244990004998 0.00091971380425179858 0 0.00071463943622213327 0.002365290371384447 0 0 0 0 0 0 0 0 0 0 4.1883171116721784e-05 0 0 11:1 21:1 28:1 41:1 46:1 68:1 70:1 71:1 84:1 
-0 0.00010489460006276819 0 0 0.0021359246277836189 0.00021169405580968617 0 0 0 0 6.3312493617330773e-05 0.014211302779440396 0 0 9.205739945330251e-05 0.0038686995389779202 0 0 0.0063970804571304198 0 0 0.0085224357621086714 0.0063970804571304198 1:1 14:1 24:1 41:1 46:1 53:1 68:1 
-0.017710278697462684 0.00021210301181116324 0.011865247998585089 0.0085618992472066124 0.011160815547946559 0.0096644729189118862 0.0089084472888577571 0 0.0074390880174420616 0.0072023023789337818 0.00019326432610623166 0.016169360467808046 0 0 0.00021655579443800757 0.0018784228495629678 0 0 0.0086652638956611523 0 0 0.0081093459619766481 0.0086652638956611523 8:1 14:1 41:1 46:1 52:1 61:1 68:1 70:1 
-0 0.018265837750601935 0 0 0 0 0 0.124969482421875 0 0 0.018353811189047234 0 0 0 0.018296042857987981 0.0098651469188235728 0 0.018519232276329674 0 0 0.052205029155306247 0 0 21:1 24:1 41:1 46:1 68:1 87:1 
-0.0013674100385517812 0 0 0.00062930634576794633 0 8.6602300216092676e-05 0.0020553055274398794 7.62939453125e-06 0.001331718044689009 0.0014549378595612029 0 0 0.125 0.125 0 0 0.125 0 0 0.125 0 0 0 2:1 24:1 36:1 41:1 46:1 54:1 68:1 101:1 
-0.010542304669615683 -0.015310976155541379 0.0057826406053144881 0.017811767852553128 0.0026068611818143017 0.0055523274902721416 0.0096213820483802646 0.014740091077476071 0.0098493193391457415 0.007654885930591394 0 0.0041680950179631181 0.015987096110226286 0.01479706238154814 0 0 0.014002641042550237 0 0.0044215112050341515 0.024051260128277973 0 0.0086485598244979978 0.0044669674616694905 24:1 26:1 39:1 46:1 77:1 87:1 88:1 
-0 -0.00266512871333027 0 0 0 0 0 0.0035010236996763228 0 0 0 0 0.0019138738008146155 0.0035572238220570539 0 0 0.0036485140423360364 0 0 0.010091448237755254 0 0 0 11:1 14:1 25:1 28:1 35:1 39:1 46:1 54:1 59:1 71:1 77:1 95:1 100:1 101:1 
-0.0092849498503508078 -0.014692242787896196 0.0097246844847021455 0.016992527906583302 0.01129113092208142 0.0090641108501834673 0.0095008404847663295 0.015575356557522827 0.010040211394755362 0.0097948180217466655 0 0.010471470025139758 0.014224534402674181 0.015596369944171545 0 0 0.016073977938936404 0 0.011138445888797298 0.04555880249749731 0 0.021100982406782327 0.01114665583101865 14:1 17:1 21:1 36:1 39:1 45:1 75:1 78:1 87:1 
-0.013372007358017335 -0.0021234697636707718 0.01523471118925419 0.01978479365236786 0.017988060006509897 0.016052476777284098 0.012983670010797215 0.00066309518874402794 0.012997138247279558 0.011011800429707249 0 0.022891483120554511 0.0017112227128895793 0.00068085391029154823 0 0 0.0028679191010571093 0 0.022446070232529973 0.0054591766164437117 0 0.046922842731961151 0.022605286107180399 14:1 39:1 46:1 53:1 77:1 95:1 
-0.014271987056762721 -0.0090803992672344111 0.016029793926911558 0.026891552205703908 0.017903513211733099 0.014973809509293015 0.014364842695610442 0.0082318683908770545 0.014945639553527052 0.016601780111723294 0 0.016764347712908245 0.0062164762490232815 0.008251980269942975 0 0 0.0088292486868147852 0 0.017813046634454488 0.021243985443171534 0 0.033807780681653334 0.017842470035103201 14:1 27:1 39:1 45:1 76:1 94:1 102:1 
-0 -0.0033145039491221861 0 0 0.0013075354003954192 0 0 0.0021014452676175071 0 0 0 0 0.0024404204781571541 0.0021292374244318603 0 0 0.00078183196491701747 0 0 0.0011697929008066543 0 0 0 14:1 24:1 39:1 46:1 77:1 87:1 97:1 
-0.0001804758488710978 -0 0 0.001529758880251632 0.003889056852722607 0.0021328481186507413 0.0025027748063787933 0 0.0015482928080814311 0.0029022918950899266 0 0.0020931187606032346 0 0 0 0 0 0 0.0018442935789693641 0 0 0.0050517821197726635 0.0018435346689061507 14:1 26:1 39:1 46:1 54:1 77:1 96:1 101:1 
-0.0043849560466042298 -0.00021687350271537941 0.0046420475905183259 0.007808879164619963 0.0023203799939660952 0.00308200914389168 0.0036442970701314314 0.0032242065901958885 0.0039657401709602639 0.003934759579242407 0 0.0043247038512937491 0.0030363961503512881 0.003381937033620731 0 0 0.0067532723547695638 0 0.0045364765472292448 0.016085107940157672 0 0.0048540697120076949 0.0043282147787005176 11:1 14:1 28:1 39:1 46:1 54:1 71:1 77:1 97:1 101:1 
-0.0021677894800306349 -0.032172022461299361 0 0.005975502282206448 0 0 0.0020516360082925701 0.033258920928033217 0.0015431605663960215 0 0.125 0 0.034538997830340867 0.032918746362241041 0.125 0.125 0.028090419631007592 0.125 0 0.078330762128300757 0.125 0 0 14:1 21:1 39:1 46:1 77:1 87:1 
-0 -0.01063912487842333 -0 0 0 0 0 0.0089515083191044446 0 0 0 0 0.0054696667536538188 0.01729382504188582 0 0 0.01046820303590819 0.0019223777513062736 0 0.010844086710286626 0 0 0 4:1 11:1 13:1 14:1 28:1 35:1 38:1 45:1 47:1 70:1 71:1 
-0.030611479543994999 -0.0023235233148253482 -0.0074549885822694489 0.037717013793427782 0 0.13881907252646622 0.043249634173443005 0.0028315203089290799 0.036982162042571098 0.037717013793427782 0.012579384071580537 0 0.0015005896720170033 0.0046720955704899047 0.0074554990409563095 0.0070220329986149434 0.0025201296155948783 0.0074050048930036309 0 0.0024621116713158591 0.0052163509659859282 0 0 4:1 33:1 38:1 45:1 47:1 73:1 92:1 
-0.011033974068251216 -0 -0.0031804274807521833 0.0044638259408431927 0 0.012665156435542177 0 0 0.0043823288836406845 0.0044638259408431927 0.0065097881961355113 0 0 0 0.0031739008738005535 0.0021524016050346252 0 0.0019459999605327518 0 0.00030943080586798066 0.0021509944226587286 0 0 13:1 30:1 38:1 45:1 53:1 70:1 
-0.0029115652770219246 -0.0053226639857384683 -0.013100683867372157 0.00057648070919760828 0 0.035239310890236346 0.016800839139042647 0.0055476686038094221 0.0020653186983828837 0.00057648070919760828 0.022836101296680483 0 0.012536348228868371 0.0097566417503419847 0.013112404026412271 0.014334677762187826 0.0049021553947873383 0.0061588013419551571 0 0.0037843464806134176 0.015323962637850026 0 0 4:1 13:1 14:1 38:1 53:1 70:1 
-0.014750461172089288 -0.016405780634616049 -0.013787727515874051 0.023684835680514087 0 0.063657367018198172 0.0054384356078723351 0.017134257134463884 0.023016758880718278 0.023684835680514087 0.020999838448080479 0 0.0087977006284619443 0.030584842338814016 0.013782167824658261 0.014138805409466562 0.016496433046095691 0.015611817641064429 0 0.016294010262826723 0.0098610675465346034 0 0 13:1 14:1 28:1 38:1 45:1 63:1 70:1 
-0.0017264408189361681 -0.0031584199423836685 -0 0 0 0 0.0010854885677107342 0.0026013575763756723 0 0 0 0 0.0065911125515401153 0.0049630714570623345 0 0 0.0033849289726069366 0 0 0.0037393242794436076 0 0 0 13:1 31:1 38:1 52:1 70:1 
-0 -0 -0 0 0 0 0 0 0 0 0 0 0 0 0 0 0 0.0015608463552689786 0 0 0 0 0 4:1 11:1 13:1 14:1 28:1 38:1 45:1 47:1 70:1 71:1 
-0.025661811867164177 -0.018729895885901456 -0.013890050350432868 0.023441111505938864 0.125 0.060341769735778268 0.023167641357283407 0.018509777516869271 0.023436832415097222 0.023441111505938864 0.023200110974416526 0.125 0.018122549125743067 0.032936121928608821 0.013881356155922986 0.013094877929915628 0.018969611205320501 0.014278626592058346 0.125 0.019115039173007262 0.013146742048549391 0.125 0.125 6:1 16:1 38:1 52:1 92:1 
-1.4939347306931201e-05 -0.00034878278036764811 -0.0017899259086103768 -0.021333363855033781 0.024131618411362042 0 0 0 0 0 0.0010435002987159718 0.024000481327132322 0 0 0.00099392066063818969 0.0013314285460248293 0.00027729672075808045 0.00085737016319079344 0.02272819627261723 7.1900077723703083e-05 0.00017339563084306693 0.085219661621710491 0.022725041793787069 4:1 14:1 29:1 33:1 39:1 43:1 45:1 47:1 72:1 73:1 92:1 
-0 -0.00093725445860359954 -0.007657686953914858 -0.0069148040680724245 0.0028183232659621457 0 0 0.00045254212781098852 0 0 0.0044801775850813108 0.0018464383993805334 0.00055013325974878472 0.00043948979048716714 0.0042851377386899838 0.0048255040633943831 0.00052877703491252038 0.0040384515386773555 0.0054291642784027429 0 0.0027233562110216972 0.0072322845560161744 0.0054297595483639742 14:1 39:1 45:1 63:1 70:1 82:1 92:1 93:1 
-0.078298363801836024 -0 -0 -0.0021637480427908551 0.0028613408871224293 0 0 0 0 0 0 0.0011369348946130113 0 0 0 0 0 0 0.00067913693087610959 0 0 0.0050039683988247633 0.00068814570240649108 29:1 33:1 39:1 45:1 56:1 57:1 73:1 82:1 92:1 
-0.0077984705988638483 -0 -0 -0 0 0.024002511160714307 0 0 0 0 0 0 0.00080695886211046655 0 0 0 0 0 0 0.0012575500716600059 0 0 0 7:1 39:1 43:1 52:1 72:1 90:1 92:1 
-0 -0.0063153640552041394 -0.010270383088826256 -0 0.0016825404860573621 0 0 0.0056056299028681006 0 0 0.0049784512999868887 0.0016866664937968561 0.0039705765090781902 0.0057265391066629078 0.005859375 0.005859375 0.0059941747356371871 0.0059361992419425464 0.00085728990388085917 0.0081074743614363565 0.0042194664001581278 0.0053951753702848083 0.00082761292390225703 14:1 28:1 39:1 45:1 60:1 66:1 70:1 92:1 
-0 -0.0023581663811037424 -0 -0.026982977797294853 0.0062381152325069293 0.10089285714285716 0 0.0040745782959918262 0 0 0 0.0015906473039169566 0 0.0040879783216469616 0 0 0.0030404653632111092 0 0.014461466295986474 0.01616837623420174 0 0.010536191207561734 0.014492877896513915 28:1 39:1 45:1 70:1 92:1 
-0.013603325967092912 -0 -0 -0 0 0 0 0 0 0 0 0 0 0 0 0 0 0 0 9.0091860177251966e-05 0 0 0 14:1 29:1 30:1 33:1 39:1 43:1 45:1 72:1 73:1 82:1 92:1 
-0 -0.0028693845236696176 -0.010516508260073176 -0 0 0 0 0.0028906979458450058 0 0 0.0060832096227738264 0 0.00040844769626125811 0.002879895096502169 0.0058903668145649643 0.0066960121197986323 0.0027171227876389382 0.0057386952099492379 0 0.0025679370363381492 0.0044625830589601024 0 0 14:1 22:1 39:1 43:1 45:1 72:1 83:1 92:1 
-0 -0.0096453033412840419 -0.0046921793297383047 -0 0.00034875429090573527 0 0 0.0091571229067312389 0 0 0.0034802220565696321 0 0.0067217836307168401 0.0091690990963223407 0.0025493826247763021 0.0042732523458375582 0.0088489563350541631 0.0025532119189316397 0 0.013807939308257033 0.0031032208140053968 0 0 14:1 35:1 39:1 70:1 91:1 92:1 
-0 -0.0087716496800377877 -0.012083386977094459 -0 0 0 0 0.0090303637274697646 0 0 0.0069303082655439302 8.8811964213921407e-05 0.0097844120470900482 0.0089048898743038403 0.0068282094884801799 0.0067756343061824683 0.0087532136237884802 0.0071624755555891612 0 0.014549299198026016 0.0081427717128313218 3.7989204554063214e-05 0 9:1 14:1 29:1 34:1 39:1 44:1 46:2 52:1 56:1 74:2 87:2 92:1 
-0.025284900284900283 -0.027946490610269065 -0.049784711426028805 -0.032488373866729627 0.050975542971322819 5.2315848214255598e-05 0.125 0.027735653792127661 0.125 0.125 0.027297520360458162 0.059742981497347372 0.035631518531404525 0.027442421633634386 0.028134947216699995 0.023462306594346415 0.0292947160938027 0.026875995646155632 0.047226147991733858 0.052437432224363978 0.026691766593653573 0.20999742669109009 0.047220147467986237 39:1 92:1 
-0.032458543295062238 -0.0037499645409766057 -0.0093948877725763026 -0 -0.040869715456166425 0.040376714591738236 0.043961079008657346 0.0068866685522291611 0.13810871454820203 0.040813980715642288 0.0093469210747929299 0 0.0027943493354296283 0.0035831145035403705 0.0091021977011237053 0.0091218424998621515 0.0036777655453531688 0.014829796142805128 0.017361445625366508 0.0028372630301722206 0.006527227835994456 0 0 4:1 33:1 40:1 45:1 47:1 73:1 92:1 
-0 -0 -5.4546169244112434e-05 -0 -0 0.0014301977740622865 0 0 0 0 0 0 0 0 0.00090995554979156584 0.00029943136281414305 0 0.00516440003342351 0 0 0 0 0 4:1 11:1 13:1 14:1 28:1 40:1 45:1 47:1 70:1 71:1 
-0.013517161694721509 -0.0068135337644000026 -0.012378756855238817 -0 -0.00746554743981991 0.0058224876502165667 0.0037798509962759675 0.01260566794400679 0.029361608010253105 0.0077505498816878788 0.012182214796938432 0 0.0042211194433118089 0.0067400170001010191 0.012460879156133744 0.011988586243808476 0.0068426226621397029 0.013895101080553134 3.9016921902009194e-05 0.0068128371207590438 0.0089571104838392125 0 0 13:1 30:1 40:1 45:1 53:1 70:1 
-0 -0.0098416391146419601 -0 -0 -0 0.0017322594824571705 0 0.018156967572953542 0 0 0 0 0.0040454903124298299 0.0098799552902056106 4.1390258724591503e-05 3.6100502353253712e-05 0.01012668638953204 0.0025944801164101482 0.014745992707600382 0.0116517965863804 0 0 0 4:1 11:1 13:1 14:1 28:1 35:1 40:1 45:1 47:1 70:1 71:1 
-0.025333462433574563 -0.015651861903599958 -0.010413213354886427 -0.125 -0.023649337322773325 0.017948918924543002 0.022302521658496464 0.028528087835076914 0.083429779676535878 0.02360450383407758 0.010277610765056927 0 0.015485274531994811 0.015286298896747664 0.01054047349688721 0.010031352746827357 0.015849715591692865 0.019750872906273094 0.076382257217732188 0.016266048491871219 0.010193612059056488 0 0 6:1 16:1 40:1 52:1 92:1 
-0.0084205974599855238 -0.019889186481940282 -0.024215865911657985 -0 -0.016160811060269144 0.0036093209738580156 0.01099608056034361 0.035936363926739837 0.05518648674303106 0.016137731197793825 0.024359530000821122 0 0.016332391434206651 0.019728386029014517 0.023722612665262419 0.024536123327460784 0.019528723697566218 0.038331575379670503 0.0060079898773276906 0.017403904276926955 0.019608291910239425 0 0 13:1 14:2 40:1 65:1 
-0.0033897768648632515 -0.0029632845191310091 -0 -0 -0.00091082426621066209 0 0.0014169157846092757 0.0051942915848170856 0 0.00088500131234506209 0 0 0.0053057733055189276 0.0024721118168557076 0 0 0.0030097195295760832 0 0.010338231660285274 0.003254103923312246 0 0 0 13:1 31:1 40:1 52:1 70:1 
-0.0029720031089251588 -0 -0.00084926750561919616 -0 -0 0.016359802688143577 0.0084295666921454706 0 0.0050237523973969255 0 0.001058824677349861 0.125 0.0073092606770907608 0 0.00042613131322938265 0.0010726427090571387 0 0 0.00010193312839163623 0 0.0049134635481102784 0.125 0.125 4:1 13:1 14:1 40:1 53:1 70:1 
-0 -0.0017977364082344563 -0.0024917500676844141 -0 -0 -0 0 0.0014229423401457271 0 0 0.0041710475310925291 0 0.001341899313404178 0.0024538347984649289 0.0024771754594505799 0.002500976496864525 0.0022664914010191821 0.0026056559972914696 0 0.0018856291207905596 0.0020921430614803966 0 0 14:1 29:1 30:1 33:1 38:1 43:1 45:1 72:1 73:1 82:1 92:1 
-0 -0.010019065326471571 -0.016632935089609283 -0.058479357477132135 -5.2315848214276414e-05 -0.021869534911353114 0 0.011067726406342399 0 0 0.028091275439768647 0.024056951269748487 0.014603131400446581 0.018515523182718849 0.016861684638809396 0.015960581701907738 0.011987887999991497 0.011117938907932886 0.019311272652551701 0.011594992932241293 0.016476836834316201 0.024880922340453547 0.020018492925575861 5:1 38:1 53:1 92:1 
-0 -0.006452488086186643 -0 -0.088390438247772096 -0.10089285714285715 -0.014487840684392458 0 0.0049483895843113433 0 0 0 0.011904623493288359 0 0.0095470830544335632 0 0 0.0058048836831397681 0.0034904421431136276 0.026747247778743006 0.0086909260871174433 0 0.01498180465867875 0.02583875299758975 28:1 38:1 45:1 70:1 92:1 
-0 -0.00048022402369691234 -0.0038094205112891143 -0.025777946728780816 -0 -0.0025253243884957948 0 0.0004083674320870181 0 0 0.006648886428846105 0.0017381295952724552 0.00066904948479590417 0.00079364818851708084 0.0038191510211533718 0.0041081420768173376 0 0.0029863396002177776 0.0069004467006615515 0 0.0019711826488177215 0.001960431268914748 0.0067582922112564177 14:1 38:1 45:1 63:1 70:1 82:1 92:1 93:1 
-0 -0.0027656746571014454 -0.0081340854248555961 -0 -0 -0 0 0.0037625475126474182 0 0 0.013751441457867051 0 0.0014629040385676624 0.0065327118041697829 0.0080774360321851559 0.0083065122805699807 0.0036425756534249291 0.0079827432195618553 0 0.0023510251772153865 0.0062211682930874814 0 0 14:1 22:1 38:1 43:1 45:1 72:1 83:1 92:1 
-0 -0.0064916495991870684 -0.0025123382423540464 -0 -0 -0 0 0.006708349060791409 0 0 0.002333714697566892 0 0.005200258135208761 0.011607262877724969 0.0035259778259289086 0.0021526873541960921 0.0064983448559239 0 0 0.0055197166592126454 0.00087893865953131455 0 0 14:1 28:1 38:1 45:1 60:1 66:1 70:1 92:1 
-0 -0.013081631392588047 -0.0057478196333897473 -0 -0 -0.0016425366483704235 0 0.012610221138001379 0 0 0.010066290844306946 0.0016058619034503977 0.010135421865768147 0.022300758941783592 0.0056487562937681847 0.0061553316278228805 0.012600359231478097 0.0060005913033348455 0 0.011471247623693913 0.0053844999335143683 7.4592451429022534e-05 0 14:1 35:1 38:1 70:1 91:1 92:1 
-0.125 -0.0083594230686963606 -0.0068192054798005969 -0.053874212694962842 -0 -0.020373516668659605 0 0.0086807227711042517 0 0 0.011203459171549702 0.022044233335825773 0.013520196868540856 0.015791383401142969 0.0068082289573586858 0.0053292631674759653 0.0085228681834110167 0.0060115514948544503 0.014434683038325059 0.0077612734265148278 0.008399901697421143 0.0205313467103732 0.014998686430261315 4:1 38:1 46:1 47:1 70:1 92:1 
-0 -0 -0 -0.079637467667867778 -0 -0.023877562633909222 0 0 0 0 0 0.024170323022369978 0 0 0 0 0 0 0.021946178136624365 0 0 0.023177471883798831 0.021734821569486581 4:1 14:1 29:1 33:1 38:1 43:1 45:1 47:1 72:1 73:1 92:1 
-0 -0.0046522458641609374 -0 -0 -0.024002511160714307 -0 0 0.0039243449373527984 0 0 0 0 0.0053455622065515006 0.0059474939604320142 0 0 0.0027404001873838888 0.00021677716139029948 0 0.0044714808372960753 0 0 0 7:1 38:1 43:1 52:1 72:1 90:1 92:1 
-0 -0 -0.0047100274405923459 -0.0045632537897054978 -0 -0.0025033861498382388 0.125 0 0.125 0.125 0.0089818145053050871 0.0017350427541143539 0 0 0.0035856632605452297 0.0057253087571403809 0 0.0075636133416183519 0 0 0.0044374105161865234 0.0019834239276945997 0.00024694791160359461 14:1 38:1 45:1 60:1 66:1 70:1 92:1 101:1 
-0 -0 -0 -0.020323153914422482 -0 -0.022035184166454239 -0 0 0 0 0 0.020716484231811844 0 0 0 0.00059745082082890183 0 0.00018539832582205212 0.020478546235273249 0 0 0.020466598960279136 0.080045931916967572 4:1 14:1 29:1 33:1 37:1 43:1 45:1 47:1 72:1 73:1 92:1 
-0 -0.0087063133029895157 -0.0066129420060319043 -0 -0 -0 -0 0.0090266450609759932 0 0 0.0067218586152211915 0 0.0093180987493761778 0.0088265618213382181 0.011866208316453063 0.0066903071174047798 0.016515610564349876 0.0070646529695208562 0 0.0078374562971113074 0.0077961496313596239 0 0 9:1 14:1 29:1 34:1 37:1 44:1 46:2 52:1 56:1 74:2 87:2 92:1 
-0 -0.00058107999841242356 -0.001272665679732688 -0 -0 -0 -0 0 0.012537250125592684 0 0.0012803199657697884 0 0 0 0.0022279738795428594 0.001128961087957495 0.0010831992944377101 0.00090637731926598809 0 0.000525079774930258 0.00043110655693590468 0 0 14:1 29:1 30:1 33:1 37:1 43:1 45:1 72:1 73:1 82:1 92:1 
-0 -0.0035560776057094443 -0.0064769437449002498 -0 -0 -0 -0 0.0039764159192258296 0.0090718367499854138 0 0.0065880837329975418 0 0.0017840932606136705 0.0038502500249167721 0.011518633313166627 0.007063262803053849 0.0065920097627849847 0.0061037182004580071 0 0.0025431337416669075 0.0049665754214667703 0 0 14:1 22:1 37:1 43:1 45:1 72:1 83:1 92:1 
-0 -0.025869956951665406 -0.021261488005697722 -0.029202173729800718 -0.125 -0.0368751873826089 -0 0.024852301959638771 0.040780108457828375 0 0.020705528498909415 0.043051299044640848 0.027364605505181088 0.02492401826910284 0.037501210938471592 0.01725316240937564 0.050045214701400213 0.026730351840577284 0.042263729208676812 0.026560197746115934 0.016481355754572116 0.042083482921097148 0.16247792759250695 37:1 92:1 
-0.125 -0.0051885549634063206 -0.0016542526394281694 -0.020390002658706805 -0 -0.015383688169966171 -0 0.0060159997855860937 0 0 0.00149122515506876 0.014167458961602245 0.0078222032892884541 0.0061006295412123343 0.0031086848147390445 0.00050503229509479928 0.010116154934819153 0.00072312177535863522 0.014178467502344002 0.0061240904140707287 0.0034609116005849148 0.014063166036260864 0.053497329641965873 4:1 37:1 46:1 47:1 70:1 92:1 
-0 -0.0022536448040959165 -0.0064689795098628981 -0.0084004195695213217 -0 -0.0060706771591628531 -0 0.0029892956653563589 1.7347234759768071e-18 0 0.0064394431908599038 0.0091616603813504446 0.0043246380103724013 0.0027614912049563145 0.012087279827000978 0.0067025267280996122 0.0056468317800527513 0 0.0090060174872441372 0.0042199612967066804 0.0085136552497729091 0.0098021634777416943 0.036892567955739961 5:1 37:1 53:1 92:1 
-0 -0 -0 -0 -0 -0 -0 0 0.062542087542087552 0 0 0 0.00045071034553093589 0 0 0 0 0 0 0 0 0 0 7:1 37:1 43:1 52:1 72:1 90:1 92:1 
-0 -0 -0 -0.0070780722496017702 -0 -0.006166845589015848 -0 0 2.499112311019913e-05 0 0 0.0045908999698332188 0 0 0 0 0 0 0.0048352222369780068 0 0 0.0048264934416474697 0.01867392208617168 29:1 33:1 37:1 45:1 56:1 57:1 73:1 82:1 92:1 
-0 -0.0031307363022209495 -0.007352860361422661 -0.0043482167232990372 -0 -0.0043544322333201229 -0.125 0.002502601958926876 0 0 0.0070971773765513054 0.00092970806566783815 0.0013958537211752114 0.0028874057827905811 0.012300928574000749 0.0081505904043237803 0.005637620432300248 0.0080460292962852824 0.0020631106479237081 0.0018421713591428499 0.0054137030958562767 0.0014312317271574478 0.0087314474364165277 14:1 37:1 45:1 60:1 66:1 70:1 92:1 101:1 
-0 -0.009571410348226693 -0.003569311177280743 -0 -0 -0 -0 0.0093229607416167367 2.8555719372211011e-05 0.125 0.0041384905068219263 0 0.0061354532430120037 0.0090715476306431637 0.0063136320339554743 0.005279062009912871 0.01683732966091564 0.0033600165656918258 0 0.008057818690456138 0.0031190419338725309 0 0 14:1 35:1 37:1 70:1 91:1 92:1 
-0 -0 -0.018827636405497505 -0 -0 -0.0038488799446101149 -0 -0 0 0 0.019064846733037634 0.0014318451334492251 0 0 0.018788525803232155 0.022724823239825335 0 0.053555144338389704 0.00078927420078651086 0 0.019491787106162093 0.0015063215777205556 0.00078927420078651086 14:1 21:1 36:1 40:1 46:1 69:1 87:1 
-0.0035626371041316803 -0 -0 -0.0078319318666112605 -0.0031118420398569247 -0.0059597410037169393 -0.0040291175834910381 -0.0020217544429610105 0.008037327067567733 0.003925367768268853 0 0.0053406088562247805 0 0 0 0 0 0 0.0059442104285945983 0 0 0.0040526268072920554 0.0059442104285945983 11:1 28:2 40:1 46:1 69:1 71:1 88:1 
-0.0044888492238323334 -0 -3.5438241265298587e-05 -0 -0.003929907782433361 -0 -0 -0.0049881107414240433 0.010162117293362532 0.0013295428627149131 0 0 0 0 2.9418514803154599e-05 9.8529081324549774e-05 0 0.00025296271777709559 0 0 4.9219646686408095e-05 0 0 23:1 40:1 46:1 68:1 87:1 89:1 
-0 -0 -0 -0 -0 -0 -0 -0 0 0 0 0 0 0 0 0.0020726080520998827 0 0 0 0 0 0 0 14:1 21:1 36:1 40:1 46:1 68:1 87:1 
-0.010108837404034975 -0 -0.0011908136016252693 -0.012722120335348039 -0.0090930202903059584 -0.020632761520221778 -0.010290262109889679 -0.0094437046860070158 0.014474860787767435 0.0079877384241727224 0.00083867819311876277 0.007933260931039644 0 0 0.0011942307469568118 0.0026421842823687426 0 0.0031435029578604271 0.0084588784000157943 0 0.00066307522728628154 0.0078597669258566177 0.0084588784000157943 8:1 14:1 40:1 46:1 52:1 61:1 68:1 70:1 
-0.00034605850797590949 -0 -0 -0 -0 -0.0025163462990045902 -0.0017186510536410086 -0.001219250065751142 0.0012124580296031403 0 0 0.006895261351264022 0 0 0 0.0026329078192210429 0 0 0.0062796294821853759 0 0 0.0084615348839893849 0.0062796294821853759 1:1 14:1 24:1 40:1 46:1 53:1 68:1 
-0.011044390355901925 -0 -0.0091176210780700359 -0.018307682398533007 -0.013350324905740257 -0.03133902764405766 -0.014339128354076126 -0.0095903532720597734 0.022576702768544898 0.016514830757826667 0.0089266958759283282 0.013595868006736234 0 0 0.0090875332805984491 0.0093106286386404336 0 0.026225578282203843 0.016359166606966784 0 0.0061131184341173079 0.011638270651254111 0.016359166606966784 14:1 20:1 28:1 35:1 40:1 45:1 68:1 
-0.0041174966711468959 -0 -0.003751920659096619 -0.0036255878885663598 -0.003932159363016721 -0.010721356529651534 -0.0052498578874140287 -0.0046755682174175126 0.0058400399722838914 0.0051397147532150763 0.0037708445871715429 0.0083342528961898154 0 0 0.0037649019843798647 0.0045237639663069876 0 0.010283085633757693 0.007138482150274573 0 0.0040767657925999384 0.0080341206184289526 0.007138482150274573 14:1 17:1 35:1 40:1 53:1 58:1 67:1 68:1 81:1 85:1 
-0.0056136189113152575 -0 -0 -0.0022548832000058409 -0.0053866251640242264 -0.0031452003582722668 -0.0045094225379918151 -0.0056088551101884333 0.0098348426413258066 0.004668249434906558 0 0.0016551709254161312 0 0 0 0 0 0 0.0018966821175111241 0 0 0.0018345312254467807 0.0018966821175111241 19:1 24:1 36:1 40:1 46:1 69:1 87:1 90:1 
-0.01144046878803571 -0 -0.020988286728101012 -0.0046214534074384001 -0.011959086508400206 -0.017999982510303332 -0.0067649040418168481 -0.01258073173985144 0.020228200257892827 0.0075268045085339621 0.02120587025377229 0.010114541336659524 0 0 0.021011780196897339 0.015826317324661807 0 0.059899036300227387 0.0096925434983693055 0 0.020325635050431848 0.010754525326453612 0.0096925434983693055 14:1 40:1 46:1 51:1 87:1 88:1 
-0 -0 -0.0095685821819778451 -0.00059904738601851057 -0 -0.0041085242354431586 -0 -0 0 0 0.0086789937785624535 0 0.041647614692882196 0 0.0095625466923771971 0.010279707379945376 0 0.027711346457097306 0 0 0.010033366149502119 0 0 11:1 14:1 21:1 24:1 28:1 40:1 46:1 71:1 79:1 87:1 
-0 -0.12497711181640625 -0.0099727895968994788 -0 -0 -0 -0 -0 0 0 0.011205858053925868 0 0.083333333333333329 0 0.010001217702240552 0.0015213747649361941 0 0.027917789224678753 0 0 0.010676729657326434 0 0 21:1 24:1 40:1 46:1 68:1 87:1 
-0.0083676870137841426 -0 -0.0078429192076098532 -0.0056133829770303569 -0.0081836226450669337 -0.0070362273705419564 -0.0066322676144632067 -0.0085578928156662924 0.016193857211099408 0.0072390151409088546 0.0074907015832522909 0.0063040293415739662 0 0 0.0078582263189433746 0.0070480887043528903 0 0.023255621302356849 0.006608694115312925 0 0.0083178797462690208 0.0066144105914939097 0.006608694115312925 21:1 36:1 40:1 46:1 64:1 87:1 99:1 
-0 -0 -0 -0 -0 -0 -0 -0 0 0 0 0 1.9051973784462392e-05 0.125 0 0 0.125 0 0 0.125 0 0 0 20:1 35:1 40:1 46:1 68:1 87:1 
-0 -0.0028392721433478803 -0 -0.026641439525178865 -0 -0.024404880946233234 -0 -0 -0.0086011358320604841 0 0 0.0020799615352507599 0.00025214167069740917 0.0044509098241455811 0 0 0.0038896138153295327 0 0.014161031672775831 0.0095824997337696158 0 0.0040271808857515901 0.014578363868246987 28:1 40:1 45:1 70:1 92:1 
-0.058908687255421588 -0 -0 -0 -0 -0 -0 -0.062530988443877125 -0 0 0 0 0.00041759834576518865 0 0 0 0 0 0 0.00051556978887134163 0 0 0 7:1 40:1 43:1 52:1 72:1 90:1 92:1 
-0 -0.002160511560359317 -0.0045634821437733229 -0.0074453640641612088 -0 -0.010725648565177237 -0 -0 -0.0030023414872385502 0 0.004867198341964878 0.0015933643668691365 0.0014241707290891584 0.0015703578063609462 0.0045572054320058191 0.0052689977980940918 0.0015137832879997854 0.0071751966584544143 0.0051560375929146467 0 0.0030935529911061263 0.0018409612551873217 0.0050979930399205845 14:1 40:1 45:1 63:1 70:1 82:1 92:1 93:1 
-0 -0.0025962277698158764 -0.0058969657288747042 -0 -0 -0 -0 -0.0090626071218483494 -0.0047944954369756815 0 0.0060411912297289464 0 0.00054597254797593561 0.0025931307974123574 0.0058663875095106939 0.0066482542016976908 0.0024020846316645567 0.0098551953074440396 0 0.0012824065661289977 0.0045013540926535402 0 0 14:1 22:1 40:1 43:1 45:1 72:1 83:1 92:1 
-0 -0 -0.0044469215536487661 -0 -0 -0.010730544824012919 -0.125 -0 -0 0 0.005330844881180837 0.0015933643668691367 0 0 0.0036304039639279361 0.0058345486780059311 0 0.010258661512550286 0.00035100267153557004 0 0.0046002979386922426 0.0018554724811131117 0.00056900560147155922 14:1 40:1 45:1 60:1 66:1 70:1 92:1 101:1 
-0 -0.007544891028892723 -0.00291966583032563 -0 -0 -0 -0 -0 -0.013027390547343901 0 0.0015089722334763278 0 0.0052360584740277936 0.0070747268694166532 0.0036304039639279318 0.0022893551801684195 0.0071212236350187159 0.0033874821083419385 0.00018537771024765685 0.0054059818495421057 0.0013566367422734901 0 0 14:1 28:1 40:1 45:1 60:1 66:1 70:1 92:1 
-0.0244749881360572 -0 -0 -0 -0 -0 -0 -0.012552726230238244 -0 0 0 0 0 0 0 0 0 0 0 0 0 0 0 14:1 29:1 30:1 33:1 40:1 43:1 45:1 72:1 73:1 82:1 92:1 
-0.041575811028413928 -0.032427743820896103 -0.022850410688654336 -0.030597838512862782 -0.125 -0.16188713461909521 -0 -0.040838507922012712 -0.058194929877764048 0 0.022413631620747415 0.053010441538926055 0.035368196236460363 0.031010922502031892 0.022663279725527143 0.018760562068427248 0.032454490105769541 0.048360582327326575 0.042543834752533476 0.030385138500908224 0.019771695685597585 0.050203598476622889 0.041971630999662377 40:1 92:1 
-0 -0.0090264720386923555 -0.0067288483380069132 -0 -0 -0.00030237853124322103 -0 -0 -0.017422945302284859 0 0.0068201665086424345 0.00014978118599665212 0.0098618364875373305 0.0091779151209591542 0.00677038336495409 0.0067113787302661579 0.0089627523899315324 0.012397205730978904 4.1081895625737204e-05 0.008005410861643943 0.0080431347057423035 5.3786602302924172e-05 2.6940888760510899e-05 9:1 14:1 29:1 34:1 40:1 44:1 46:2 52:1 56:1 74:2 87:2 92:1 
-2.9515406230821e-05 -0.00025203775759365262 -0.0010133705602526678 -0.021994714647083177 -0 -0.085821022922788995 -0 -0 -0 0.1248779296875 0.0010473218009024691 0.02382350443277018 0 0 0.0010019166628811428 0.0013139258061040794 0.00013705218151822889 0.0014644980658587135 0.022601718103639649 0 0.00017985260827767019 0.023361837258949341 0.022476828488033614 4:1 14:1 29:1 33:1 40:1 43:1 45:1 47:1 72:1 73:1 92:1 
-0 -0.0014077567774537403 -0.0064698372366090769 -0.0032040441711241275 -0 -0.017238730966868124 -0 -0 -0.0035171675457801354 6.103515625e-05 0.0065824838042079521 0.0082966435185185348 0.0044214855707907647 0.0019275087371009305 0.0067292408931045591 0.0066879739000007092 0.0022112601392163251 0 0.0066151689567453213 0.0025472487009209678 0.008481972130785104 0.0093657593653275265 0.0069524347145061959 5:1 40:1 53:1 92:1 
-0 -0.0071914273588211111 -0.0022249024523740665 -0 -0 -0 -0 -0 -0.0072840815120912179 -0 0.00094105178979249132 0 0.0082664758140177253 0.0071787631398091117 0.0035959146368527988 0.0029835352448316053 0.0068923625573820597 0.0013395353993838081 0.0020784991295533777 0.0057436212542099525 0.0006036632088538364 0 0.00051052205616912048 14:1 28:1 42:1 45:1 60:1 66:1 70:1 92:1 
-0.0077984705988638483 -0.0011438024568226558 -0 -0 -0 -0 -0 -0 -0.00086489525898796949 -0 0 0 0.0033184312533732232 0.00023148846782160607 0 0 0 0 0 0.0013847206419677189 0 0 0 7:1 42:1 43:1 52:1 72:1 90:1 92:1 
-0 -0 -0.0051240013262835908 -0 -0 -0.0031787397463405778 -0.125 -0 -0 -0 0.0058726973059920248 0.0019151882723744561 0 0 0.0036334234743934934 0.010437298301007232 0 0.0066953572864973223 0.0010388158465190745 0 0.0051742370815707206 0.0021243683778006607 0.00033872955506592385 14:1 42:1 45:1 60:1 66:1 70:1 92:1 101:1 
-1.4939347306931201e-05 -0.0011858090008503815 -0.0022430900598647925 -0.021333363855033781 -0 -0.023902901713140322 -0 -0 -0.00072489510938282867 -0.1248779296875 0.002290732271201021 0.023996607094824991 0.0010315338645464401 0.00079085022319071109 0.002235666104901478 0.0041265636509163362 0.0011941975025102334 0.0021293009918570915 0.084557948896935853 0.00094771964375558744 0.0014950358722222949 0.023623858565459867 0.022732231476431695 4:1 14:1 29:1 33:1 42:1 43:1 45:1 47:1 72:1 73:1 92:1 
-0 -0.0035708757764382698 -0 -0.026982977797294853 -0 -0.0065144171791112126 -0 -0 -0.0038388131813538655 -0 0 0.0023192162012485524 0 0.0040207178925464049 0 0 0.0038245115333049007 0 0.054461377568834318 0.007453023661953581 0 0.0035340530176973797 0.014631666356711167 28:1 42:1 45:1 70:1 92:1 
-0 -0.011037342972976491 -0.0032003705076245419 -0 -0 -0 -0 -0.125 -0.010956275613480428 -0 0.0037178241533033377 0 0.013538729452459602 0.010927423628426233 0.0030493048429963304 0.0070444932543013358 0.010085725390826842 0.0028215820561708909 0 0.0090872210025023398 0.0038880219278710016 0 0 14:1 35:1 42:1 70:1 91:1 92:1 
-0 -0.0019810146632908768 -0.00578083148274737 -0 -0 -0 -0 -0 -0.0027882726744728847 -0 0.0058579395009436264 0 0 0.0028938303369276173 0.0057368237923597848 0.010744464762854485 0.0022160986422464306 0.0055349911430265181 0 0.0010577776330024324 0.0041241317195440221 0 0 14:1 22:1 42:1 43:1 45:1 72:1 83:1 92:1 
-0.078298363801836024 -0 -0 -0.0021637480427908551 -0 -0.0029294322927315669 -0 -0 -0 -0 0 0.0012094335605266353 0 0 0 0 0 0 0.0025046969653780729 0 0 0.001469242472283801 0.00069896400300443844 29:1 33:1 42:1 45:1 56:1 57:1 73:1 82:1 92:1 
-0 -0.00033475703279922865 -0.0042908487361300145 -0.0069148040680724245 -0 -0.0022046073910657227 -0 -0 -0.00020527291214920412 -0 0.0043837389480668341 0.0015127778426532402 6.7643424885494724e-05 0.00018183914871381315 0.004302254066439499 0.0077468021585263558 0 0.0039379792642735808 0.020091678382055975 0 0.0025247159818764463 0.0016419745321988861 0.0053715446619558285 14:1 42:1 45:1 63:1 70:1 82:1 92:1 93:1 
-0.025284900284900283 -0.027515033599238178 -0.028920887181019636 -0.032488373866729627 -0.125 -0.050461668619157241 -0 -0 -0.027037105252540425 -6.103515625e-05 0.028505625463045737 0.059172779515209543 0.062978333982477527 0.027328966975751059 0.029165236139518512 0.042289289217097091 0.029833037005435527 0.027748962352500382 0.17504650073287142 0.028152680317502177 0.027685954682359216 0.057814904609215213 0.047093733015382687 42:1 92:1 
-0.013603325967092912 -0.0010388543767018994 -0.00011540422205692539 -0 -0 -0 -0 -0 -0.00063165213608878685 -0 8.8536185156899924e-05 0 0.0010059337745370268 0.00063969123347382953 8.7934730948576476e-05 0.00026638803433104994 0.0011992982158396778 0.00015292878372656253 0 0.00097074477446017302 0.00024577831971119978 0 0 14:1 29:1 30:1 33:1 42:1 43:1 45:1 72:1 73:1 82:1 92:1 
-0.0090677006706347107 -0.014684701494090254 -0 -0.016470574287836492 -0.0093800262192369858 -0.011203429714492905 -0.015386643087657362 -0.0093749999999999997 -0.015413241461005268 -0.0099339053017343509 -0.0098978547413020972 0.010319311539213021 0.014159126010445739 0.044045865458372718 0 0 0.015819346852866151 0 0.011050737675688314 0.017284672221103557 0 0.010774311986978436 0.011107245287729451 14:1 17:1 21:1 36:1 38:1 45:1 75:1 78:1 87:1 
-0.014348682976634755 -0.0090726752933600451 -0 -0.02715245401253371 -0.015186535462143992 -0.017931128852944619 -0.025348945330368456 -0.014441587077032227 -0.0083886553118594585 -0.014967440231467717 -0.016705394710673092 0.016726640796593098 0.0062672144518386491 0.023921995669991841 0 0 0.0090294686766939896 0 0.017811619017556519 0.0082019215812007273 0 0.017295190246408947 0.017865162810393506 14:1 27:1 38:1 45:1 76:1 94:1 102:1 
-0.0029069711713329924 -0.032224085607337846 -0.125 -0 -0.0036643776119368028 -0 -0 -0.0023919583568272939 -0.033497524641506217 -0.0017972871316839041 -0 0 0.034936677417187451 0.095498266732521556 0 0 0.029100194192707103 0 0 0.030803164169212648 0 0 0 14:1 21:1 38:1 46:1 77:1 87:1 
-0.0097334224895671978 -0.015314204430551405 -0 -0.009870070816912482 -0.0088465747309407795 -0.0016487864785292156 -0.0091366680922535474 -0.0086672205769247872 -0.014587743222628827 -0.0088579795020457437 -0.0075122181247027813 0.0030142334017213643 0.015826904398310974 0.041600225717609518 0 0 0.01237500771846361 0 0.0034302960869810619 0.0085831557068759192 0 0.0040382633478014658 0.0037089778730601962 24:1 26:1 38:1 46:1 77:1 87:1 88:1 
-0.001121091490754067 -0.0034347085197202832 -0 -0 -0.0020816510580316848 -0.0028694113393576844 -0 -0.001543763856079097 -0.0038709149340034111 -0.0014795751420026218 -0 0.0019699004699973632 0.0041035880967834086 0.011042921788544866 0 0 0.0043467595938762957 0 0.0015230071822564543 0.003873846501571453 0 0.00055433015222141626 0.0010989844764173597 14:1 24:1 38:1 46:1 77:1 87:1 97:1 
-0.01323227932661652 -0.0020730424950029542 -0 -0.027638837301074585 -0.01080740277577933 -0.018202076389897643 -0.027859562187304451 -0.012857843514282891 -0.00049000059887626703 -0.013100362652848228 -0.011294259903221146 0.023628133548190485 0.0014241064499728024 0.0014554766558870908 0.041666666666666685 0.041666666666666685 0.0038020730585146966 0 0.023225624187962875 0.0015022606662675991 0 0.024433899433899429 0.023559587893308982 14:1 38:1 46:1 53:1 77:1 95:1 
-0 -0 -0 -0 -0 -0 -0 -0 -0 -0 -0 0 0 0 0.083333333333333329 0.083333333333333329 0 0 0 0 0 0 0 14:1 24:1 26:1 38:1 46:1 54:1 77:1 96:1 101:1 
-0.0012855332629410977 -0.0027648929403306923 -0 -0.0013182853922549733 -0.0015159856595594113 -0 -0.00086919974223976972 -0.0010268353532408442 -0.0049344088888897217 -0.00061659762166687377 -0.0013314710919832887 0 0.0032444883073972767 0.014078410756202637 0 0 0.0061274726124878583 0 0 0.0065795636770159174 0 0 0 11:1 14:1 25:1 28:1 35:1 38:1 46:1 54:1 59:1 71:1 77:1 95:1 100:1 101:1 
-0.0022024748946086552 -0 -0 -0.0036750011762812971 -0.0028108359715007386 -0.0053702685397372038 -0.0066469116364793815 -0.0041579183078126912 -0 -0.0038586628374018238 -0.0049169470456195642 0.0048148254868309696 0 0 0 0 0 0.125 0.0047586089392734239 0 0.125 0.0041160043267311095 0.004528622544567663 14:1 26:1 38:1 46:1 54:1 77:1 96:1 101:1 
-0 -0 -0.0029814942886684684 -0 -0 -0 -0.0021567495666542347 -0 -0 -0 -0 -0.0007358023215213842 0 0 0.0033897811315561914 0.0029845423046718058 0 0.0044104640795901793 0 0 0.0032501517754177094 0 0 4:1 11:1 13:1 14:1 28:1 41:1 45:1 47:1 70:1 71:1 
-0 -0 -0 -0 -0 -0.125 -0.015543730717190819 -0 -0 -0 -0 -0 0 0 0 0 0 0 0 0 0 0 0 4:1 13:1 14:1 41:1 53:1 70:1 
-0.089564935953985764 -0 -0.0031273171949247995 -0 -0.037021225954607051 -0 -0.039301220923700267 -0.038622035519693412 -0 -0.035346100896010604 -0.037206704226954532 -0.0040275956669349692 0 0 0.002914636055562787 0.0030162981444400161 0 0.0044381969515395947 0 0 0.0011972852912528512 0 0 4:1 33:1 41:1 45:1 47:1 73:1 92:1 
-0.070312564238111816 -0.044280802311507959 -0.024561818880757296 -0 -0.013212659457838755 -0 -0.0081517560859981734 -0.018268405469861214 -0.022334106948417712 -0.016561491477967264 -0.013102442377409531 -0.024998787343733155 0.02492713519737165 0.022229590774353512 0.024600903687958389 0.023972310440650905 0.022771234321779656 0.015232414755430058 0 0.02248374958310774 0.044755899145119821 0 0 4:1 41:1 53:1 
-0 -0.018663541938906316 -0 -0 -0 -0 -0.0015818320739446523 -0 -0.0084756101578849739 -0 -0 -0 0.0050283870664257239 0.008550988667817944 2.7859487281692202e-05 0 0.0091817888749059374 0.0017601062499477728 0 0.010205614807542578 5.3977373918862638e-05 0 0 4:1 11:1 13:1 14:1 28:1 35:1 41:1 45:1 47:1 70:1 71:1 
-0.028540655044815327 -0.0027868307970752649 -0 -0 -0.0016024858046659036 -0 -3.5045976884520176e-05 -0.0034942894857667578 -0.0019856492650278108 -0.0010397102778889166 -0.0017687688325627713 -0 0.0043501711045979023 0.0016462223837291851 0 0 0.0018796072424196598 0 0 0.0023471799448689435 0 0 0 13:1 31:1 41:1 52:1 70:1 
-0.078841761717404452 -0.022631664311108142 -0.0072890975518667663 -0.125 -0.02274278561912171 -0 -0.017027102510455285 -0.020406154787782051 -0.010960470722800207 -0.022662542929727053 -0.022630433550141698 -0.0067515227563261721 0.009927516578115414 0.010869918673504316 0.0073526438231307162 0.0067709263292237663 0.011382704269488968 0.0091692444142884785 0 0.011415730182794471 0.011339696336837554 0 0 6:1 16:1 41:1 52:1 92:1 
-0.023943449122296758 -0.038432988409219153 -0.022753490572245291 -0 -0.015513805044167548 -0 -0.0034577275192418534 -0.011826625391803007 -0.017849001684422636 -0.014937215363606602 -0.015417653499768886 -0.023959337154030626 0.016552433547458837 0.018264785078500163 0.02238057354587154 0.023651125710866149 0.01803802635593927 0.020482745103876081 0.125 0.015935407824661414 0.035637120972206573 0.125 0.125 13:1 14:2 41:1 65:1 
-0.0030268135892381502 -0 -0 -0.0052471222654653631 -0.0025514164526784073 -0.0026536021012826417 -0.0025411455965720204 -0.0021888018878948329 -0 -0.0031805680829526334 -0.0066886687185562458 -0 -0.0040883872918967964 0 0 0 0 0 0.0092381847815103234 0 0 0.0034661815694720299 0.0048323426929525641 11:1 28:2 42:1 46:1 69:1 71:1 88:1 
-0.0049145836470601912 -0 -0.00083206655740762658 -0.0055666941651290177 -0.005267991895892765 -0.0058359972174167026 -0.0044268911473742132 -0.0048913090436797819 -0 -0.0053434031527771868 -0.010153194276293718 -0.00049689850963924071 -0.0064941251327378857 0 0.00084614362848154929 0.0018555478200441224 0 0.00094753971079974823 0.012474617175285731 0 0 0.0064280899900846017 0.0063382168167471133 10:1 11:1 18:1 27:1 28:1 29:1 32:1 42:1 48:1 49:1 50:1 51:1 71:1 86:1 
-8.7538615489087175e-05 -0 -0 -0.0018808852307098645 -0 -0 -0.0027964644363722229 -0 -0 -0 -0 -0 -0 0 0 0 0 0 0 0 0 0 0 11:1 21:1 28:1 42:1 46:1 68:1 70:1 71:1 84:1 
-0.00090616832187375546 -0.125 -0 -0 -0.0010547262069031257 -0 -0.00058723643692151686 -0.0013930998791066372 -0 -0.0010190057357059375 -0.0050076464775729154 -0 -0 0 0 0 0 6.6454263054432218e-06 0 0 0 0 0 2:1 24:1 36:1 42:1 46:1 54:1 68:1 101:1 
-0.0084553269363594301 -0 -0.0070232611956416828 -0.0055445561310593769 -0.0079601864358222751 -0.0035505634650367041 -0.0058420838571190143 -0.0085060802023080515 -0 -0.008501751657570257 -0.011796765817313482 -0.0068204088455802066 -0.0062064134568949421 0 0.0070435054566224883 0.01630340242157248 0 0.007222507458525841 0.012451668387983041 0 0.007656121329337468 0.0062512939785847668 0.0060293071948003488 21:1 36:1 42:1 46:1 64:1 87:1 99:1 
-0.0066448277527397358 -0 -0.0010693310605261221 -0 -0.006578723076340616 -0 -0.0016318790461038817 -0.0067855074338442484 -0 -0.0072661262810155584 -0.0072822553912740779 -0.00075818630865389454 -0.00040331640200866271 0 0.001111929558905078 0.0031315245061205241 0 0.0010974396111199981 0.00088540529184763961 0 0.00082876244274482781 0.00058700569392658832 0.00034883936176645543 23:1 42:1 46:1 68:1 87:1 89:1 
-0.0051496558179723517 -0 -0 -0.0026847734162784229 -0.0049531357401208873 -0.00061070281082504726 -0.0046310667224818951 -0.0050332374263780955 -0 -0.0047680352571156355 -0.0062950688742301354 -0 -0.0012710457303195051 0 0 0 0 0 0.0023317977628138304 0 0 0.0013208793115677829 0.00081486742387670711 19:1 24:1 36:1 42:1 46:1 69:1 87:1 90:1 
-0 -0 -0.009692281169489057 -0 -0 -0 -0 -0 -0.041647614692882196 -0 -0 -0.0089997767476780281 -0 0 0.0097154475051181438 0.027049415363253324 0 0.0099811897648381873 0 0 0.010107897937447046 0 0 11:1 14:1 21:1 24:1 28:1 42:1 46:1 71:1 79:1 87:1 
-0.01055995226993423 -0 -0.021917561144726906 -0.0052996308923240077 -0.011342709059509678 -0.0087850673989681473 -0.0067168859404489484 -0.011120599939829683 -0 -0.010456422505359855 -0.011324038849835632 -0.022269569876482421 -0.00863153559189948 0 0.021861200196983049 0.042977690903219436 0 0.021875619708570108 0.01669109805885587 0 0.021413280435860181 0.0088534106393914191 0.0087095302007529369 14:1 42:1 46:1 51:1 87:1 88:1 
-0 -0 -0.01168175965157521 -0 -0 -0 -0 -0 -0.083352385307117804 -0 -0 -0.013035640528145197 -0 0 0.01150128868477461 0.0085235859604856148 0 0.012035729208334078 0 0 0.012148432379096217 0 0 21:1 24:1 42:1 46:1 68:1 87:1 
-0 -0 -0 -0 -0 -0 -0 -0 -0 -0 -0 -0 -0 0 2.0403219743591434e-05 3.013889941021205e-05 0 0 3.5119958883841734e-05 0 0.00010255115660915307 0 2.7997151235038381e-05 15:1 21:1 36:1 42:1 46:1 64:1 87:1 99:1 
-0.0062261340358682497 -0 -0.0057837434527663366 -0.0086661406294195314 -0.0068899373982808706 -0.0093367716650140219 -0.0082630667981884575 -0.0063237364900975649 -0 -0.0062099808896974359 -0.015493657071189115 -0.0058311052690109789 -0.011359249369624694 0 0.0057857092747157475 0.017780986029242472 0 0.0056678140533943577 0.021899861003931931 0 0.005654942385847404 0.010761036877608168 0.011273875595763438 14:1 17:1 35:1 42:1 53:1 58:1 67:1 68:1 81:1 85:1 
-0 -0 -0.018750983852809867 -0 -0.00036425818151717169 -0.0050298933714392393 -0 -0 -0 -0 -0 -0.018931817439014245 -0.0029318105918100775 0 0.018727504167155209 0.062490962270892972 0 0.018748838593284155 0.0054084771920211916 0 0.019329345448683203 0.0029966447280683627 0.0033302049157621387 14:1 21:1 36:1 42:1 46:1 69:1 87:1 
-0.0022299158111688841 -0 -0.00088891262538447874 -0.0024870975471497415 -0.0012732759047862745 -0.0055276663220812693 -0.004056755045660991 -0.0022708271209320998 -0 -0.0026329902518841038 -0.0018092686339764871 -0.00069050344883905043 -0.0094592245045789537 0 0.0009918894094800958 0.011280144685552015 0 0 0.018886551553304685 0 0 0.0099636344965840784 0.010127177796278704 1:1 14:1 24:1 42:1 46:1 53:1 68:1 
-0.010544995170532211 -0 -0.0024291170241499426 -0.015641066682748998 -0.0096374701845580463 -0.014163394687918648 -0.01078494828604043 -0.010082456700478944 -0 -0.0081491762482653208 -0.014356517456055222 -0.0021281981588930346 -0.0099405354221985334 0.125 0.0024498846618083467 0.011044483122172035 0.125 0.0024103428385054563 0.019672968457598479 0.125 0.0018747199913988874 0.009847148301989404 0.009328131844993641 8:1 14:1 42:1 46:1 52:1 61:1 68:1 70:1 
-0.00091842757560864493 -0.125 -0.00041926370706521585 -0 -0.00072340032112807261 -0 -0.00080599206576780402 -0.0018675696505599927 -0 -0.0012054775625192505 -0.0019065948049230529 -0 -0 -0 0.00053503983914928398 0 0 0.0004984554150385829 0 0 1.11048432216559e-05 0 0 2:1 24:1 36:1 38:1 46:1 54:1 68:1 101:1 
-0.0034026072255273101 -0 -0 -0.012313440078169121 -0.0032668336088759711 -0.0034020812230987122 -0.004508794965183277 -0.0020808882824703452 -0 -0.0045675494242928523 -0.0033542296440175717 -0 -0.0054898307728905279 -0 0 0 0 0 0.0061386643425572077 0 0 0.0042571210944747475 0.0061386643425572077 11:1 28:2 38:1 46:1 69:1 71:1 88:1 
-0.0077864004400637577 -0 -0.0077875877042772254 -0.0092923578459986576 -0.0077582032537999125 -0.0038447740925624135 -0.0096460044688212246 -0.0079733634280563688 -0 -0.0083643634447661038 -0.0065862407590366011 -0.021392318245096936 -0.0063435957398733402 -0 0.0077939285854248435 0.0071484543904254032 0 0.0080535781844474144 0.0066577360856813952 0 0.008303257073358699 0.0066652237505002033 0.0066577360856813952 21:1 36:1 38:1 46:1 64:1 87:1 99:1 
-0.012294677016545396 -0 -0.021045303601936419 -0.01058292452955965 -0.012528424181295718 -0.0097752765723621987 -0.01454484853459573 -0.013381226804069972 -0 -0.011413564057819132 -0.0087294476991929722 -0.060455379470207189 -0.010230909372745435 -0 0.021020955775410129 0.015846885411501067 0 0.02098003617760533 0.0097867356257785379 0 0.020372091681192098 0.010844250287174274 0.0097867356257785379 14:1 38:1 46:1 51:1 87:1 88:1 
-0 -0 -0 -0 -0 -0 -0 -0 -0.125 -0 -0 -0 -0 -0 0 0 0 0 0 0 0 0 0 20:1 35:1 38:1 46:1 68:1 87:1 
-0 -0 -0.0097000167996358078 -0 -0 -0.0022030068821699937 -0 -0 -0 -0 -0 -0.024764262128986886 -0 -0 0.0097855405448956899 0.01009950950950937 0 0.0099350734488553583 0 0 0.0099916347047812014 0 0 11:1 14:1 21:1 24:1 28:1 38:1 46:1 71:1 79:1 87:1 
-0 -0 -0 -0 -0 -0 -0 -0 -0 -0 -0 -0 -0 -0 1.5768820060918483e-05 0 0 4.1731554361961335e-05 7.156119627904887e-05 0 2.6020852139652106e-18 0 7.156119627904887e-05 15:1 21:1 36:1 38:1 46:1 64:1 87:1 99:1 
-0 -0 -0.0186936868912627 -0 -0 -0.0032185764068019492 -0 -0 -0 -0 -0 -0.054481330071202733 -0.0025829152877913453 -0 0.018587751461598412 0.023647662038602812 0 0.018527985460111931 0.0020287977812662034 0 0.019479158355887944 0.0027860176911160329 0.0020287977812662034 14:1 21:1 36:1 38:1 46:1 69:1 87:1 
-0 -0 -0.0096302191320668026 -0 -0 -0 -0 -0 -0 -0 -0 -0.03192096481877868 -0 -0 0.0094232043799353481 0.0020265402444856347 0 0.0092364152589898725 0 0 0.010759146876039736 0 0 21:1 24:1 38:1 46:1 68:1 87:1 
-0.0040496878711067932 -0 -0.0037571719234987494 -0.006369357461579718 -0.0039039877227059266 -0.0056966008360085129 -0.0088548933481826849 -0.0046173069031012247 -0 -0.00311124292084646 -0.0049786571686454544 -0.010770255171845881 -0.0082469610962110119 -0 0.0037727344295564731 0.0045324482610154052 0 0.0035848978121610733 0.0070495437946918559 0 0.0040771421067829078 0.007924170003214194 0.0070495437946918559 14:1 17:1 35:1 38:1 53:1 58:1 67:1 68:1 81:1 85:1 
-0.00039930729624224358 -0 -0 -0 -0 -0.0018589732747388596 -0.002530938352090941 -0.00087070108506837605 -0 -0.00068463768979838712 -0 -0 -0.007369506301529786 -0 0 0.0029334519711836982 0 0 0.0067971434667680004 0 0 0.0090005422421804201 0.0067971434667680004 1:1 14:1 24:1 38:1 46:1 53:1 68:1 
-0.00087725328562245639 -0 -0 -0.0055473014821357186 -0.00025197397552186414 -0 -0.0057578682332027871 -0.00039198268828788283 -0 -0 -0.0015093486135312826 -0 -0 -0 0 0 0 0 0 0 0 0 0 11:1 21:1 28:1 38:1 46:1 68:1 70:1 71:1 84:1 
-0.0096294898253072702 -0 -0.0011377373387808042 -0.021122424961652887 -0.0089276151082957472 -0.010891664217483547 -0.016184805561482937 -0.0091225852631009359 -0 -0.0075272214997914397 -0.0070563467959510115 -0.0023861234506540097 -0.0077148749765258819 -0.125 0.0011669438012584122 0.002803589492787039 0.049967232000000077 0.0010675912210328931 0.0083320434761878105 0 0.00064738950977214708 0.00762991696179602 0.0083320434761878105 8:1 14:1 38:1 46:1 52:1 61:1 68:1 70:1 
-0.010885463613262017 -0 -0.0091079950142106993 -0.032901944682346751 -0.013199703776511137 -0.016798930031238703 -0.024841174850680027 -0.0093397487797179345 -0 -0.011814444295454892 -0.016210365044760557 -0.025472529422357951 -0.013582912030337794 -0 0.0091248046843332258 0.0094336444001697928 0.074999999999999997 0.0092138328163341807 0.016242726680859826 0 0.0061034034974987647 0.011602357444879943 0.016242726680859826 14:1 20:1 28:1 35:1 38:1 45:1 68:1 
-0.0046579252815016608 -0 -3.4429035570477294e-05 -0 -0.0042433463203501148 -0 -0 -0.0050863887954516176 -0 -0.0057020405003503499 -0.0011576572573123232 -0 -0 -0 6.9144699997464141e-05 0.00019726364566102056 0 0.00012310409113743402 0 0 0 0 0 23:1 38:1 46:1 68:1 87:1 89:1 
-0.0038922153971952078 -0 -0 -0.0020768470457603852 -0.0038468246510753143 -0 -0.0058143798293803367 -0.0036901425950755782 -0 -0.0034149302617886386 -0.002704683259289564 -0 -0 -0 0 0 3.276799999995782e-05 0 0 0.125 0 0 0 21:1 24:1 36:1 38:1 46:1 69:1 87:1 90:1 
-0.0022280993683463459 -0.032184826149863413 -0.125 -0 -0.0034273707974979022 -0 -0 -0.0042016464636996827 -0.033270143757681864 -0.0016815037222899412 -0 -0 -0 -0.034422658182454442 -0.032717837709031465 0 0.079742781352312594 0 0 0.029875637325290902 0 0 0 14:1 21:1 37:1 46:1 77:1 87:1 
-0 -0 -0 -0 -0 -0.0019078453758371813 -0 -0 -0 -0 -0 -0.083333333333333329 -0.00045109309277590313 -0 -0 0 0 0 0.00029249093611246962 0 0 0.00078233562616531805 0.00051811300630559174 14:1 24:1 26:1 37:1 46:1 54:1 77:1 96:1 101:1 
-0.014296140992804032 -0.009075215072136442 -0 -0.016020329905351238 -0.015195417972784023 -0.018068400961603823 -0.015082063266632396 -0.025626795526522545 -0.0082328321948390189 -0.014983842774868332 -0.016751849190150471 -0 -0.016847850158402948 -0.0062173008561910549 -0.0082522428763484573 0 0.025114972876311755 0 0.017903701057014668 0.0081358519158368052 0 0.017309629700149196 0.035692551821636796 14:1 27:1 37:1 45:1 76:1 94:1 102:1 
-0 -0.0026592565693889739 -0 -0 -0 -0 -0 -0 -0.003481648593648792 -0 -0 -0 -0 -0.0018917414082814459 -0.0035308542116990749 0 0.010352122040136203 0 0 0.0038435684047251079 0 0 0 11:1 14:1 25:1 28:1 35:1 37:1 46:1 54:1 59:1 71:1 77:1 95:1 100:1 101:1 
-0.01059051616419077 -0.015345001836149025 -0 -0.0057840171043017198 -0.010280496264783145 -0.0034127118114947704 -0.0061888318238848489 -0.01834111235594936 -0.014745672424213352 -0.010259860475661705 -0.0085477668407564662 -0 -0.0045608218395327034 -0.015959037891677824 -0.014834262053055637 0 0.03982997060153199 0 0.0048495028579951761 0.0091485506490371175 0 0.0047530122798379662 0.0097704652891416315 24:1 26:1 37:1 46:1 77:1 87:1 88:1 
-0.0044555629302103295 -0.00021271357196343501 -0 -0.004651671525506499 -0.0047418736032767 -0.0038508677072337108 -0.0039095006631280739 -0.0080620201899672932 -0.0032187777347795804 -0.0045476985622298878 -0.005086686600227654 -0 -0.0051663046247157575 -0.0030982478353869468 -0.0035281801603754526 0 0.019148741286153764 0 0.0051679687859213274 0.0061781627237088924 0 0.0034255370567836457 0.009896715056830022 11:1 14:1 28:1 37:1 46:1 54:1 71:1 77:1 97:1 101:1 
-0 -0.0032904394847587349 -0 -0 -0 -5.7286518730858012e-07 -0 -0 -0.0021015153625155675 -0 -0 -0 -0 -0.0024018901753343706 -0.0020539987797259106 0 0.0022807963050352109 0 0 0.00046182020889446151 0 0 0 14:1 24:1 37:1 46:1 77:1 87:1 97:1 
-0.013371899001268416 -0.0021114055184505622 -0 -0.015233895019218983 -0.011336513860573161 -0.018481664286702736 -0.016604367818319032 -0.024105537435818999 -0.00068762048177250211 -0.01339576416073803 -0.011676983503968306 -0.041666666666666685 -0.023172865852800772 -0.0018271402440298286 -0.0007715426016920052 0 0.0082869938480466254 0 0.022833634594239278 0.002148610637426193 0 0.024236552778949649 0.045701773582510888 14:1 37:1 46:1 53:1 77:1 95:1 
-0.0092618042411549591 -0.014681618609830806 -0 -0.0097154143673719422 -0.0095596670449346853 -0.011481577133093095 -0.0090193099172351573 -0.016587439725372518 -0.015560170690978226 -0.0099805518200514285 -0.009743271653307576 -0 -0.010467462163133238 -0.01423688917043201 -0.015606898629692178 0.125 0.045700341710355183 0.125 0.011122006475947688 0.017422817977309647 0.125 0.010747584420126471 0.022166623666234259 14:1 17:1 21:1 36:1 37:1 45:1 75:1 78:1 87:1 
-0.0047868411753550335 -0.0090132789889082968 -0 -0.00044907944962863615 -0.0050876842179819089 -0.0023787950752589908 -0.00075812189058867686 -0.0039781661627783941 -0.0074752005313880954 -0.0041714231058264653 -0.0029537491186349372 -0 -0.00195844687161287 -0.024271269675587459 -0.0078207304599075197 -0 0.0068862941310079851 0 0.0033098105187238762 0.0041244251754758111 0 0.0018819326175747507 0.0016230503267260291 14:1 24:1 42:1 46:1 77:1 87:1 97:1 
-0.0019180015691320036 -0.0017423603377302809 -0 -0.0016573314548263105 -0.0022609155384461332 -0.0033899553792249605 -0.0035272064273368623 -0.0035508241665887169 -0 -0.00303033909980351 -0.007442443229351706 -0.083333333333333329 -0.0026520520703503725 -0.0013786424885772674 -5.4122344814405898e-05 -0 0 0 0.005222243132580736 0 0 0.0031075222921384108 0.0026544554059499685 14:1 24:1 26:1 42:1 46:1 54:1 77:1 96:1 101:1 
-0.0054516443332191314 -0.032141290157620038 -0.125 -0 -0.0063194788151613229 -0 -0 -0.0051876880405318185 -0.03424940486861959 -0.0046054704218181815 -0.0020537222496257771 -0 -0 -0.0909215278023323 -0.033735967572617577 -0 0.033671084834729949 0 0 0.031726558180451322 0 0 0 14:1 21:1 42:1 46:1 77:1 87:1 
-0.014356137568966438 -0.0092302694971828064 -0 -0.015916603725754118 -0.015223511251712086 -0.017965938601937969 -0.015263004694111904 -0.014560082014475726 -0.0083415975910394857 -0.015049860979667566 -0.028151586990472408 -0 -0.016830663175513093 -0.016845852145980167 -0.0084916494874100953 -0 0.008555087624560068 0 0.035366697691277579 0.008302794034346141 0 0.017291666666666667 0.017890488462497706 14:1 27:1 42:1 45:1 76:1 94:1 102:1 
-0.003176663930496368 -0.0011697129015365208 -0 -0.0047733051667632944 -0.0030960956260890405 -0.0027865150634212403 -0.0031694555668086255 -0.0024982305877957849 -0.0062936849234416503 -0.0027220985657054977 -0.0063153849428653616 -0 -0.0042274457812666319 -0.010696476668975999 -0.0061778820813687555 -0 0.0068257561503659494 0.12498922683702621 0.0087789909532814368 0.0083599122155223349 0 0.0025425171110928617 0.0042747078308273999 11:1 14:1 28:1 42:1 46:1 54:1 71:1 77:1 97:1 101:1 
-0.01384522344053297 -0.0076912261211833505 -0 -0.017394648815326662 -0.011544530653258661 -0.018991380125585738 -0.0174842861461105 -0.013371377275267221 -0.0061489408238990196 -0.013363239700877754 -0.021128006446622861 -0.041666666666666685 -0.02384334487702509 -0.01863561106305129 -0.0064076591451032302 -0 0.0065200816051340033 0 0.046655009582534886 0.0063450273590860938 0 0.02491275977954575 0.02373802452742137 14:1 42:1 46:1 53:1 77:1 95:1 
-0.009171618371718546 -0.015303137107841034 -0 -0.010551827092920567 -0.0094455803166046196 -0.0115734951467544 -0.01003672873783833 -0.0095348602286512707 -0.016172104515295396 -0.010036931055378359 -0.017593941646292438 -0 -0.010883250154084586 -0.038481385776026833 -0.015981438274119662 -0.125 0.016235722236747782 0 0.023025782690548079 0.017110339013805875 0 0.01120044577898811 0.011661577183682239 14:1 17:1 21:1 36:1 42:1 45:1 75:1 78:1 87:1 
-5.7233365444458361e-06 -0.00066938379750454706 -0 -0 -0.0002457165563305174 -0 -0 -0.00068912719996280303 -0 -0.00053563343368699884 -0 -0 -0 -0.0012371163614339083 -0 -0 0 1.0773162973709696e-05 0 0 0.125 0 0 3:1 12:1 14:1 42:1 46:2 52:1 54:1 55:1 56:1 62:1 77:1 85:1 97:1 101:1 
-0.0090318498797172745 -0 -0.0014975612960985752 -0.012669771679015202 -0.0085532169153657127 -0.01121289022455854 -0.0091578868029248955 -0.016458653027281434 -0 -0.0071581584406125937 -0.0072532431788362318 -0.0012263818798894425 -0.0079833201206657416 -0.125 -0.049967232000000077 -0.0042438843157227638 -0.0026697000187990479 0.0014202142610993495 0.0084476633840015313 0 0.00104141041342987 0.0079962042033800244 0.017479801789324866 8:1 14:1 37:1 46:1 52:1 61:1 68:1 70:1 
-0 -0 -0 -0 -0 -0 -0 -0 -0.125 -0 -0 -0 -0 -0 -0 -0 -0 0 0 0 0 0 0 20:1 35:1 37:1 46:1 68:1 87:1 
-0.0018511880170108404 -0 -0 -0.0055436296992813442 -0.0013642516107519791 -0.0012237744625911474 -0.0018622113240800444 -0.00069682778585917007 -0 -0.0025938432169868024 -0.0020929621254200136 -0 -0.0026750178988795455 -0 -0 -0 -0 0 0.0034207308032212559 0 0 0.0016962452129073917 0.0070348729337283847 11:1 28:2 37:1 46:1 69:1 71:1 88:1 
-0.010011720175612736 -0 -0.009582580960966567 -0.017791965462295271 -0.012043115479191778 -0.016224002012800928 -0.013559674183399656 -0.016264756690839221 -0 -0.010717463462354077 -0.015151638347843036 -0.0094920491818499611 -0.013013833405196155 -0 -0.074999999999999997 -0.027208446904860354 -0.0092944116889194239 0.0098366643959195022 0.015605689933274703 0 0.0066550254478467338 0.010943872793508289 0.032340384865448026 14:1 20:1 28:1 35:1 37:1 45:1 68:1 
-0.010861541780591398 -0 -0.019704658861022711 -0.0045224396344585877 -0.011163476395884744 -0.0083714079003498754 -0.0072650549260684909 -0.02242478114969294 -0 -0.010287670500407096 -0.0075066973086532398 -0.019652739551292792 -0.0085741461313809594 -0 -0 -0.056088018779129792 -0.015404405931084324 0.019737878789688652 0.0082508527320159248 0 0.019215172409483838 0.0091532744887027929 0.017114544144973109 14:1 37:1 46:1 51:1 87:1 88:1 
-0.0015241902034576313 -0.125 -0.0033566977499869094 -0 -0.0014125208504278675 -0 -0.00091897062966477645 -0.0045707462796786948 -0 -0.0017477471011181798 -0.0026146717309751847 -0.001358389035648596 -0 -0 -0 -0.0095342560316858619 -0 0.003800845986665032 0 0 0.003379133301590682 0 0 2:1 24:1 36:1 37:1 46:1 54:1 68:1 101:1 
-0.0046522751732296632 -0 -0.00089471974194372075 -0.0050432482678442131 -0.004695554068077458 -0.0054571628053243469 -0.0040221657308403503 -0.0087401820855887054 -0 -0.0048114940950497479 -0.0051034162675084828 -0.00022590091134583602 -0.0061003071216994015 -0 -0 -0.0025512651781471364 -0.00067148989317226244 0.0008797008420002013 0.0058055058861776268 0 0 0.0060303707933491799 0.012031673069382786 10:1 11:1 18:1 27:1 28:1 29:1 32:1 37:1 48:1 49:1 50:1 51:1 71:1 86:1 
-0 -0 -0.012170913189329457 -0 -0 -0.00099660529241759385 -0 -0 -0 -0 -0 -0.010699589310381803 -0 -0 -0 -0.034502763060168889 -0.01033370492660819 0.01297090324296307 0 0 0.013365380702579052 0 0 11:1 14:1 21:1 24:1 28:1 37:1 46:1 71:1 79:1 87:1 
-0 -0 -0 -0.0017539967770236434 -0 -0 -0.0018226430027997093 -0 -0 -0 -0 -0 -0 -0 -0 -0 -0 0 0 0 0 0 0 11:1 21:1 28:1 37:1 46:1 68:1 70:1 71:1 84:1 
-0.0016066500996371202 -0 -0.0013608149899252831 -0 -0.00070111041119213016 -0.0022126738176415288 -0.0028467395429528841 -0.0032845845717830646 -0 -0.0016322463903455031 -0.00029896656417805617 -0.0030872300777050892 -0.0074929074041873 -0 -0 -0.0039938654780547096 -0.0030774609517859575 0 0.0069773760105561675 0 0.0010162288063165967 0.0090309455716136439 0.014461407394490802 1:1 14:1 24:1 37:1 46:1 53:1 68:1 
-0.0024938919944966671 -0 -0.017957529697630519 -5.5797454439271019e-05 -0.0030820145404095306 -0.0049870947668059131 -0.0002771633763051423 -0.0057265690600111479 -0 -0.0017292337766555989 -0.00041001523005201364 -0.019158006164979952 -0.0041825784822059004 -0 -3.276799999995782e-05 -0.051041358129596634 -0.022564416464031394 0.017893012271684831 0.0036089669365494711 0 0.01864452761162529 0.0043469864041011594 0.0075504703387386084 14:1 21:1 36:1 37:1 46:1 69:1 87:1 
-0.0086964061611234829 -0 -0.0085854870250150084 -0.0060679115959812596 -0.0081833309617512923 -0.0031182148572120485 -0.0074880389058771327 -0.015924179314444755 -0 -0.0092089563351461685 -0.0081310087576222795 -0.0091848579249171631 -0.005336848347312525 -0 -0 -0.024442318057176789 -0.0071642530610440871 0.0085671608920623761 0.0057267023796026186 0 0.0092564738300327468 0.0056482734672726803 0.011803848521859957 21:1 36:1 37:1 46:1 64:1 87:1 99:1 
-0.0037063678548647032 -0 -0.0040057118750789341 -0.0032927006999747444 -0.0035447385697670898 -0.005231407276158161 -0.0048058041303571967 -0.0079944069748137461 -0 -0.0027832713653088374 -0.0047261618390152145 -0.0041433766213902819 -0.0078944021530059673 -0 -0 -0.011392044806492276 -0.0044838173144151287 0.0037993814227847305 0.0067863214396321888 0 0.004479991609487444 0.0075031346224096913 0.014048427949594473 14:1 17:1 35:1 37:1 53:1 58:1 67:1 68:1 81:1 85:1 
-0 -0 -0 -0 -0 -0 -0 -0 -0 -0 -0 -0 -0 -0 -0 -0 -0.0026442982792482177 0 0 0 0 0 0 14:1 21:1 36:1 37:1 46:1 68:1 87:1 
-0.0051437320350286603 -0 -0.001931149375391062 -0 -0.0047113928919835912 -0 -3.7458640501999264e-05 -0.010388284191067692 -0 -0.0060221755024636057 -0.0019564494974419178 -0.0023718020462087847 -0 -0 -0 -0.0054584992788481394 -0.00038606805343768867 0.002065085221116801 0 0 0.0023058787854503865 0 0 23:1 37:1 46:1 68:1 87:1 89:1 
-0 -0 -0 -0 -0 -0 -0 -0 -0 -0 -0 -0 -0 -0 -0 -0 -0 0 0 0.125 0 0 0 14:1 36:1 37:1 46:1 68:1 87:1 88:1 
-0.0021633300935275939 -0 -0 -0.00096028801958398646 -0.002500774215636623 -0.0087976597918557296 -0.0053458102793981291 -0.0045787259898800699 -0 -0.006888182795623898 -0.00528628255467079 -0.125 -0.0045057934658318203 -0 -0 -0 -0 -0 0.0053245338764426114 0 0 0.004880154654120024 0.005286384541784434 14:1 26:1 40:1 46:1 54:1 77:1 96:1 101:1 
-0.0094258707782942357 -0.034834303522123293 -0.125 -0.0013464562327118827 -0.0094565259863557526 -0.01303030535308289 -0.0036627073833113487 -0.0089700520624825478 -0.098833057655125178 -0.014952172737736693 -0.0032531651235221349 -0 -0.0085883268967795034 -0.036679796152361673 -0.034088375136036603 -0 -0 -0.029841512062664811 0.0080635780573901396 0.031490620253905421 0 0.0082983498909845917 0.0080641727562669602 14:1 21:1 40:1 46:1 77:1 87:1 
-0.0014588811334332724 -0.0025709459883389331 -0 -0.0019223777513062753 -0.0013646896717063599 -0.0025764905506989342 -0.0019709500868796523 -0.0014115225404883994 -0.0095444188452165485 -0.0015249623496484833 -0.0013875632485331134 -0 -0.0017390992348003691 -0.0018994029542079281 -0.0033979447159756867 -0 -0 -0.0041814362005898002 0.0012596772553144567 0.0041950915950441595 0 0.0013208129004100145 0.0012718406521238798 11:1 14:1 25:1 28:1 35:1 40:1 46:1 54:1 59:1 71:1 77:1 95:1 100:1 101:1 
-0.015925719636783589 -0.0095044526550744392 -0 -0.018161510261954894 -0.016453263997906854 -0.034592728727135882 -0.017119973597309192 -0.016014312899333933 -0.023949168817069318 -0.028687911798831137 -0.018053278877653036 -0 -0.019280920997556111 -0.0063999671946712014 -0.008416967349594821 -0 -0 -0.0091036140653731525 0.020354193422141717 0.0082507021391422589 0 0.019567498021428046 0.020353558427394332 14:1 27:1 40:1 45:1 76:1 94:1 102:1 
-0.0044624940926224444 -0.0013451587406829832 -0 -0.0077073918233867885 -0.0043601298768086889 -0.010245542911162343 -0.0038138088685698529 -0.0037306251943228716 -0.011201923331588549 -0.0076314605840448052 -0.0041202608747680008 -0 -0.0069108808919758052 -0.0038502600141403593 -0.0042049066198704349 -0 -0.12499999999999992 -0.0072758685891729617 0.006102668796691941 0.0062365038739646992 0 0.0065437647740596893 0.0061149289046203677 11:1 14:1 28:1 40:1 46:1 54:1 71:1 77:1 97:1 101:1 
-0.0080270591568778957 -0.01443516458560817 -0 -0.010240145273023131 -0.008459496167008751 -0.017397692095799132 -0.0090253230684168469 -0.008365943233721319 -0.044310198615408761 -0.015289931434551601 -0.0094697963080027092 -0 -0.009098148295721831 -0.014154796792258917 -0.0155387574943734 -0.125 -0 -0.016004413638490284 0.0099050298346788305 0.017368210298141284 0 0.0093276112140671264 0.0099077711587118884 14:1 17:1 21:1 36:1 40:1 45:1 75:1 78:1 87:1 
-0.011101371827274741 -0.016757796698036696 -0 -0.0085453051732226146 -0.010567519359013332 -0.0079258062294006119 -0.0070370798854305404 -0.010048484372750788 -0.044405299949940684 -0.017924200010518261 -0.0087902902902863723 -0 -0.0053700017720067269 -0.017009443266037289 -0.015615750124225091 -0 -0 -0.014564002769693532 0.0058889788018821245 0.0096557686267080781 0 0.0056857826531079578 0.0059083153456437904 24:1 26:1 40:1 46:1 77:1 87:1 88:1 
-0 -0 -0 -0 -0 -0 -0 -0 -0 -0 -0 -0 -0 -0 -0 -0 -0 -0 0 0 0.125 0 0 14:1 24:1 26:1 40:1 46:1 54:1 77:1 96:1 101:1 
-0.0026216568141628322 -0.015232657081345814 -0.019009052568830651 -0 -0.007896142599337826 -0.006011940382457088 -0 -0.010228230184136985 -0.013685006575977127 -0.0076930394678190539 -0.029249969985706756 -0.019674115648312007 -0.125 -0.028318736722575982 -0.01408489432185827 -0.018761298044342883 -0.039636547091671498 -0.014149875725968928 -0.017393386582244104 0.012104778625511951 0.017216786957366566 0 0 13:1 14:2 42:1 65:1 
-0.011270949106410541 -0.010841701710558762 -0.0099721179141484973 -0 -0.014879402263988461 -5.5873538396458111e-05 -0.022784671688906556 -0.0040183297498925259 -0.011755214334177087 -0.014053215374629989 -0.055421857470283387 -0.0088651173104036373 -0 -0.012325541192396369 -0.011644308529986668 -0.010125024785431994 -0.019449234415383567 -0.011063448858986261 -0.011030394178421025 0.011395418851271842 0.0070811954385755875 0 0 13:1 14:1 28:1 42:1 45:1 63:1 70:1 
-0 -0.0060047766645929474 -0 -0 -0 -0.014724967256222023 -0 -0 -0.0050773657189814858 -0 -0 -0 -0 -0.0056682998718589903 -0.0051298182159932107 -0 -0 -0.0059472564737087074 -0.00021652018750809192 0.0069410390908791137 0 0 0 4:1 11:1 13:1 14:1 28:1 35:1 42:1 45:1 47:1 70:1 71:1 
-0.019010224494994794 -0.02124177292813742 -0.024018103076110943 -0 -0.010524778386290266 -0.00011425014148956595 -0.014229611206906256 -0.017985868792474373 -0.021757224452541461 -0.013220581572727146 -0.039071866589125218 -0.024083544727117039 -0 -0.049307124006891134 -0.021570297780846077 -0.024160457521810227 -0.046340521784650771 -0.022210115181554791 -0.015296523436442673 0.021955618834563418 0.024830842706852221 0 0 4:1 42:1 53:1 
-0 -0 -0 -0 -0 -3.0968436512697976e-05 -0.00055740697583026336 -0 -0 -0 -0 -0 -0 -0 -0 -0 -0 -0 -0 0 0 0 0 4:1 11:1 13:1 14:1 28:1 42:1 45:1 47:1 70:1 71:1 
-0.025823791524015167 -0 -0.0028238674717767304 -0 -0.035660953933321429 -0.017329395714818778 -0.036100408650863197 -0.037935173832656745 -0 -0.034451301052243637 -0.13270249014369939 -0.0029347669425711671 -0 -0 -0 -0.0027622113076395506 -0.0054265362359339304 -0 -0.0052771457402180331 0 0.000234414342359192 0 0 4:1 33:1 42:1 45:1 47:1 73:1 92:1 
-0.0052583047606283729 -0 -0 -0 -0 -0.010344056541474415 -0 -0.0018471568232823106 -0 -0 -0 -0 -0 -0.0047446018762411814 -0 -0 -0 -0 -0 0 0 0 0 13:1 31:1 42:1 52:1 70:1 
-0.024165404453716951 -0.010974174457050945 -0.0063767030561476968 -0.125 -0.022420124490559287 -0.076365415127234673 -0.015667729784399398 -0.020810333935996978 -0.010892749918339831 -0.022237115888598068 -0.083333333333333329 -0.006242348461314798 -0 -0.019611445954072909 -0.010675633601385653 -0.0063603130480059519 -0.011505695041306828 -0.0112591132648128 -0.0076846899197078964 0.011433476243734997 0.0057858786393125408 0.125 0.125 6:1 16:1 42:1 52:1 92:1 
-0.0036998711360789658 -0 -0 -0.006625171089416796 -0.0063965145496277668 -0.00268151926833066 -0.0035321428833842983 -0.0019232179595140969 -0 -0.0044564558153642776 -0.0032073389992676705 -0 -0.0041515029332736915 -0 -0 -0 -0 -0 -0 -0.0048713359887401376 0 0.0065789728458327708 0.0048760591926100679 11:1 28:2 39:1 46:1 69:1 71:1 88:1 
-0 -0 -0 -0 -0 -0 -0 -0.0017365018730928952 -0.125 -0 -0 -0 -0 -0 -0 -0 -0 -0 -0 -0 0 0 0 20:1 35:1 39:1 46:1 68:1 87:1 
-0.0052625609314207542 -0 -0.0067841037924076817 -0.0054810824513778465 -0.010032941494201213 -0.0060221241225550193 -0.0047122746563208282 -0.0054122146119818665 -0 -0.0054159324392070119 -0.0055677031397543203 -0.0019798889492699287 -0.0067073779851660126 -0 -0 -0.0025936018527312589 -0.0021700646837585873 -0 -0.0025711484709801543 -0.0063817218786406931 0.0015278716290870759 0.013126848570935724 0.0063792878201173776 10:1 11:1 18:1 27:1 28:1 29:1 32:1 39:1 48:1 49:1 50:1 51:1 71:1 86:1 
-0 -0 -0.010877995617171139 -0 -0 -0 -0 -0 -0 -0 -0 -0.0039764770769520402 -0 -0 -0 -0.0041012901457275087 -0.00023139109986692469 -0.125 -0.0044049323654833175 -0 0.0054773512703553771 0 0 14:1 36:1 39:1 46:1 68:1 87:1 88:1 
-0 -0.125 -0 -0 -0 -0 -0 -0.00074992672669229492 -0 -0.00019272190110788503 -0.0012156479514890239 -0 -0 -0 -0 -0 -0 -0 -0 -0 0 0 0 2:1 24:1 36:1 39:1 46:1 54:1 68:1 101:1 
-0.0038649774745264107 -0 -0.012069753578569545 -0.0034666517381596535 -0.00684384534736687 -0.0054764466777564302 -0.0049377974730373314 -0.0046801379315325516 -0 -0.0030887525526577578 -0.0047789963352605838 -0.0047623761822680041 -0.0080208818639064261 -0 -0 -0.0046141505000277328 -0.0049667498737692309 -0 -0.0044727670445877318 -0.0068834150618362067 0.0049796730677948934 0.014741096892477087 0.0068971067821321404 14:1 17:1 35:1 39:1 53:1 58:1 67:1 68:1 81:1 85:1 
-0.0042443352888449646 -0 -0 -0.0019637237076168168 -0.0075828674145735171 -0 -0.0042571431335121394 -0.0022045069074790556 -0 -0.0045094294539172472 -0.004149176647619086 -0 -0 -0 -0.125 -0 -0 -0 -0 -0 0 0 0 21:1 24:1 36:1 39:1 46:1 69:1 87:1 90:1 
-0.0093601979839048957 -0 -0.021916861935035982 -0.0064367450731087072 -0.016899115598165072 -0.0041760850908018534 -0.0072281255395028627 -0.0087530773548844653 -0 -0.0098705403136315744 -0.0078764030591537693 -0.0079322845495447165 -0.0065610286223870421 -0 -0 -0.0083953974062434007 -0.0076666723209134948 -0 -0.0082705522487441611 -0.0068773660479684792 0.008641746759938812 0.013305830569961716 0.0068790452605954483 21:1 36:1 39:1 46:1 64:1 87:1 99:1 
-0.0013410394927253334 -0 -0.063790564320405849 -0 -0.0036428173874542068 -0.0068380755310715998 -0 -0.004562170924119844 -0 -0.00011426150778635055 -0 -0.025176189698598573 -0.0062823116484260495 -0 -0 -0.024419001279743838 -0.028344291600763415 -0 -0.024354264966390381 -0.005677124483206876 0.024244952858249368 0.01262295819795861 0.0056811516248950582 14:1 21:1 36:1 39:1 46:1 69:1 87:1 
-0 -0 -0.0063415925488335117 -0 -0 -0 -0 -0 -0 -0 -0 -0.0050506595352212535 -0 -0 -0 -0.002299786308481112 -0 -0 -0.0033462198387377807 -0 0.0043488590490017749 0 0 21:1 24:1 39:1 46:1 68:1 87:1 
-0.010505536862887166 -0 -0.0082098997139749847 -0.013969484461092592 -0.018737276516144451 -0.012439110424264915 -0.010870192731937197 -0.0095778055679337035 -0 -0.0086472323928079471 -0.0087105879836597289 -0.0026733820112732273 -0.0091507614724784074 -0.125 -0 -0.0031442686608788052 -0.0042514296199942419 -0 -0.0030661197422737992 -0.0095051341126915472 0.0024561406372502889 0.018141658980534377 0.0094932735557139696 8:1 14:1 39:1 46:1 52:1 61:1 68:1 70:1 
-0 -0 -0.032195887711987829 -0.0003897952103488376 -0 -0.0015028747355018061 -0 -0 -0 -0 -0 -0.01095283191498733 -0 -0 -0 -0.012308856135234442 -0.011256146531290897 -0 -0.012641372821410504 -0 0.013249871500048896 0 0 11:1 14:1 21:1 24:1 28:1 39:1 46:1 71:1 79:1 87:1 
-0.010968015233282336 -0 -0.026555839814137693 -0.018215695652240224 -0.023920654451136107 -0.016293829774565761 -0.013869516704528059 -0.0071724128629369254 -0 -0.011632856250146394 -0.015459049910949671 -0.010077696165134023 -0.013125208464533994 -0 -0 -0.010168554620239649 -0.010143806671607369 -0 -0.01027775438753507 -0.015881906909378043 0.0073371855662362493 0.021206001620706266 0.015845750909524035 14:1 20:1 28:1 35:1 39:1 45:1 68:1 
-0.0070480155021182666 -0 -0.0089655423023346642 -0 -0.012762213886143778 -0 -0.0017100620561574776 -0.0072480792358918696 -0 -0.007811495521930817 -0.0035092988004224801 -0.0029515753960654679 -0.000104319372945821 -0 -0 -0.003459292986193616 -0.003163110021928945 -0 -0.0033072568509223631 -0 0.0030847422290627338 0.0017797293286161186 0 23:1 39:1 46:1 68:1 87:1 89:1 
-0.0021385342990586217 -0 -0.0042822945575519914 -0 -0.0022397537273712723 -0.0027958878045740289 -0.0026290366857019513 -0.0036898573641412362 -0 -0.0019845778532279422 -0.00032330610177762228 -0.0012952230439332586 -0.0082842899798577056 -0 -0 -0.0017108199467277688 -0.0037753935547944787 -0 -0.00048450804984064569 -0.0077523271634993398 0.00046808156482243391 0.019069725430372657 0.0077783742441397009 1:1 14:1 24:1 39:1 46:1 53:1 68:1 
-0.0019952156756691194 -0 -0 -0.0018203956413430616 -0.0019952506801051528 -0.0052323476910905537 -0.0034999411753036808 -0.0027686561535759549 -0 -0.0024856186486211899 -0.0045967747495711296 -0.125 -0.006743082212422884 -0 -0 -0 -0 -0 -0 -0.0035824453633997617 -0 0.0041131067018388102 0.0035926786100585919 14:1 26:1 41:1 46:1 54:1 77:1 96:1 101:1 
-0.02156381701648357 -0.046708144559382561 -0 -0.013932643233551381 -0.013579207491103645 -0.015962880057174184 -0.012837598931559517 -0.013307439134752646 -0.018272092194868774 -0.014068910633914371 -0.014180796828583159 -0 -0.026599162834384356 -0.016856419852682686 -0.018265899342743464 -0.125 -0 -0.018984446208481109 -0 -0.015714768617792269 -0.020047060129178135 0.015316668881612025 0.01572624082398906 14:1 17:1 21:1 36:1 41:1 45:1 75:1 78:1 87:1 
-0.0011695935529094481 -0.003402744751519872 -0 -0 -0.000728073719458586 -0 -0 -0.0010999271424735203 -0 -0.00083743957547487353 -0 -0 -0 -0.00055848523836554568 -0 -0 -0.125 -0 -0 -0 -0 0 0 3:1 12:1 14:1 41:1 46:2 52:1 54:1 55:1 56:1 62:1 77:1 85:1 97:1 101:1 
-0 -0.0032167522408791424 -0 -0 -0 -0 -0 -0 -0.00234391884514446 -0 -0 -0 -0 -0.0013989488609156228 -0.002345339416799529 -0 -0 -0.0027530733913139612 -0 -0 -0.0031130799085933984 0 0 11:1 14:1 25:1 28:1 35:1 41:1 46:1 54:1 59:1 71:1 77:1 95:1 100:1 101:1 
-0.028710019007653412 -0.013164886584653743 -0 -0.019818769592301645 -0.014434047071592567 -0.022434236353963917 -0.01970440141613861 -0.016983744857815394 -0.0033004742579363063 -0.016897080225403569 -0.01486320580497427 -0 -0.047439389054597825 -0.003180434805407837 -0.003301280525679632 -0 -0 -0.0052875390748470703 -0 -0.026589367211996479 -0.0035166088961759807 0.027555363864743429 0.026670134415928401 14:1 41:1 46:1 53:1 77:1 95:1 
-0.0037734980373049214 -0.091263236548291438 -0.125 -0 -0.0037814596058554995 -0 -0 -0.002094129868138291 -0.034786623248805243 -0.0014547534508729388 -0 -0 -0 -0.036156819178405068 -0.034771446019056344 -0 -0 -0.029601321287090004 -0 -0 -0.031730536012166799 0 0 14:1 21:1 41:1 46:1 77:1 87:1 
-0.018279732988049514 -0.04551077642744903 -0 -0.0053954412004687353 -0.010510191285948538 -0.0031553416821273957 -0.006278811799918997 -0.010259605215461071 -0.016150847559406913 -0.010320754302716308 -0.0077221666737983582 -0 -0.0076967589181888285 -0.017003194085474637 -0.016189759740227894 -0 -0 -0.014794482386771831 -0 -0.0045394805042296782 -0.010618361219153848 0.0045147202440196411 0.0045688814893371068 24:1 26:1 41:1 46:1 77:1 87:1 88:1 
-0 -0 -0 -0 -0 -0 -0 -0 -0 -0 -0 -0 -0 -0 -0 -0 -0 -0 -0.125 -0 -0 0 0 14:1 24:1 26:1 41:1 46:1 54:1 77:1 96:1 101:1 
-0.007219212816515292 -0.0023042628825652761 -0 -0.0047318679539138566 -0.0044883305674092945 -0.003414900052883803 -0.0035413283214343443 -0.0036689968722041695 -0.0048936207042197515 -0.0039639400581248105 -0.0043785947370818187 -0 -0.0077557378751594913 -0.0039617514857729986 -0.0048706036040282964 -0 -0 -0.0079383605693386615 -0 -0.0047230563870479161 -0.0067908299665797485 0.003185233411924328 0.0046025516220027885 11:1 14:1 28:1 41:1 46:1 54:1 71:1 77:1 97:1 101:1 
-0.026981665030363682 -0 -0.0074223901906593347 -0 -0.13255100970017614 -0 -0.037899666247906208 -0.038293641374670194 -0 -0.034884907495218713 -0.037012842069259311 -0.0037722006762397858 -0 -0 -0 -0.0035343488985297962 -0.0036266483054127169 -0 -0.0047740459728484574 -0 -0 -0.0010093229501824809 0 4:1 33:1 39:1 45:1 47:1 73:1 92:1 
-0.017372650787809914 -0.022208116119849929 -0.042305330577611419 -0 -0.04280752263572396 -0 -0.0086173429016522616 -0.01740869217435996 -0.022480239587429084 -0.014707029574001079 -0.011615848098014489 -0.021584434988314354 -0 -0.025125948239395013 -0.022413482224437568 -0.021667843407349487 -0.021062869977769908 -0.023010687986160946 -0.013663310483828133 -0 -0.044582521482675087 -0.02318935413170958 0 4:1 39:1 53:1 
-0 -0.0057849073630924621 -0.00020560611277647902 -0 -0 -0 -0.0038416065539573891 -0 -0.0044293608260970452 -0 -0 -0 -0 -0.0035644173551019781 -0.0045778502643381361 -0.00061637226298756273 -0.00028329889960540186 -0.0056585116900837451 -0.0048986192696485534 -0 -0.013509500442491756 -0 0 4:1 11:1 13:1 14:1 28:1 39:1 45:1 47:1 70:1 71:1 
-0.0073938739095069364 -0.020101521014075467 -0.044696171827481326 -0 -0.054337052694559032 -0 -0.003788867150519772 -0.011690592696905583 -0.01901803802675605 -0.014301064388712882 -0.015105422080958693 -0.022813759511853368 -0.125 -0.017095823426009724 -0.019445015901572573 -0.022389305649215843 -0.023685465091245934 -0.019012812823572263 -0.020361683919397348 -0 -0.032439502536260371 -0.02002541739828919 0 13:1 14:2 39:1 65:1 
-0.0042144695775384955 -0.0016386025931263834 -0 -0 -0.0026746909088575452 -0 -0 -0.0024189613332631162 -0.001974102516302069 -0 -0.0007687815090880321 -0 -0 -0.0046352017699154389 -0.0016075016750418611 -0 -0 -0.0020460970040239858 -0 -0 -0.0052034376179703884 -0 0 13:1 31:1 39:1 52:1 70:1 
-0.024197007291796316 -0.010599737538514276 -0.012733297155530766 -0.125 -0.082447718555923075 -0 -0.016800744366874374 -0.020717237745291155 -0.010326843311888632 -0.022839924920528897 -0.022947727655811656 -0.0063458800979790033 -0 -0.0096782018650641496 -0.010222358661502258 -0.0065425076929084653 -0.0059586761937969251 -0.010733539535186803 -0.0088293129923205753 -0.125 -0.021324803974890255 -0.0058519649916479429 0 6:1 16:1 39:1 52:1 92:1 
-0 -0 -0 -0 -0 -0.125 -0.010488980810922189 -0 -0 -0 -0 -0 -0 -0 -0 -0 -0 -0 -0 -0 -0 -0 0 4:1 13:1 14:1 39:1 53:1 70:1 
-0.0078394407562965493 -0.0016607087753627041 -0.013023221612615828 -0 -0.0086047025548023296 -0 -0.0061527852095105201 -0.0021440112396937361 -0.0025275243394631028 -0.0039756699467931277 -0.0027577801615236118 -0.0066957242196542923 -0 -0.00037573293179090272 -0.002443390748443435 -0.0065042739510211001 -0.0063198857781756584 -0.0018876585182171044 -0.0030970014701343826 -0 -0.0035130563831074625 -0.0046090336323090439 0.125 13:1 30:1 39:1 45:1 53:1 70:1 
-0.025932336198157685 -0 -0.0028215501337636411 -0 -0.035653967971698203 -0 -0.036546480088666365 -0.14640427294352965 -0 -0.034368985846700652 -0.035697433042044431 -0.0029400258266299444 -0 -0 -0 -0.0055413943053165713 -0.002747818338801247 -0 -0.0052711894041154242 -0 -0 -0.0002233095670496142 -0 4:1 33:1 37:1 45:1 47:1 73:1 92:1 
-0.016031611341919411 -0.02124177292813742 -0.023334130046675616 -0 -0.010498775694646804 -0 -0.01030854900309836 -0.069587199456654716 -0.021757224452541461 -0.012655006379455073 -0.010433463859272216 -0.022969181323748797 -0 -0.025774688518456181 -0.021570297780846077 -0.046653269472239599 -0.022838068369667959 -0.046009493468799713 -0.015296226849358153 -0 -0.021993630077960548 -0.024487991452461694 -0 4:1 37:1 53:1 
-0 -0.0060047766645929474 -0 -0 -0 -0 -0 -0 -0.0050773657189814858 -0 -0 -0 -0 -0.0029616185246111263 -0.0051298182159932107 -0 -0 -0.012278589320348822 -0.00024130061026786249 -0 -0.0069258925333796524 -0 -0 4:1 11:1 13:1 14:1 28:1 35:1 37:1 45:1 47:1 70:1 71:1 
-0.01039610910281471 -0.010841701710558762 -0.0091342653203569657 -0 -0.014846923721387012 -0 -0.019501804044353876 -0.016134382330125083 -0.011755214334177087 -0.013570017930414983 -0.014777137916437035 -0.0075640212471095739 -0 -0.0070170782006589638 -0.011644308529986668 -0.018472087236296071 -0.0091120665813841928 -0.022917819416621084 -0.011023815690459838 -0 -0.011374974538900393 -0.0066559677785568688 -0 13:1 14:1 28:1 37:1 45:1 63:1 70:1 
-0 -0 -0 -0 -0 -0.125 -0.0037322275767030714 -0 -0 -0 -0 -0 -0 -0 -0 -0 -0 -0 -0 -0 -0 -0 -0 4:1 13:1 14:1 37:1 53:1 70:1 
-0.0033298185729055234 -0.015232657081345814 -0.019152814167591164 -0 -0.0078953581962353993 -0 -0 -0.040717521467394498 -0.013685006575977127 -0.0076451183599724557 -0.0079069969812296144 -0.01983498892191787 -0.125 -0.014794574274994076 -0.01408489432185827 -0.037610211411317339 -0.020164604359821519 -0.029358043914097791 -0.017377748172468704 -0 -0.012109277846035322 -0.017290789242790296 -0 13:1 14:2 37:1 65:1 
-0.0076138790956812282 -0 -0.0014176488248057873 -0 -6.2394466478757503e-05 -0 -0.0034403231899434133 -0.0041637964188426194 -0 -0.0012170146880559805 -0.00014973559788500302 -0.002364686455287539 -0 -0 -0 -0.0028520102712568125 -0.0012055168519296315 -0 -0 -0 -0 -0.00073084667374006661 -0.125 13:1 30:1 37:1 45:1 53:1 70:1 
-0.025113615906311358 -0.010974174457050945 -0.0063727203893852334 -0.125 -0.022426165282513774 -0 -0.016066610143008423 -0.083311954013222084 -0.010892749918339831 -0.022217054396002682 -0.022412623727852559 -0.0061956771107834398 -0 -0.010612531476208732 -0.010675633601385653 -0.012617269726232791 -0.0057742292355001685 -0.023301484887673585 -0.0076966910598756655 -0.125 -0.011426274393451881 -0.0057715822467174121 -0 6:1 16:1 37:1 52:1 92:1 
